tree
version=v4
num_class=1
num_tree_per_iteration=1
label_index=0
max_feature_idx=115
objective=binary sigmoid:1
feature_names=is_home_favorite home_elo away_elo elo_diff elo_expected elo_surprise handicap_normalized handicap_direction handi_team_past_accuracy handicap_deviation home_wr_5 away_wr_5 home_wr_10 away_wr_10 home_wr_20 away_wr_20 home_score_avg away_score_avg home_concede_avg away_concede_avg home_streak away_streak h2h_home_wr h2h_away_wr h2h_score_diff h2h_count home_points away_points points_diff home_season_wr away_season_wr home_rest_days away_rest_days rest_diff home_games_7d away_games_7d home_back_to_back away_back_to_back home_recent_form away_recent_form form_diff home_scored_trend away_scored_trend home_conceded_trend away_conceded_trend home_net_trend away_net_trend home_recent_cover away_recent_cover home_pitcher_recent_form away_pitcher_recent_form home_pitcher_era_recent away_pitcher_era_recent pitcher_form_diff line_movement line_movement_abs has_line_movement line_movement_midday consensus_home_prob consensus_away_prob sharp_home_prob odds_dispersion sharp_soft_gap implied_overround odds_count best_home_odds best_away_odds odds_vs_handicap home_elo_velocity away_elo_velocity home_win_streak away_win_streak home_home_win_rate away_away_win_rate h2h_cover_rate home_pitcher_wr away_pitcher_wr pitcher_wr_diff home_pitcher_era away_pitcher_era pitcher_era_diff home_pitcher_starts away_pitcher_starts pitcher_exp_diff home_pitcher_rest_days away_pitcher_rest_days pitcher_rest_diff home_pitcher_fatigued away_pitcher_fatigued total_runs_avg home_run_volatility away_run_volatility home_shutout_rate away_shutout_rate is_npb league_avg_total_runs pitcher_era_x_scored pitcher_fatigue_x_era elo_x_handicap pitcher_quality_x_rest home_team_ops away_team_ops team_ops_diff home_team_rpg away_team_rpg home_rotation_era away_rotation_era home_rotation_fip away_rotation_fip home_rotation_whip away_rotation_whip home_rotation_k9 away_rotation_k9 rotation_era_diff rotation_fip_diff offense_vs_pitching
feature_infos=[0:1] [1210.9884880579032:1800.1644950369409] [1211.2468988689557:1814.6261170833604] [-383.24780431536146:391.20461746349451] [0.13461403350130122:0.93069035572143932] [0.087446361753902524:0.93069035572143932] [-1.4565355129409345:4.9927721118936486] [0:1] [0:1] [-0.83562169947191556:2.8643783005280845] [0:1] [0:1] [0:1] [0:1] [0:1] [0:1] [0:13.5] [0:13] [0:13] [0:13.5] [-19:14] [-14:13] [0:1] [0:1] [-24:12] [0:91] [0:852] [0:855] [-351:324] [0:1] [0:1] [1:369] [0:369] [-29:29] [0:7] [0:7] [0:1] [0:1] [0:1] [0:1] [-1:1] [0:13.5] [0:13] [0:13.199999999999999] [0:13.5] [-12:8.5] [-8.5:12] [0:1] [0:1] [0:1] [0:1] [0:16] [0:18] [-1:1] none none none none none none none none none none none none none none [-197.68132233148117:167.28362981035116] [-176.48020580583216:164.03236379773193] [-12:13] [-13:15] [0:1] [0:1] [0:1] [0:1] [0:1] [-1:1] [0:17] [0:16] [-14.333333333333334:13.5] [0:47] [0:47] [-46:42] [0:30] [0:30] [-29:29] [0:1] [0:1] [2:8.1520419426048569] [0:7.0738956735309566] [0.4330127018922193:7.0142711667000732] [0:1] [0:1] [0:1] [2:12] [0:99.900000000000006] [0:12] [-1418.0168759668375:853.96295816049985] [-358.33333333333337:240] [0:0.72299999999999998] [0:0.72299999999999998] [-0.14600000000000002:0.14600000000000002] [0:4.3300000000000001] [0:4.3300000000000001] [0:3.7200000000000002] [0:3.7200000000000002] [0:4.7400000000000002] [0:4.7400000000000002] [0:1.3660000000000001] [0:1.3660000000000001] [0:10.58] [0:10.58] [-2.0900000000000003:2.0900000000000003] [-2.04:2.04] [0:3.26586]
tree_sizes=979 995 996 993 997 1004 1008 1005 1002 1007 1000 1004 1001 1014 995 897 1008 1001 892 897 1011 1010 1011 1008 1010 1014 1009 1008 1006 1013 1015 1019 1006 1015 1010 1009 1005 1011 1002 1000 1009 1016 1011 1013 1014 1012 1007 1012 1010 1007 1007 1006 1005 1011 1002 1012 1012 1016 996 1007 1007 1008 1004 905 1008 1004 908 899 988 897 687 693 584 686 687 1007 900 902 1003 1008 898 894 1010 898 898 1014 1012 906 1017 1009 789 890 791 891 894 1014 1007 1001 1008 888 903 1011 898 911 902 683 684 689 581 687 1014 1006 1010 1018 1013 584 1014 580 1017 577 1013 907 1017 900 1009 1005 1010 902 1017 788 1016 1009 1006 1011 1010 900 904 902 1007 898 871 898 1009 1007 1008 1013 1010 1004 1014 1006 890 896 911 895 1006 1006 1003 1001 1004 1002 692 689 684 686 684 909 1006 1007 1008 1018 795 1009 794 795 1007 908 901 902 907 905 1010 1017 1005 911 1008 899 795 896 798 893 1011 1004 1005 1011 1008 903 790 794 1011 1011 1010 902 1008 1005 797 893 891 1005 872 888 1011 1008 1003 1005 1008 900 904 1016 907 987 1013 1013 1002 1003 1008 896 898 902 900 1009 1012 1015 1008 1015 1010 894 901 1002 896 897 894 901 892 894 895 1010 1011 1009 1016 1005 793 797 904 797 792 794 689 791 1007 692 698 687 905 1010

Tree=0
num_leaves=8
num_cat=0
split_feature=9 1 6 80 92 46 6
split_gain=41.6483 16.4919 10.303 9.05176 7.93727 5.37072 5.1409
threshold=-0.26315203910290758 1676.3896880390203 -0.44910434524381132 1.8448412698412702 1.0000000180025095e-35 0.4000000000000003 0.80012614671642546
decision_type=2 2 2 2 2 2 2
left_child=3 2 -2 4 -1 -5 -3
right_child=1 6 -4 5 -6 -7 -8
leaf_value=-0.15508529532688209 -0.15965397262915265 -0.14622677738433221 -0.16292501742069246 -0.15041310962559126 -0.15920102589710239 -0.15766700480742699 -0.15766556082548461
leaf_weight=69.052665531635284 141.58280342817307 8.9420717954635638 645.31951457262039 28.813342452049255 318.43711227178574 22.851961255073547 10.680807977914808
leaf_count=278 570 36 2598 116 1282 92 43
internal_value=-0.160601 -0.162084 -0.162335 -0.157876 -0.158461 -0.153559 -0.152229
internal_weight=1245.68 806.525 786.902 439.155 387.49 51.6653 19.6229
internal_count=5015 3247 3168 1768 1560 208 79
is_linear=0
shrinkage=1


Tree=1
num_leaves=8
num_cat=0
split_feature=9 1 17 6 91 72 69
split_gain=40.734 16.1382 12.9816 10.0802 9.31917 9.17739 5.35116
threshold=-0.26315203910290758 1676.3896880390203 4.354166666666667 -0.44910434524381132 4.2714165867356462 0.27922077922077926 -3.3994399081689148
decision_type=2 2 2 2 2 2 2
left_child=4 3 -3 -2 5 -1 -6
right_child=1 2 -4 -5 6 -7 -8
leaf_value=-0.0066875535368131024 0.0011337693055926989 0.01478286505273417 -0.0037162219241439805 -0.0021016030607671015 0.0024022025185686255 0.0034521543505120888 -0.010949922953293837
leaf_weight=10.683181121945379 141.59578174352646 12.924933671951296 6.7105962187051764 645.20883348584175 5.7145852595567712 414.16235181689262 8.6956839859485591
leaf_count=43 570 52 27 2598 23 1667 35
internal_value=0.000197498 -0.00126981 0.0084759 -0.00151814 0.00289174 0.0031894 -0.00568332
internal_weight=1245.7 806.44 19.6355 786.805 439.256 424.846 14.4103
internal_count=5015 3247 79 3168 1768 1710 58
is_linear=0
shrinkage=0.011


Tree=2
num_leaves=8
num_cat=0
split_feature=6 1 17 112 113 18 85
split_gain=38.1675 14.1581 11.4244 10.9434 9.09697 10.1295 3.74518
threshold=-0.44910434524381132 1662.9617225755558 4.5357142857142865 7.3850000000000007 -0.35499999999999993 3.0500000000000003 10.500000000000002
decision_type=2 2 2 2 2 2 2
left_child=4 3 -3 -2 6 -6 -1
right_child=1 2 -4 -5 5 -7 -8
leaf_value=0.0060618109642377807 -0.0021519208742388335 0.011412959705607363 -0.0047389701590646186 0.003222984130565629 -0.00062940436061642872 0.002998699443055378 0.01705541260171025
leaf_weight=11.927856236696245 638.42319498956203 17.407005816698078 7.203771471977233 48.923408851027489 121.2621493935585 394.59764450788498 5.9636399745941153
leaf_count=48 2571 70 29 197 488 1588 24
internal_value=0.000195307 -0.00147088 0.00665551 -0.00176663 0.00241861 0.00214459 0.0100594
internal_weight=1245.71 711.957 24.6108 687.347 533.751 515.86 17.8915
internal_count=5015 2867 99 2768 2148 2076 72
is_linear=0
shrinkage=0.011


Tree=3
num_leaves=8
num_cat=0
split_feature=9 1 6 91 80 6 69
split_gain=39.22 15.5601 9.64083 9.13622 9.60879 5.57896 5.24301
threshold=-0.26315203910290758 1684.0250080882665 -0.44910434524381132 4.2714165867356462 1.8448412698412702 1.0708958535482942 -3.3994399081689148
decision_type=2 2 2 2 2 2 2
left_child=3 2 -2 4 -1 -3 -5
right_child=1 5 -4 6 -6 -7 -8
leaf_value=0.0025340609117371804 0.001134064930921026 0.016478450822507949 -0.0020253447516444911 0.002345550404092863 0.0077714686878314057 0.0027734878648813261 -0.01087113077915502
leaf_weight=377.27732254564762 141.88387723267078 7.2166387140750867 649.73071449995041 5.7169745862483987 47.738864988088608 7.4628840982913971 8.689959436655041
leaf_count=1518 571 29 2617 23 192 30 35
internal_value=0.000193277 -0.00124688 -0.00145786 0.00283622 0.00313083 0.00981828 -0.00565502
internal_weight=1245.72 806.294 791.615 439.423 425.016 14.6795 14.4069
internal_count=5015 3247 3188 1768 1710 59 58
is_linear=0
shrinkage=0.011


Tree=4
num_leaves=8
num_cat=0
split_feature=9 1 17 6 91 80 69
split_gain=38.3552 15.2337 12.5248 9.37751 8.94106 9.39164 5.14037
threshold=-0.26315203910290758 1676.3896880390203 4.354166666666667 -0.44910434524381132 4.2714165867356462 1.8448412698412702 -3.3994399081689148
decision_type=2 2 2 2 2 2 2
left_child=4 3 -3 -2 5 -1 -6
right_child=1 2 -4 -5 6 -7 -8
leaf_value=0.0025057315486288088 0.0010823112836357504 0.014414072566854277 -0.0037449700385728296 -0.0020378198151110765 0.002321051400821267 0.0076824170447737945 -0.010766428454941876
leaf_weight=377.34987902641296 141.64737859368324 12.952635154128076 6.7117278277873984 644.89381808042526 5.7179828584194192 47.765504702925682 8.6818833649158442
leaf_count=1518 570 52 27 2598 23 192 35
internal_value=0.000191237 -0.00123317 0.0082283 -0.00147472 0.00280446 0.00309579 -0.0055975
internal_weight=1245.72 806.206 19.6644 786.541 439.515 425.115 14.3999
internal_count=5015 3247 79 3168 1768 1710 58
is_linear=0
shrinkage=0.011


Tree=5
num_leaves=8
num_cat=0
split_feature=6 16 14 74 14 35 85
split_gain=29.9638 10.4869 10.4758 8.50275 8.08165 8.23786 5.284
threshold=0.1516540053343986 5.8166666666666673 0.54772727272727284 0.53279569892473122 0.27922077922077926 2.5000000000000004 7.5000000000000009
decision_type=2 2 2 2 2 2 2
left_child=4 3 -3 -2 6 -6 -1
right_child=1 2 -4 -5 5 -7 -8
leaf_value=-0.00082936496099744695 -0.0018517410339061945 -0.0079245013484723729 0.0063524970551541741 -0.0055222291405734193 0.002571579881703675 0.00024461735931086544 -0.013185016326217781
leaf_weight=10.18461984395981 353.43632724881172 7.4452856183052054 29.548737615346909 97.795291870832443 391.93222557008266 348.42034398019314 6.9552952200174323
leaf_count=41 1424 30 119 394 1577 1402 28
internal_value=-6.55194e-05 -0.00219008 0.00340542 -0.00265306 0.00130328 0.0014782 -0.00607159
internal_weight=1245.72 488.226 36.994 451.232 757.492 740.353 17.1399
internal_count=5015 1967 149 1818 3048 2979 69
is_linear=0
shrinkage=0.011


Tree=6
num_leaves=8
num_cat=0
split_feature=9 35 115 108 25 76 1
split_gain=28.2519 10.8422 9.67423 14.1038 9.28533 9.15447 8.44614
threshold=-0.26315203910290758 2.5000000000000004 1.9387800000000002 2.9550000000000005 16.500000000000004 0.58477011494252884 1572.5218570903053
decision_type=2 2 2 2 2 2 2
left_child=1 5 3 -2 -4 -1 -3
right_child=2 6 4 -5 -6 -7 -8
leaf_value=0.0050522404251382991 -0.0010570503949039755 -0.00060332714860385727 -0.0012596326633611218 0.012038291359749037 -0.0088401250139031329 -0.0001671078856214129 0.0055505283680609783
leaf_weight=175.82690316438675 725.36684393882751 172.05874988436699 40.976830661296844 9.6839204430580121 37.738425821065903 52.473601639270782 31.57529853284359
leaf_count=707 2922 692 165 39 152 211 127
internal_value=-6.48809e-05 0.00220708 -0.0012722 -0.00087707 -0.00492958 0.00385119 0.000356282
internal_weight=1245.7 431.935 813.766 735.051 78.7153 228.301 203.634
internal_count=5015 1737 3278 2961 317 918 819
is_linear=0
shrinkage=0.011


Tree=7
num_leaves=8
num_cat=0
split_feature=6 74 93 96 14 1 1
split_gain=28.9249 10.2196 9.09936 7.98359 7.91392 7.95568 4.29477
threshold=0.1516540053343986 0.54011494252873582 1.0000000180025095e-35 27.728205128205129 0.27922077922077926 1422.2362932046901 1470.0554654471257
decision_type=2 2 2 2 2 2 2
left_child=4 2 -2 -3 6 -6 -1
right_child=1 3 -4 -5 5 -7 -8
leaf_value=-0.0018888386220373354 0.0015556356738051444 -0.0064061089917215545 -0.0023158993441106165 0.003146737443894721 0.0043488736102514141 0.0010020611793574424 -0.013492824419979945
leaf_weight=11.420823454856874 97.769168883562088 88.564189285039902 290.08093249797821 11.662631303071974 99.186416029930115 641.28456175327301 5.7117034196853629
leaf_count=46 394 357 1169 47 399 2580 23
internal_value=-6.41406e-05 -0.00215205 -0.00133747 -0.0052791 0.00128043 0.00145347 -0.00601903
internal_weight=1245.68 488.077 387.85 100.227 757.604 740.471 17.1325
internal_count=5015 1967 1563 404 3048 2979 69
is_linear=0
shrinkage=0.011


Tree=8
num_leaves=8
num_cat=0
split_feature=6 16 14 74 14 35 85
split_gain=28.2938 10.229 10.2475 8.15259 7.75216 7.89145 5.18727
threshold=0.1516540053343986 5.8166666666666673 0.54772727272727284 0.52803983228511542 0.27922077922077926 2.5000000000000004 7.5000000000000009
decision_type=2 2 2 2 2 2 2
left_child=4 3 -3 -2 6 -6 -1
right_child=1 2 -4 -5 5 -7 -8
leaf_value=-0.00076803374043102042 -0.0017815600672625553 -0.0078153784883195597 0.0063099064720716783 -0.0053267054150920069 0.002507193064625891 0.00022994141062197148 -0.01301406654516378
leaf_weight=10.17971543967724 349.3270128518343 7.4379496425390235 29.557558447122574 101.66184639930725 392.09677122533321 348.45446147024632 6.9444881975650778
leaf_count=41 1408 30 119 410 1577 1402 28
internal_value=-6.34827e-05 -0.00212881 0.00339709 -0.00258635 0.00126615 0.00143737 -0.00596
internal_weight=1245.66 487.984 36.9955 450.989 757.675 740.551 17.1242
internal_count=5015 1967 149 1818 3048 2979 69
is_linear=0
shrinkage=0.011


Tree=9
num_leaves=8
num_cat=0
split_feature=6 16 14 17 14 9 83
split_gain=27.6777 10.0057 10.0302 9.98524 7.59314 7.88538 5.10931
threshold=0.1516540053343986 5.8166666666666673 0.54772727272727284 6.7071428571428582 0.27922077922077926 -0.26315203910290758 1.0000000180025095e-35
decision_type=2 2 2 2 2 2 2
left_child=4 3 -3 -2 6 -6 -1
right_child=1 2 -4 -5 5 -7 -8
leaf_value=-0.00030464958324081197 -0.0028426456712850236 -0.0077391554606039527 0.0062383661246237414 0.0068287040693217269 0.0024073050512055201 0.00011271507353125631 -0.012318220049758747
leaf_weight=9.426903039216997 437.98849369585514 7.4325522184371939 29.57216115295887 12.896318227052687 421.90428490936756 318.7247729152441 7.6883379817008963
leaf_count=38 1766 30 119 52 1696 1283 31
internal_value=-6.28649e-05 -0.0021059 0.00335848 -0.00255858 0.00125203 0.00142143 -0.00590141
internal_weight=1245.63 487.89 37.0047 450.885 757.744 740.629 17.1152
internal_count=5015 1967 149 1818 3048 2979 69
is_linear=0
shrinkage=0.011


Tree=10
num_leaves=8
num_cat=0
split_feature=6 18 30 1 24 30 39
split_gain=27.7888 17.0116 11.5804 10.487 8.75953 7.42525 4.52221
threshold=-0.44910434524381132 3.0500000000000003 0.55571895424836615 1684.0250080882665 -4.9285714285714279 0.43248605748605756 0.55000000000000016
decision_type=2 2 2 2 2 2 2
left_child=1 2 -1 4 -2 -3 -5
right_child=3 5 -4 6 -6 -7 -8
leaf_value=-0.0025841674120910779 0.0075357914044571371 0.0077237219503723045 0.0086072967344169478 0.0012441450836819855 -0.0017296839509756577 0.0025506891296626652 0.013005771862721961
leaf_weight=118.38775430619717 12.153867751359938 36.816311255097389 11.937958016991614 7.9663428515195829 693.150749117136 377.09213189780712 7.9694765955209732
leaf_count=476 49 148 48 32 2794 1516 32
internal_value=5.21329e-05 0.00192841 -0.00153018 -0.00136293 -0.0015648 0.00301961 0.00734566
internal_weight=1265.47 544.234 130.326 721.24 705.305 413.908 15.9358
internal_count=5095 2188 524 2907 2843 1664 64
is_linear=0
shrinkage=0.011


Tree=11
num_leaves=8
num_cat=0
split_feature=6 18 30 1 42 30 39
split_gain=27.1798 16.6347 11.3303 10.2654 8.07483 7.27235 4.42177
threshold=-0.44910434524381132 3.0500000000000003 0.55571895424836615 1684.0250080882665 3.4500000000000006 0.41714053396228451 0.55000000000000016
decision_type=2 2 2 2 2 2 2
left_child=1 2 -1 4 -2 -3 -5
right_child=3 5 -4 6 -6 -7 -8
leaf_value=-0.0025563151108865751 -3.4039227819538147e-05 0.0086637857000923541 0.008510725623249291 0.0012310215392961901 -0.0024642771525393453 0.0026045401755943457 0.012860428549269652
leaf_weight=118.36567351222038 266.41800697147846 25.387452408671379 11.945108801126478 7.9669671356677991 438.7894502133131 388.6078315526247 7.9753763377666473
leaf_count=476 1074 102 48 32 1769 1562 32
internal_value=5.17025e-05 0.00190709 -0.00151326 -0.00134796 -0.00154775 0.00298589 0.00726627
internal_weight=1265.46 544.306 130.311 721.15 705.207 413.995 15.9423
internal_count=5095 2188 524 2907 2843 1664 64
is_linear=0
shrinkage=0.011


Tree=12
num_leaves=8
num_cat=0
split_feature=6 79 16 2 24 12 96
split_gain=26.5857 13.5148 12.9765 9.9457 8.95293 8.26192 3.95435
threshold=-0.44910434524381132 3.2529069767441867 3.4142857142857146 1349.3675014557409 -4.9285714285714279 0.76388888888888895 16.808571428571433
decision_type=2 2 2 2 2 2 2
left_child=1 2 -1 -3 6 -6 -2
right_child=4 3 -4 -5 5 -7 -8
leaf_value=-0.0043726411989782514 0.00076387157628229896 0.01668835406012871 0.0018727856682449768 0.0027877140203512066 -0.0018819825008964694 0.0021690943743771676 0.013263127338417481
leaf_weight=68.894197911024094 5.7071348279714567 5.9768167138099662 95.529922798275948 373.97319899499416 641.8486914485693 66.800712719559669 6.7022039294242859
leaf_count=277 23 24 384 1503 2588 269 27
internal_value=5.12381e-05 0.00188603 -0.000743856 0.00302564 -0.00133322 -0.00149806 0.00777554
internal_weight=1265.43 544.374 164.424 379.95 721.059 708.649 12.4093
internal_count=5095 2188 661 1527 2907 2857 50
is_linear=0
shrinkage=0.011


Tree=13
num_leaves=8
num_cat=0
split_feature=9 79 85 24 18 13 93
split_gain=24.2696 9.38998 9.12515 8.43365 7.95167 6.46018 4.86437
threshold=-0.31315203910290756 3.2529069767441867 21.500000000000004 -4.9285714285714279 3.1714285714285722 0.68333333333333346 1.0000000180025095e-35
decision_type=2 2 2 2 2 2 2
left_child=1 4 -3 6 -1 -5 -2
right_child=3 2 -4 5 -6 -7 -8
leaf_value=-0.0033835736136318012 3.3071750281627566e-05 0.0039469544569152512 -0.0026558894912119086 -0.00079720277460761872 0.0019497766157164525 -0.0036126118464685168 0.012515085588497829
leaf_weight=55.442843705415726 6.9569502472877494 261.11023713648319 27.627453595399857 706.12527039647102 85.343357443809509 114.61009418964386 8.1947969496250135
leaf_count=223 28 1049 111 2846 343 462 33
internal_value=5.08002e-05 0.00217533 0.00330982 -0.00104053 -0.000148959 -0.00119282 0.0069796
internal_weight=1265.41 429.524 288.738 835.887 140.786 820.735 15.1517
internal_count=5095 1726 1160 3369 566 3308 61
is_linear=0
shrinkage=0.011


Tree=14
num_leaves=8
num_cat=0
split_feature=6 18 30 1 2 24 39
split_gain=25.6244 16.0413 11.0408 9.99151 8.96161 8.22705 4.32873
threshold=-0.44910434524381132 3.0500000000000003 0.55571895424836615 1684.0250080882665 1349.3675014557409 -4.9285714285714279 0.55000000000000016
decision_type=2 2 2 2 2 2 2
left_child=1 2 -1 5 -3 -2 -5
right_child=3 4 -4 6 -6 -7 -8
leaf_value=-0.0025378795107947106 0.0073054705373629923 0.014208843689944057 0.0083833611575916001 0.0012148801686280677 0.0026728339120051878 -0.0016664982736034858 0.01272035128778441
leaf_weight=118.34931819140911 12.174426585435866 7.9748151302337638 11.953727722167967 7.96756863594055 406.2042148411274 692.78840321302414 7.9804262071847916
leaf_count=476 49 32 48 32 1632 2794 32
internal_value=5.02607e-05 0.00185125 -0.00150776 -0.00130922 0.00291023 -0.00150646 0.0071877
internal_weight=1265.39 544.482 130.303 720.911 414.179 704.963 15.948
internal_count=5095 2188 524 2907 1664 2843 64
is_linear=0
shrinkage=0.011


Tree=15
num_leaves=7
num_cat=0
split_feature=6 24 18 69 80 93
split_gain=18.4507 9.80917 9.8402 9.59601 8.36178 5.96259
threshold=-0.44910434524381132 -5.7499999999999991 4.4222222222222234 100.01984304009251 1.9561270547022367 0.095454545454545472
decision_type=2 2 2 2 2 2
left_child=3 -2 -3 4 -1 -5
right_child=1 2 -4 5 -6 -7
leaf_value=0.00066677180555756936 0.0091938834115080637 -0.00052010643499848428 -0.0032620873870038863 0.0021242644236901466 0.0050743293250327818 0.017536193001559012
leaf_weight=472.32991650700569 10.199319943785666 462.75238412618637 241.17601485550404 5.7252595722675306 58.275876834988594 6.7185028642416
leaf_count=1898 41 1866 973 23 234 27
internal_value=-0.000141341 -0.00130363 -0.00146191 0.00138559 0.00115569 0.0107897
internal_weight=1257.18 714.128 703.928 543.05 530.606 12.4438
internal_count=5062 2880 2839 2182 2132 50
is_linear=0
shrinkage=0.011


Tree=16
num_leaves=8
num_cat=0
split_feature=98 3 13 78 83 14 17
split_gain=11.1085 11.539 11.3873 10.4106 9.99503 6.99909 6.44973
threshold=-54.549431050771766 -53.959693167855896 0.68333333333333346 6.1583333333333341 6.5000000000000009 0.48684210526315791 3.683333333333334
decision_type=2 2 2 2 2 2 2
left_child=4 3 -3 -2 6 -6 -1
right_child=1 2 -4 -5 5 -7 -8
leaf_value=-0.0053906940633108294 0.0033803168544464602 0.00013586293284997716 -0.0048092437161484361 -0.0071479861778777484 -0.012727297528695397 -0.0025725945544936529 -0.00034668558654490559
leaf_weight=38.175777196884155 184.85322646796703 776.62884479761124 60.335294231772423 11.696445658802984 17.101390436291695 16.360752284526825 151.98435890674591
leaf_count=154 743 3127 243 47 69 66 613
internal_value=-0.000139659 0.000340929 -0.000221868 0.0027368 -0.00236072 -0.00787313 -0.00137236
internal_weight=1257.14 1033.51 836.964 196.55 223.622 33.4621 190.16
internal_count=5062 4160 3370 790 902 135 767
is_linear=0
shrinkage=0.011


Tree=17
num_leaves=8
num_cat=0
split_feature=9 99 1 91 29 82 1
split_gain=20.203 10.3324 10.5964 10.1497 9.43287 7.64692 5.28862
threshold=-0.31315203910290756 -4.1320089917154972 1615.9312769972596 4.2714165867356462 0.35021367521367525 7.5000000000000009 1489.0143579610824
decision_type=2 2 2 2 2 2 2
left_child=3 2 -2 4 -1 -3 -5
right_child=1 5 -4 6 -6 -7 -8
leaf_value=-0.0097895028663333803 0.00065490873283998775 -0.002606169148015521 0.01136873810314862 0.0014386252204305406 0.0023622936071107173 -0.00023251297524585221 -0.011323614910360413
leaf_weight=7.4698758125305167 122.26389598846436 423.68250402808189 11.925889879465101 5.9653888940811184 406.28612114489079 269.32342360913754 10.191623508930205
leaf_count=30 493 1708 48 24 1632 1086 41
internal_value=-0.000138252 -0.00114397 0.00164352 0.0017944 0.00213188 -0.00168542 -0.00664619
internal_weight=1257.11 827.196 134.19 429.913 413.756 693.006 16.157
internal_count=5062 3335 541 1727 1662 2794 65
is_linear=0
shrinkage=0.011


Tree=18
num_leaves=7
num_cat=0
split_feature=9 24 91 99 80 25
split_gain=19.7572 10.82 9.9347 9.5872 8.60948 6.0338
threshold=-0.31315203910290756 -5.7499999999999991 4.2714165867356462 -4.1320089917154972 1.9561270547022367 16.500000000000004
decision_type=2 2 2 2 2 2
left_child=2 -2 4 -3 -1 -4
right_child=1 3 5 -5 -6 -7
leaf_value=0.0015531298931306075 0.0094128854012306366 0.0014204909156427133 -0.011424237321017933 -0.0018069479055012533 0.0066847572258669132 0.0023105312513308548
leaf_weight=369.68556939065456 11.19934821128845 132.46470709145069 10.431205108761789 683.4460550993681 44.126791775226593 5.7175166755914679
leaf_count=1485 45 534 42 2756 177 23
internal_value=-0.00013676 -0.00113145 0.00177427 -0.00128162 0.00210805 -0.00657855
internal_weight=1257.07 827.11 429.961 815.911 413.812 16.1487
internal_count=5062 3335 1727 3290 1662 65
is_linear=0
shrinkage=0.011


Tree=19
num_leaves=7
num_cat=0
split_feature=9 24 91 99 80 25
split_gain=19.324 10.586 9.72462 9.37936 8.41868 5.91545
threshold=-0.31315203910290756 -5.7499999999999991 4.2714165867356462 -4.1320089917154972 1.9561270547022367 16.500000000000004
decision_type=2 2 2 2 2 2
left_child=2 -2 4 -3 -1 -4
right_child=1 3 5 -5 -6 -7
leaf_value=0.0015359105710501071 0.0093074693848345085 0.0014047393255981282 -0.011313596262746748 -0.0017873732078009961 0.006609657014810302 0.0022864124444409496
leaf_weight=369.72232396900654 11.206095919013022 132.48100361227989 10.421317562460901 683.33566676080227 44.141720578074455 5.7184875607490531
leaf_count=1485 45 534 42 2756 177 23
internal_value=-0.000135208 -0.00111905 0.00175458 -0.00126767 0.0020847 -0.00651166
internal_weight=1257.03 827.023 430.004 815.817 413.864 16.1398
internal_count=5062 3335 1727 3290 1662 65
is_linear=0
shrinkage=0.011


Tree=20
num_leaves=8
num_cat=0
split_feature=9 51 68 98 113 95 83
split_gain=27.9541 10.7353 11.07 10.5287 10.0099 12.7942 8.22864
threshold=-0.26315203910290758 3.5500000000000003 15.866721814108702 -78.720546144889639 -0.20499999999999993 6.0900000000000007 1.0000000180025095e-35
decision_type=2 2 2 2 2 2 2
left_child=4 3 -3 -2 6 -6 -1
right_child=1 2 -4 -5 5 -7 -8
leaf_value=0.0024423168118160761 -0.0048691994542663626 -0.00070763776930281937 -0.0040741784787186189 0.0014203778865951597 -0.0040650457044491151 0.0025962303560276537 0.014221341190432642
leaf_weight=14.19103127717972 36.401276469230652 303.95847116410732 193.90236708521843 256.18353064358234 38.068095088005066 371.05591058731079 14.938448369503019
leaf_count=57 147 1226 782 1033 153 1490 60
internal_value=0.000194693 -0.00104 -0.00202251 0.000629779 0.00242222 0.00197125 0.00861872
internal_weight=1228.7 790.446 497.861 292.585 438.253 409.124 29.1295
internal_count=4948 3188 2008 1180 1760 1643 117
is_linear=0
shrinkage=0.011


Tree=21
num_leaves=8
num_cat=0
split_feature=9 51 74 80 24 5 95
split_gain=27.3438 10.5027 11.401 10.7122 9.38349 12.9681 10.099
threshold=-0.26315203910290758 3.5500000000000003 0.53896761133603255 -1.4224961337035602 -1.2817460317460314 0.60078936672893501 6.0900000000000007
decision_type=2 2 2 2 2 2 2
left_child=4 3 -3 -2 5 -1 -6
right_child=1 2 -4 -5 6 -7 -8
leaf_value=0.0017349623112609214 0.0069183155325076252 -0.0010922334018456424 -0.0050638357276567188 -7.7099160784812657e-05 -0.0020369460254510878 -0.010126732249536861 0.003603022600953687
leaf_weight=34.62564505636692 29.022130966186523 384.51583968102932 113.25413064658642 263.57730244100094 42.790218457579613 15.941693499684332 344.95859667658806
leaf_count=139 117 1551 457 1063 172 64 1385
internal_value=0.000192569 -0.00102872 -0.00200068 0.000622739 0.0023954 -0.00204018 0.00297726
internal_weight=1228.69 790.369 497.77 292.599 438.316 50.5673 387.749
internal_count=4948 3188 2008 1180 1760 203 1557
is_linear=0
shrinkage=0.011


Tree=22
num_leaves=8
num_cat=0
split_feature=9 113 95 95 7 69 82
split_gain=26.7421 9.79452 12.3088 8.27889 8.62115 7.80005 7.6876
threshold=-0.26315203910290758 -0.20499999999999993 6.0900000000000007 6.1700000000000008 1.0000000180025095e-35 16.182013213837426 1.0000000180025095e-35
decision_type=2 2 2 2 2 2 2
left_child=1 5 -3 4 -2 -1 -5
right_child=3 2 -4 6 -6 -7 -8
leaf_value=0.01324648102218085 -0.0025534539261373112 -0.0039994560844702227 0.0025352660238474808 -0.0036121013115071672 0.007496003191738581 0.0016325281067417759 -0.00075069353131345838
leaf_weight=16.942222639918331 16.357878744602203 38.051710695028305 371.17735077440739 139.78967581689358 26.521723926067352 12.206091552972792 607.62356117367744
leaf_count=68 66 153 1490 564 107 49 2451
internal_value=0.000190407 0.00236863 0.00192253 -0.00101751 0.0036571 0.00849592 -0.0012885
internal_weight=1228.67 438.377 409.229 790.293 42.8796 29.1483 747.413
internal_count=4948 1760 1643 3188 173 117 3015
is_linear=0
shrinkage=0.011


Tree=23
num_leaves=8
num_cat=0
split_feature=6 113 74 51 91 18 79
split_gain=26.4977 13.9975 10.1582 18.3576 16.2066 10.0881 6.53884
threshold=0.1516540053343986 -0.20499999999999993 0.53279569892473122 3.5500000000000003 4.4771642462837518 6.5357142857142865 4.1569230769230776
decision_type=2 2 2 2 2 2 2
left_child=1 6 4 -4 -2 -3 -1
right_child=2 5 3 -5 -6 -7 -8
leaf_value=0.010596051435204938 -0.0014047590566510376 0.0013661052288151572 0.00046840865137478074 -0.0086958675871619436 0.011568970241210293 -0.0059915991476529578 -0.00098458536334684204
leaf_weight=27.895906463265419 351.71562798321247 699.67827208340168 45.548824653029442 62.066872358322144 11.642573460936545 22.875831961631775 7.2290623784065238
leaf_count=112 1420 2813 184 251 47 92 29
internal_value=0.000188356 0.00146225 -0.00185895 -0.00482285 -0.00097477 0.00112896 0.00820765
internal_weight=1228.65 757.679 470.974 107.616 363.358 722.554 35.125
internal_count=4948 3046 1902 435 1467 2905 141
is_linear=0
shrinkage=0.011


Tree=24
num_leaves=8
num_cat=0
split_feature=6 113 74 53 68 83 69
split_gain=25.919 13.6866 9.94607 17.5294 9.57769 8.87983 7.42682
threshold=0.1516540053343986 -0.20499999999999993 0.53279569892473122 0.37500000000000006 50.404524090099478 1.0000000180025095e-35 -70.063010234646285
decision_type=2 2 2 2 2 2 2
left_child=1 5 4 -4 -2 -1 -3
right_child=2 6 3 -5 -6 -7 -8
leaf_value=0.0024006006149401887 -0.00020076437455239095 -0.0025187449003527635 -0.0072105935786953724 0.0032391098530414868 -0.005154331224979442 0.013527089447202963 0.0014580669573157497
leaf_weight=17.441813394427299 307.84656520187855 61.676499277353287 82.566270977258682 24.9942626953125 55.476592242717743 17.699547797441483 660.93362005054951
leaf_count=70 1243 248 334 101 224 71 2657
internal_value=0.0001863 0.00144604 -0.00183883 -0.00477252 -0.000963998 0.00811455 0.00111641
internal_weight=1228.64 757.751 470.884 107.561 363.323 35.1414 722.61
internal_count=4948 3046 1902 435 1467 141 2905
is_linear=0
shrinkage=0.011


Tree=25
num_leaves=8
num_cat=0
split_feature=9 106 16 26 68 91 70
split_gain=22.7072 12.3466 8.74892 9.81446 9.14209 7.95067 7.41635
threshold=-0.31315203910290756 2.2200000000000002 3.9500000000000006 36.500000000000007 77.89654574935993 4.2714165867356462 1.0000000180025095e-35
decision_type=2 2 2 2 2 2 2
left_child=1 5 3 -2 -4 -1 -3
right_child=2 6 4 -5 -6 -7 -8
leaf_value=0.0015376008993766084 0.0031925729911622788 0.009760718080464189 0.00037294697297774582 -0.0028697975530084718 -0.0059718298055148307 -0.0066207261012560751 0.0025704577701431593
leaf_weight=352.58718174695969 35.204797983169556 35.390614092350006 422.38702049851418 345.00459925830364 28.987342670559883 14.651564851403235 35.137350156903267
leaf_count=1415 142 142 1704 1392 117 59 141
internal_value=-7.39354e-06 0.0020187 -0.00107532 -0.00230376 -3.78111e-05 0.00120326 0.00622359
internal_weight=1269.35 437.767 831.584 380.209 451.374 367.239 70.528
internal_count=5112 1757 3355 1534 1821 1474 283
is_linear=0
shrinkage=0.011


Tree=26
num_leaves=8
num_cat=0
split_feature=9 96 41 113 91 89 74
split_gain=22.2112 11.0631 11.7622 9.05692 9.25717 7.78568 7.01793
threshold=-0.31315203910290756 15.620000000000003 3.9000000000000004 -0.23999999999999996 4.2714165867356462 8.0691099479807651 0.52098004694835687
decision_type=2 2 2 2 2 2 2
left_child=3 5 -3 6 -5 -2 -1
right_child=1 2 -4 4 -6 -7 -8
leaf_value=0.012745557789426085 -0.0011801689749441255 0.0046725043227277396 -0.00054216386822896867 0.0019304624840870356 -0.0067849886906879665 -0.0042442162628280721 0.00016353707636657745
leaf_weight=15.722753092646601 290.57304954528809 61.953294634819031 324.88544356822968 398.96271209418774 14.892735049128531 154.08840298652649 8.233588755130766
leaf_count=63 1172 250 1311 1601 60 622 33
internal_value=-7.2894e-06 -0.00106362 0.00029504 0.00199638 0.00160881 -0.00224647 0.00852519
internal_weight=1269.31 831.5 386.839 437.812 413.855 444.661 23.9563
internal_count=5112 3355 1561 1757 1661 1794 96
is_linear=0
shrinkage=0.011


Tree=27
num_leaves=8
num_cat=0
split_feature=9 106 16 41 68 83 91
split_gain=21.7264 11.9389 8.51002 10.5724 8.9529 8.07189 7.60603
threshold=-0.31315203910290756 2.2200000000000002 3.9500000000000006 5.6333333333333337 77.89654574935993 -10.499999999999998 4.2714165867356462
decision_type=2 2 2 2 2 2 2
left_child=1 6 3 -2 -4 -3 -1
right_child=2 5 4 -5 -6 -7 -8
leaf_value=0.0014992032954786734 -0.0026771751511900101 -0.0034592750798002835 0.00037753512322267937 0.005846286217688311 -0.005903131729613301 0.0075269074993063187 -0.0064843451809455249
leaf_weight=352.65509082376957 361.98916155099869 8.9716364890336973 422.37059670686722 18.088413625955582 28.968930304050446 61.591297775506973 14.635122433304785
leaf_count=1415 1461 36 1704 73 117 247 59
internal_value=-7.18256e-06 0.00197433 -0.00105205 -0.00226388 -2.88239e-05 0.00610807 0.00117238
internal_weight=1269.27 437.853 831.417 380.078 451.34 70.5629 367.29
internal_count=5112 1757 3355 1534 1821 283 1474
is_linear=0
shrinkage=0.011


Tree=28
num_leaves=8
num_cat=0
split_feature=9 106 16 41 68 83 91
split_gain=21.2501 11.6735 8.32563 10.3441 8.76431 7.8955 7.44599
threshold=-0.31315203910290756 2.2200000000000002 3.9500000000000006 5.6333333333333337 77.89654574935993 -10.499999999999998 4.2714165867356462
decision_type=2 2 2 2 2 2 2
left_child=1 6 3 -2 -4 -3 -1
right_child=2 5 4 -5 -6 -7 -8
leaf_value=0.00148260956005437 -0.0026484283544953927 -0.0034234810107171302 0.0003733733194416316 0.0057803260527698862 -0.005842446136136081 0.0074420389474796345 -0.0064185270452810066
leaf_weight=352.68379779160023 361.89804281294346 8.9699106067419034 422.38509540259838 18.098090156912804 28.952110722661018 61.612890332937241 14.626708105206488
leaf_count=1415 1461 36 1704 73 117 247 59
internal_value=-7.11166e-06 0.0019524 -0.00104059 -0.0022394 -2.85441e-05 0.00603932 0.00115933
internal_weight=1269.23 437.893 831.333 379.996 451.337 70.5828 367.311
internal_count=5112 1757 3355 1534 1821 283 1474
is_linear=0
shrinkage=0.011


Tree=29
num_leaves=8
num_cat=0
split_feature=18 83 81 18 110 19 74
split_gain=13.4283 12.5892 10.8503 9.83891 9.36375 7.35938 2.197
threshold=4.2111111111111121 -16.499999999999996 1.0000000180025095e-35 3.0500000000000003 1.1255000000000004 5.0500000000000007 0.46201923076923085
decision_type=2 2 2 2 2 2 2
left_child=2 6 5 -4 -3 -1 -2
right_child=1 4 3 -5 -6 -7 -8
leaf_value=-0.0010628456907641212 -0.016072026788371507 -0.0013247735110427283 -0.00026874573346274771 0.0025083171764456709 0.0080149021317714488 -0.0089803837992415269 -0.0066154235750042201
leaf_weight=82.671369418501854 6.7043247818946821 490.10307449102402 249.07572118937969 403.37603135406971 12.928590282797812 16.873778715729713 7.4460880309343338
leaf_count=333 27 1975 1003 1624 52 68 30
internal_value=-7.0414e-06 -0.00137138 0.000930526 0.00144752 -0.00107709 -0.00244288 -0.0114652
internal_weight=1269.18 517.182 751.997 652.452 503.032 99.5451 14.1504
internal_count=5112 2084 3028 2627 2027 401 57
is_linear=0
shrinkage=0.011


Tree=30
num_leaves=8
num_cat=0
split_feature=9 92 28 51 80 38 5
split_gain=22.8134 10.3823 9.46294 9.97162 8.84062 8.11358 5.90164
threshold=-0.31315203910290756 1.0000000180025095e-35 -104.49999999999999 2.4500000000000006 1.0952380952380953 0.55000000000000016 0.44824482169564706
decision_type=2 2 2 2 2 2 2
left_child=1 5 6 -4 -3 -1 -2
right_child=2 4 3 -5 -6 -7 -8
leaf_value=0.0084546364045695183 0.0026735287038007509 0.00034533737971676923 -0.0036346453875701792 -0.0002528606913207045 0.0045178823797923607 0.00058405523883262467 -0.0080981266659150945
leaf_weight=48.117967709898949 7.1804986745119086 273.37693528831005 125.17522636055946 664.46463039517403 79.065488278865814 23.939011886715889 33.865959122776985
leaf_count=193 29 1097 505 2682 317 96 137
internal_value=-1.25336e-06 0.00207152 -0.00106186 -0.000791449 0.00128754 0.00586768 -0.00618838
internal_weight=1255.19 424.499 830.686 789.64 352.442 72.057 41.0465
internal_count=5056 1703 3353 3187 1414 289 166
is_linear=0
shrinkage=0.011


Tree=31
num_leaves=8
num_cat=0
split_feature=9 92 28 53 30 90 47
split_gain=22.3174 10.1529 9.26512 8.60534 8.38926 7.75733 5.77109
threshold=-0.31315203910290756 1.0000000180025095e-35 -104.49999999999999 -0.37499999999999994 0.57799791788665511 2.1629438411200295 0.55000000000000016
decision_type=2 2 2 2 2 2 2
left_child=1 3 6 -1 -4 -3 -2
right_child=2 5 4 -5 -6 -7 -8
leaf_value=-0.0011939055448314832 -0.0032952954107875413 -0.00090686159624129962 -0.0011807641372047638 0.0078386290110070665 0.0024455757178835661 0.0024907632043494766 -0.012320038811206387
leaf_weight=16.206260517239571 28.660738244652748 126.10855396091938 703.36789014935493 55.871021747589111 86.214501202106476 226.35487852990627 12.358191877603529
leaf_count=65 116 506 2839 224 348 908 50
internal_value=-1.20696e-06 0.00204874 -0.00105035 0.00580215 -0.000782833 0.00127338 -0.00612479
internal_weight=1255.14 424.541 830.601 72.0773 789.582 352.463 41.0189
internal_count=5056 1703 3353 289 3187 1414 166
is_linear=0
shrinkage=0.011


Tree=32
num_leaves=8
num_cat=0
split_feature=6 92 80 95 21 69 2
split_gain=20.6713 12.5412 13.0884 11.7483 10.1038 9.61312 6.70598
threshold=-0.44910434524381132 1.0000000180025095e-35 1.0952380952380953 6.2700000000000005 -2.4999999999999996 -54.984089625244444 1474.8946967861123
decision_type=2 2 2 2 2 2 2
left_child=1 6 -3 4 -2 -5 -1
right_child=3 2 -4 5 -6 -7 -8
leaf_value=0.0098103684915009388 0.011811650322263129 -0.0002282204048895876 0.0043006513646495614 0.0016119866375757994 0.0010083575548655917 -0.002208835194738773 0.0033666841478988173
leaf_weight=26.669196903705597 12.891225293278692 336.46075417101383 99.698175564408302 92.34553536772728 50.80956694483757 560.47689843177795 75.746566668152809
leaf_count=107 52 1351 400 373 205 2264 304
internal_value=-1.22431e-06 0.0016258 0.000808303 -0.00122543 0.0032662 -0.00166657 0.00508343
internal_weight=1255.1 538.575 436.159 716.523 63.7008 652.822 102.416
internal_count=5056 2162 1751 2894 257 2637 411
is_linear=0
shrinkage=0.011


Tree=33
num_leaves=8
num_cat=0
split_feature=9 92 80 53 71 108 30
split_gain=21.5091 9.73361 8.46715 8.40305 8.31334 9.85213 7.81322
threshold=-0.31315203910290756 1.0000000180025095e-35 1.0952380952380953 -0.37499999999999994 -2.4999999999999996 3.4100000000000006 0.57799791788665511
decision_type=2 2 2 2 2 2 2
left_child=1 3 -3 -1 5 -2 -6
right_child=4 2 -4 -5 6 -7 -8
leaf_value=-0.0012265430723113302 0.00092957453489325497 0.00032960336193746262 0.004412433770445561 0.0076970941883270578 -0.0018819498978084376 0.014578672741012268 0.0016331032550606333
leaf_weight=16.208597421646118 102.32878214120865 273.39788630604744 79.097341746091843 55.900478094816208 635.21967762708664 6.4479151666164389 86.451508834958076
leaf_count=65 413 1097 317 224 2565 26 349
internal_value=-1.07846e-06 0.00201113 0.00125181 0.00568538 -0.00103127 0.00179585 -0.00145918
internal_weight=1255.05 424.604 352.495 72.1091 830.448 108.777 721.671
internal_count=5056 1703 1414 289 3353 439 2914
is_linear=0
shrinkage=0.011


Tree=34
num_leaves=8
num_cat=0
split_feature=6 92 80 69 13 102 28
split_gain=19.9073 12.083 12.621 8.1986 8.55831 7.71875 6.79687
threshold=-0.44910434524381132 1.0000000180025095e-35 1.0952380952380953 -54.984089625244444 0.64583333333333337 -0.057500000000000044 36.500000000000007
decision_type=2 2 2 2 2 2 2
left_child=1 6 -3 4 -2 -5 -1
right_child=3 2 -4 5 -6 -7 -8
leaf_value=0.003897939572348554 0.0029641666847229761 -0.00022497641085943463 0.0042217476214611851 0.0052214482845545276 -0.0062180582403896251 -0.0019009275828062613 0.012603020351189488
leaf_weight=90.230016127228737 87.680202409625053 336.45248602330685 99.729076132178307 18.569138094782829 13.850866377353666 596.26580266654491 12.223814532160757
leaf_count=362 354 1351 400 75 56 2409 49
internal_value=-9.43985e-07 0.00159552 0.000792976 -0.00120257 0.00168481 -0.00168137 0.00498869
internal_weight=1255 538.635 436.182 716.366 101.531 614.835 102.454
internal_count=5056 2162 1751 2894 410 2484 411
is_linear=0
shrinkage=0.011


Tree=35
num_leaves=8
num_cat=0
split_feature=6 79 30 18 112 82 3
split_gain=20.3146 12.5578 12.3948 13.1636 11.4241 11.4171 8.68881
threshold=-0.44910434524381132 1.7774725274725276 0.55571895424836615 3.0500000000000003 5.3950000000000005 13.500000000000002 -66.552489171048464
decision_type=2 2 2 2 2 2 2
left_child=2 4 3 -1 -2 -3 -4
right_child=1 5 6 -5 -6 -7 -8
leaf_value=-0.0021877684185612071 0.0089597039327808554 -0.0022800645139297564 0.0096201543678729028 0.0020469698092465977 -0.0078666452856085648 0.00098888823841865054 0.0018844099978592322
leaf_weight=118.97601695358753 24.505629390478138 537.02738459408283 36.36506424844265 345.69817957282066 5.6975266039371482 169.61222870647907 34.649131327867508
leaf_count=478 99 2170 146 1387 23 685 139
internal_value=-1.00846e-05 -0.00119544 0.00161868 0.000960166 0.00570016 -0.00149427 0.00588776
internal_weight=1272.53 736.843 535.688 464.674 30.2032 706.64 71.0142
internal_count=5127 2977 2150 1865 122 2855 285
is_linear=0
shrinkage=0.011


Tree=36
num_leaves=8
num_cat=0
split_feature=6 79 30 18 112 12 3
split_gain=19.8717 12.2791 12.1219 12.8759 11.1776 9.81799 8.49168
threshold=-0.44910434524381132 1.7774725274725276 0.55571895424836615 3.0500000000000003 5.3950000000000005 0.78888888888888908 -66.552489171048464
decision_type=2 2 2 2 2 2 2
left_child=2 4 3 -1 -2 -3 -4
right_child=1 5 6 -5 -6 -7 -8
leaf_value=-0.002164087543101777 0.0088552076295460164 -0.0018820721381604163 0.0095104430800461853 0.0020242655180220544 -0.0077912643332730723 0.002676325881050733 0.001863740247399379
leaf_weight=118.95934294164181 24.526668503880504 644.27363538742065 36.384441658854485 345.73450081050396 5.693264812231063 62.26003560423851 34.65245421230793
leaf_count=478 99 2604 146 1387 23 251 139
internal_value=-9.91995e-06 -0.00118243 0.00160085 0.000949544 0.00563422 -0.00147805 0.00582195
internal_weight=1272.48 736.754 535.731 464.694 30.2199 706.534 71.0369
internal_count=5127 2977 2150 1865 122 2855 285
is_linear=0
shrinkage=0.011


Tree=37
num_leaves=8
num_cat=0
split_feature=6 114 18 12 47 99 46
split_gain=19.4383 11.9241 12.1624 10.4493 10.2176 8.59543 6.51502
threshold=-0.44910434524381132 0.38500000000000006 3.0500000000000003 0.78888888888888908 1.0000000180025095e-35 -0.99999999999999922 0.19999999999999987
decision_type=2 2 2 2 2 2 2
left_child=1 2 -1 4 -2 -5 -3
right_child=3 6 -4 5 -6 -7 -8
leaf_value=-0.0017618573551839651 -0.0072037618427050875 0.0027787409886420697 0.0022025418859195466 0.010652905281215066 -0.0012485985249566438 0.00091571386684618377 0.015880141212595424
leaf_weight=122.19560104608536 36.58988431096077 8.7238314151763934 394.62544509768486 13.657325372099875 635.06363196671009 51.350307688117027 10.225047469139097
leaf_count=491 148 35 1583 55 2567 207 41
internal_value=-9.75015e-06 0.00158323 0.00126315 -0.00116955 -0.00157821 0.00302529 0.0100686
internal_weight=1272.43 535.77 516.821 736.661 671.654 65.0076 18.9489
internal_count=5127 2150 2074 2977 2715 262 76
is_linear=0
shrinkage=0.011


Tree=38
num_leaves=8
num_cat=0
split_feature=6 79 114 18 99 112 46
split_gain=19.0153 11.9994 11.6695 11.896 11.1963 10.9528 6.36922
threshold=-0.44910434524381132 1.7774725274725276 0.38500000000000006 3.0500000000000003 -13.303030303030299 5.3950000000000005 0.19999999999999987
decision_type=2 2 2 2 2 2 2
left_child=2 5 3 -1 -3 -2 -4
right_child=1 4 6 -5 -6 -7 -8
leaf_value=-0.0017427394072506526 0.0087657951336027277 0.0028440789163579404 0.0027491543056689938 0.002178099775815586 -0.0018952102672411208 -0.0077159347380618658 0.015702333318481004
leaf_weight=122.1816638559103 24.543838486075405 66.115106776356697 8.7250210940837878 394.66849713027477 640.22076334059238 5.6886175870895377 10.231575384736059
leaf_count=491 99 267 35 1583 2588 23 41
internal_value=-9.55023e-06 -0.0011568 0.00156588 0.00124917 -0.0014492 0.00558023 0.00995855
internal_weight=1272.38 736.568 535.807 516.85 706.336 30.2325 18.9566
internal_count=5127 2977 2150 2074 2855 122 76
is_linear=0
shrinkage=0.011


Tree=39
num_leaves=8
num_cat=0
split_feature=6 30 18 79 82 1 3
split_gain=18.6016 11.8271 12.1192 11.7337 11.172 8.80455 8.26277
threshold=-0.44910434524381132 0.55571895424836615 3.0500000000000003 1.7774725274725276 13.500000000000002 1570.230788764932 -66.552489171048464
decision_type=2 2 2 2 2 2 2
left_child=1 2 -1 5 -5 -2 -3
right_child=3 6 -4 4 -6 -7 -8
leaf_value=-0.0021160132171619394 0.0024203741178022292 0.0093537433253070741 0.0019476609700701207 -0.0022111655821797347 0.0010231467968757971 0.017070762938931533 0.001812682699456927
leaf_weight=118.92144304513931 24.287269830703739 36.409601926803589 345.84897039830685 536.67125211656094 169.5595406293869 5.9595211446285239 34.660750895738602
leaf_count=478 98 146 1387 2170 685 24 139
internal_value=-9.35726e-06 0.00154872 0.000905373 -0.0011442 -0.00143345 0.00551612 0.00571704
internal_weight=1272.32 535.841 464.77 736.478 706.231 30.2468 71.0704
internal_count=5127 2150 1865 2977 2855 122 285
is_linear=0
shrinkage=0.011


Tree=40
num_leaves=8
num_cat=0
split_feature=6 13 26 45 1 26 91
split_gain=17.5081 11.2176 10.6497 12.0853 10.0318 9.07673 8.87402
threshold=-0.44910434524381132 0.68333333333333346 462.50000000000006 -3.0999999999999988 1621.357621377959 27.500000000000004 4.4412818503226665
decision_type=2 2 2 2 2 2 2
left_child=2 4 6 -4 -2 -3 -1
right_child=1 5 3 -5 -6 -7 -8
leaf_value=0.0027817848674535732 -0.00074633057451146034 0.0066204521191754843 0.012450163408796022 -0.0023643044115948578 0.0042117821284392487 -0.0052150537057426586 -0.0060175234781287678
leaf_weight=427.76396103203297 551.05826073884964 8.1593478024005872 6.7329507172107688 99.412674948573112 53.813751474022865 93.902328953146935 13.915668174624441
leaf_count=1716 2228 33 27 399 217 380 56
internal_value=0.000269797 -0.000873169 0.00174563 -0.00137447 -0.000301512 -0.00423952 0.00249769
internal_weight=1254.76 706.934 547.825 106.146 604.872 102.062 441.68
internal_count=5056 2858 2198 426 2445 413 1772
is_linear=0
shrinkage=0.011


Tree=41
num_leaves=8
num_cat=0
split_feature=6 98 35 26 45 48 17
split_gain=17.1245 11.6379 11.2583 10.4126 11.8293 9.23681 7.70674
threshold=-0.44910434524381132 12.646253016703158 1.0000000180025095e-35 462.50000000000006 -3.0999999999999988 0.77500000000000013 3.0500000000000003
decision_type=2 2 2 2 2 2 2
left_child=3 2 -2 5 -5 -1 -3
right_child=1 6 -4 4 -6 -7 -8
leaf_value=0.0030785061880486335 0.0022191394713076211 0.0031290596123362022 -0.003036711368512622 0.012314442691440613 -0.0023387090696722814 -0.0016720084738869961 -0.00048278890228497742
leaf_weight=385.38167135417461 58.084624096751213 102.26253575086594 312.18658767640591 6.736664965748786 99.399610608816147 56.349409192800522 234.33001990616322
leaf_count=1546 235 413 1263 27 399 226 947
internal_value=0.000266867 -0.000863611 -0.00220873 0.00172633 -0.00135899 0.00246988 0.000614777
internal_weight=1254.73 706.864 370.271 547.867 106.136 441.731 336.593
internal_count=5056 2858 1498 2198 426 1772 1360
is_linear=0
shrinkage=0.011


Tree=42
num_leaves=8
num_cat=0
split_feature=6 3 35 26 45 24 48
split_gain=16.7499 13.7549 11.1903 10.181 11.5795 9.51834 9.03398
threshold=-0.44910434524381132 14.08746264810725 1.0000000180025095e-35 462.50000000000006 -3.0999999999999988 -3.5857142857142854 0.77500000000000013
decision_type=2 2 2 2 2 2 2
left_child=3 2 -2 6 -5 -3 -1
right_child=1 5 -4 4 -6 -7 -8
leaf_value=0.0030442221079237134 0.0021151554439292485 0.01271404763459498 -0.0031560184253783497 0.012181146302218967 -0.0023133939826638196 0.0004536104437118128 -0.0016538766850407527
leaf_weight=385.43908484280109 57.349231660366058 7.4516494125127783 309.83483695983887 6.7398281544446936 99.386417657136917 332.16071344912052 56.344949305057526
leaf_count=1546 232 30 1254 27 399 1342 226
internal_value=0.000263973 -0.000854173 -0.00232932 0.00170728 -0.00134368 0.000739433 0.00244241
internal_weight=1254.71 706.796 367.184 547.91 106.126 339.612 441.784
internal_count=5056 2858 1486 2198 426 1372 1772
is_linear=0
shrinkage=0.011


Tree=43
num_leaves=8
num_cat=0
split_feature=6 3 27 33 48 24 109
split_gain=16.3825 13.4593 12.5888 10.7667 9.49524 9.31188 8.67168
threshold=-0.44910434524381132 14.08746264810725 456.50000000000006 -1.0000000180025095e-35 0.77500000000000013 -3.5857142857142854 0.97100000000000009
decision_type=2 2 2 2 2 2 2
left_child=2 3 4 -2 -1 -3 -4
right_child=1 5 6 -5 -6 -7 -8
leaf_value=0.0031819762664811188 0.0027728376529644917 0.012570194727194898 -0.0029990779994545792 -0.0030006349884253063 -0.0016801311830550011 0.00044860674992020086 0.0044896715610840176
leaf_weight=376.00857700407505 44.004878342151642 7.4585584700107566 93.681957989931107 323.0867905318737 55.341810777783394 332.17545951902866 22.917752906680107
leaf_count=1508 178 30 376 1308 222 1342 92
internal_value=0.000261161 -0.000844755 0.00168845 -0.00230427 0.00255549 0.000731445 -0.00151054
internal_weight=1254.68 706.726 547.95 367.092 431.35 339.634 116.6
internal_count=5056 2858 2198 1486 1730 1372 468
is_linear=0
shrinkage=0.011


Tree=44
num_leaves=8
num_cat=0
split_feature=6 4 27 102 48 9 109
split_gain=16.0223 13.1699 12.3113 11.0484 9.28677 9.27374 8.48443
threshold=-0.44910434524381132 0.60510235264217072 456.50000000000006 -0.054499999999999986 0.77500000000000013 -0.38562169947191549 0.97100000000000009
decision_type=2 2 2 2 2 2 2
left_child=2 3 4 -2 -1 -3 -4
right_child=1 5 6 -5 -6 -7 -8
leaf_value=0.0031465538703048168 0.0061311973705917419 0.011990455889184343 -0.0029667218121872643 -0.0027107828587983863 -0.0016619196022834592 0.00042774370462686392 0.0044400481216646708
leaf_weight=376.06303991377354 17.560288816690445 8.2208867222070676 93.666395649313927 349.43855029344559 55.337237134575844 331.43392911553383 22.923414692282677
leaf_count=1508 71 33 376 1415 222 1339 92
internal_value=0.000258354 -0.000835437 0.00166976 -0.00227949 0.00252708 0.000723546 -0.00149393
internal_weight=1254.64 706.654 547.99 366.999 431.4 339.655 116.59
internal_count=5056 2858 2198 1486 1730 1372 468
is_linear=0
shrinkage=0.011


Tree=45
num_leaves=8
num_cat=0
split_feature=6 42 13 81 14 3 46
split_gain=19.5314 13.4871 16.83 8.90009 8.85264 8.73876 5.03861
threshold=-0.32354903830783199 5.3000000000000016 0.68333333333333346 3.5000000000000004 0.27922077922077926 65.845434794518624 0.59999999999999987
decision_type=2 2 2 2 2 2 2
left_child=4 2 -2 -3 6 -6 -1
right_child=1 3 -4 -5 5 -7 -8
leaf_value=0.00021770364819275208 0.00023980072857814744 -0.0072346033228895303 -0.0056261758488711979 -0.0015615330752083829 0.0025511299295322117 -0.00075193651207021341 -0.013399580402792474
leaf_weight=5.7277353852987272 489.06333211064339 65.699280515313148 66.899230763316154 69.162772193551064 409.06771785020828 126.35654191672802 6.9644901007413864
leaf_count=23 1977 266 271 280 1641 507 28
internal_value=1.32663e-06 -0.00122801 -0.000468268 -0.00434389 0.00155184 0.00177027 -0.00737919
internal_weight=1238.94 690.825 555.963 134.862 548.116 535.424 12.6922
internal_count=4993 2794 2248 546 2199 2148 51
is_linear=0
shrinkage=0.011


Tree=46
num_leaves=8
num_cat=0
split_feature=9 78 115 35 14 24 89
split_gain=17.9956 13.8641 9.68773 9.61322 8.70825 7.62227 3.97392
threshold=-0.31315203910290756 4.9484126984126995 1.9387800000000002 5.5000000000000009 0.48684210526315791 -0.66384180790960434 8.0631954600481279
decision_type=2 2 2 2 2 2 2
left_child=3 2 -2 5 -3 -1 -5
right_child=1 4 -4 6 -6 -7 -8
leaf_value=0.0043766456826538321 -0.0011571791086692593 -0.0010540625679505591 -0.0053853618601625818 0.0038806935097384148 0.0043666431620943301 0.00073264522952170641 0.016006564264758862
leaf_weight=88.573896154761314 595.07023729383945 61.072102069854736 73.52656252682209 6.4879368692636472 85.405193224549294 321.26144331693649 7.4872897118330002
leaf_count=355 2405 247 297 26 345 1288 30
internal_value=1.19789e-06 -0.000954094 -0.0016262 0.00183932 0.00210481 0.00152549 0.0106931
internal_weight=1238.88 815.074 668.597 423.811 146.477 409.835 13.9752
internal_count=4993 3294 2702 1699 592 1643 56
is_linear=0
shrinkage=0.011


Tree=47
num_leaves=8
num_cat=0
split_feature=6 78 42 13 76 83 26
split_gain=18.8615 14.2835 13.2167 16.4858 11.917 9.49471 7.28124
threshold=-0.32354903830783199 5.0200000000000005 5.3000000000000016 0.68333333333333346 0.78759398496240618 -1.4999999999999998 363.50000000000006
decision_type=2 2 2 2 2 2 2
left_child=1 5 3 -2 -3 -1 -4
right_child=2 4 6 -5 -6 -7 -8
leaf_value=-0.0012893365937121162 0.0002455928450340288 0.0070021671720180249 -0.0057751602102996732 -0.0055619182528335231 -0.007227423765675263 0.0019672656797964038 8.1064639192479228e-05
leaf_weight=170.98911114037037 489.03087623417377 76.310074135661125 100.69268582761288 66.851801753044128 7.4775381982326499 293.38847942650318 34.096047267317772
leaf_count=686 1977 306 408 271 30 1177 138
internal_value=1.26598e-06 0.00152479 -0.00120703 -0.000455005 0.0056952 0.000766484 -0.00429247
internal_weight=1238.84 548.165 690.671 555.883 83.7876 464.378 134.789
internal_count=4993 2199 2794 2248 336 1863 546
is_linear=0
shrinkage=0.011


Tree=48
num_leaves=8
num_cat=0
split_feature=6 78 13 69 69 46 96
split_gain=18.4499 13.9654 10.8747 12.1281 10.775 10.2252 8.14324
threshold=-0.32354903830783199 5.0200000000000005 0.68333333333333346 14.245774412539278 -61.83770273995912 2.9000000000000008 8.0824428602924971
decision_type=2 2 2 2 2 2 2
left_child=1 6 3 -2 -3 -4 -1
right_child=2 4 5 -5 -6 -7 -8
leaf_value=0.0032643054397076933 0.00061581620423166884 -0.0047600328163098461 -0.0061533520299731194 -0.0026195495042775729 0.0071036538340794649 0.0031839975967317938 -8.572320951547671e-05
leaf_weight=116.89316835999489 364.37994937598705 10.229680389165877 82.321525633335114 227.11762692034245 73.578246548771858 16.755928322672844 347.50078800320625
leaf_count=469 1473 41 334 919 295 68 1394
internal_value=1.20424e-06 0.0015079 -0.00119398 -0.000626154 0.00563108 -0.00456036 0.000758014
internal_weight=1238.78 548.202 690.575 591.498 83.8079 99.0775 464.394
internal_count=4993 2199 2794 2392 336 402 1863
is_linear=0
shrinkage=0.011


Tree=49
num_leaves=8
num_cat=0
split_feature=9 78 115 14 14 91 46
split_gain=17.0906 13.4771 9.54884 8.99271 8.52718 7.80788 3.89296
threshold=-0.31315203910290756 4.9484126984126995 1.9387800000000002 0.28991596638655465 0.48684210526315791 4.607059512294474 0.60000000000000042
decision_type=2 2 2 2 2 2 2
left_child=3 2 -2 6 -3 -5 -1
right_child=1 4 -4 5 -6 -7 -8
leaf_value=-0.0011234655419441991 -0.001127269057595271 -0.0010408387065189847 -0.0053261473687786247 0.0022828313920087179 0.004323253856499041 -0.008613076129876154 -0.013701180814806502
leaf_weight=6.2250430732965452 594.88032239675522 61.055843412876129 73.482332989573479 404.22412201762199 85.427704840898514 7.7056972533464423 5.7177145481109619
leaf_count=25 2405 247 297 1620 345 31 23
internal_value=1.18293e-06 -0.000930022 -0.00159292 0.00179224 0.00208568 0.00206906 -0.00745376
internal_weight=1238.72 814.846 668.363 423.873 146.484 411.93 11.9428
internal_count=4993 3294 2702 1699 592 1651 48
is_linear=0
shrinkage=0.011


Tree=50
num_leaves=8
num_cat=0
split_feature=6 46 18 30 15 41 90
split_gain=14.8865 12.0773 10.509 7.91966 11.8753 8.44212 6.24964
threshold=-0.44910434524381132 1.0000000000000002 2.6125000000000003 0.59755187341394256 0.69615384615384623 4.2666666666666675 3.2132491871776527
decision_type=2 2 2 2 2 2 2
left_child=3 2 -2 4 -1 -5 -3
right_child=1 6 -4 5 -6 -7 -8
leaf_value=0.0012239356778132812 0.0035464467904714552 -0.0046187141922244684 -0.0010387850956016962 0.0012531206262729202 -0.0062255068061404422 0.014173900113209598 0.00036015576069522266
leaf_weight=484.77574415504932 69.308385774493217 155.43445457518101 455.01663152873516 13.718906760215761 26.933721676468849 10.981910884380339 37.527152448892593
leaf_count=1944 280 630 1841 55 108 44 152
internal_value=-0.000260802 -0.00129753 -0.000429036 0.00112407 0.00082584 0.00716135 -0.00364787
internal_weight=1253.7 717.287 524.325 536.41 511.709 24.7008 192.962
internal_count=5054 2903 2121 2151 2052 99 782
is_linear=0
shrinkage=0.011


Tree=51
num_leaves=8
num_cat=0
split_feature=6 46 16 96 74 16 82
split_gain=14.5633 11.8209 10.8245 9.83337 7.14566 6.72892 6.10465
threshold=-0.44910434524381132 1.0000000000000002 5.5277777777777786 34.050000000000004 0.82575757575757591 2.4142857142857146 2.5000000000000004
decision_type=2 2 2 2 2 2 2
left_child=3 2 -2 4 -1 -3 -5
right_child=1 5 -4 6 -6 -7 -8
leaf_value=0.00098490211897192797 -0.00095791739728614623 0.0024126632362095721 0.0042564873396549437 0.0021565354638901826 -0.0080242714466716679 -0.004304062936580047 0.013650279828152749
leaf_weight=503.25033563375473 471.07188698649406 19.739006966352463 53.227074086666107 11.23011799156666 10.471030727028845 173.14242888987064 11.482325613498686
leaf_count=2018 1906 80 215 45 42 702 46
internal_value=-0.000257903 -0.00128345 -0.000424303 0.00111176 0.000793737 -0.00360931 0.00813479
internal_weight=1253.61 717.18 524.299 536.434 513.721 192.881 22.7124
internal_count=5054 2903 2121 2151 2060 782 91
is_linear=0
shrinkage=0.011


Tree=52
num_leaves=8
num_cat=0
split_feature=6 46 16 96 74 16 82
split_gain=14.2466 11.5695 10.5863 9.62414 6.99665 6.58757 5.97005
threshold=-0.44910434524381132 1.0000000000000002 5.5277777777777786 34.050000000000004 0.82575757575757591 2.4142857142857146 2.5000000000000004
decision_type=2 2 2 2 2 2 2
left_child=3 2 -2 4 -1 -3 -5
right_child=1 5 -4 6 -6 -7 -8
leaf_value=0.00097403490014910091 -0.000947484950942614 0.0023860189307787251 0.0042083193212954229 0.0021334635724771242 -0.0079423195526404783 -0.0042589420098894017 0.013499469562389621
leaf_weight=503.27188396453857 471.02452452480793 19.744313582777977 53.248565122485161 11.231016129255297 10.466855049133299 173.05673535168171 11.487324491143225
leaf_count=2018 1906 80 215 45 42 702 46
internal_value=-0.000255031 -0.00126951 -0.000419614 0.00109957 0.000784903 -0.0035711 0.0080466
internal_weight=1253.53 717.074 524.273 536.457 513.739 192.801 22.7183
internal_count=5054 2903 2121 2151 2060 782 91
is_linear=0
shrinkage=0.011


Tree=53
num_leaves=8
num_cat=0
split_feature=6 46 16 10 98 78 16
split_gain=13.9369 11.3236 10.3535 7.79867 20.9299 9.40644 6.44922
threshold=-0.44910434524381132 1.0000000000000002 5.5277777777777786 0.36666666666666675 -2.8226562276797718 5.0200000000000005 2.4142857142857146
decision_type=2 2 2 2 2 2 2
left_child=3 2 -2 4 -1 -5 -3
right_child=1 6 -4 5 -6 -7 -8
leaf_value=0.0031889103716456627 -0.000937165486715117 0.0023596821772272434 0.0041607518502761037 0.0010596230783239166 -0.0069380676269231072 0.0056963569247093703 -0.0042143101901972058
leaf_weight=50.629416704177856 470.97747327387333 19.749507263302803 53.269352063536644 377.03882130980492 47.399954408407211 61.410255432128906 172.97042812407017
leaf_count=203 1906 80 215 1512 190 246 702
internal_value=-0.000252191 -0.00125571 -0.000414978 0.00108751 -0.00170858 0.00171533 -0.00353331
internal_weight=1253.45 716.967 524.247 536.478 98.0294 438.449 192.72
internal_count=5054 2903 2121 2151 393 1758 782
is_linear=0
shrinkage=0.011


Tree=54
num_leaves=8
num_cat=0
split_feature=6 46 18 30 15 41 95
split_gain=13.6334 11.083 10.3027 7.71554 11.6076 8.21582 6.01744
threshold=-0.44910434524381132 1.0000000000000002 2.6125000000000003 0.59755187341394256 0.69615384615384623 4.2666666666666675 9.9700000000000024
decision_type=2 2 2 2 2 2 2
left_child=3 2 -2 4 -1 -5 -3
right_child=1 6 -4 5 -6 -7 -8
leaf_value=0.0011747281280895174 0.0035254543830688743 -0.0030845165791925566 -0.0010143422729864452 0.0012049282387682607 -0.0061908133957465274 0.01394829997731146 -0.013015354907099567
leaf_weight=484.86068578064442 69.319596096873283 185.23925659060478 454.90059015154839 13.721263930201532 26.92968937754631 10.988582760095595 7.3988815844058982
leaf_count=1944 280 752 1841 55 108 44 30
internal_value=-0.000249402 -0.00124207 -0.000410393 0.00107554 0.000781193 0.00703324 -0.00349594
internal_weight=1253.36 716.858 524.22 536.5 511.79 24.7098 192.638
internal_count=5054 2903 2121 2151 2052 99 782
is_linear=0
shrinkage=0.011


Tree=55
num_leaves=8
num_cat=0
split_feature=9 102 78 82 95 18 21
split_gain=12.9347 14.1087 10.1364 9.52483 9.4973 8.7202 7.78482
threshold=-0.31315203910290756 -0.016500000000000011 4.9484126984126995 8.5000000000000018 8.7700000000000014 4.1714285714285726 1.5000000000000002
decision_type=2 2 2 2 2 2 2
left_child=1 6 3 -2 -4 -3 -1
right_child=2 5 4 -5 -6 -7 -8
leaf_value=-0.0045490550061368651 -0.0022235221423200086 0.0041058177681225936 0.0047493213069719417 0.00051587368105363398 -0.00075507505717351691 0.00059584613214055417 0.0036033835507407125
leaf_weight=58.846185088157654 447.94937565922737 197.34074492752552 71.739560425281525 232.81625294685364 79.379623264074326 152.32203420996666 18.200188875198364
leaf_count=236 1812 791 290 942 321 610 73
internal_value=8.4911e-05 0.00164158 -0.000713089 -0.00128584 0.00185876 0.00258132 -0.00260507
internal_weight=1258.59 426.709 831.885 680.766 151.119 349.663 77.0464
internal_count=5075 1710 3365 2754 611 1401 309
is_linear=0
shrinkage=0.011


Tree=56
num_leaves=8
num_cat=0
split_feature=9 102 78 75 18 112 21
split_gain=12.6519 13.7997 9.91527 10.777 8.52702 7.68788 7.61837
threshold=-0.31315203910290756 -0.016500000000000011 4.9484126984126995 0.48749218261413391 4.1714285714285726 7.3850000000000007 1.5000000000000002
decision_type=2 2 2 2 2 2 2
left_child=1 6 5 -4 -3 -2 -1
right_child=2 4 3 -5 -6 -7 -8
leaf_value=-0.0045003166681955161 -0.0016002145112919725 0.0040601125300812049 -0.0003006776092303373 0.0058465939549010052 0.00058929939380974398 0.002883732755776843 0.0035640360331923365
leaf_weight=58.83357235789299 631.22342048585415 197.37138125300407 98.681794062256813 52.464383333921432 152.32449971139431 49.452806636691093 18.203109309077263
leaf_count=236 2554 791 399 212 610 200 73
internal_value=8.40046e-05 0.00162349 -0.000705279 0.00183804 0.00255276 -0.00127186 -0.00257669
internal_weight=1258.55 426.733 831.822 151.146 349.696 680.676 77.0367
internal_count=5075 1710 3365 611 1401 2754 309
is_linear=0
shrinkage=0.011


Tree=57
num_leaves=8
num_cat=0
split_feature=9 102 43 82 27 44 27
split_gain=12.375 13.4975 9.39451 8.02188 14.1373 10.2789 7.14978
threshold=-0.31315203910290756 -0.016500000000000011 5.9000000000000012 8.5000000000000018 171.50000000000003 4.2666666666666675 742.50000000000011
decision_type=2 2 2 2 2 2 2
left_child=1 6 -3 4 -2 -5 -1
right_child=3 2 -4 5 -6 -7 -8
leaf_value=-0.0014648442090451266 0.00010082472748204622 0.0031266301060438382 -0.0028498420542665786 -0.00081398299583224662 -0.0034222086810315484 0.0035718685169079645 -0.013077242995781727
leaf_weight=70.314010486006737 311.38768404722214 314.76788374781609 34.959078341722488 170.68621557950974 246.27318149805069 103.41095885634422 6.7123725712299338
leaf_count=282 1259 1261 140 691 997 418 27
internal_value=8.31242e-05 0.0016056 0.00252454 -0.000697531 -0.00145503 0.000840813 -0.00254864
internal_weight=1258.51 426.753 349.727 831.758 557.661 274.097 77.0264
internal_count=5075 1710 1401 3365 2256 1109 309
is_linear=0
shrinkage=0.011


Tree=58
num_leaves=8
num_cat=0
split_feature=112 78 51 13 6 69 69
split_gain=11.3469 13.702 10.0957 14.2483 9.80526 9.44115 8.60665
threshold=7.6450000000000005 4.9484126984126995 4.5500000000000007 0.47222222222222227 0.1516540053343986 -70.063010234646285 -4.0264175179910344
decision_type=2 2 2 2 2 2 2
left_child=1 4 6 -4 -1 -3 -2
right_child=2 5 3 -5 -6 -7 -8
leaf_value=0.00013654784955179102 0.01035156943333922 -0.0054976703707386 -0.015038449354862317 0.0072266918982544703 -0.0021375913605194974 0.0029660180009078991 0.002338104599840924
leaf_weight=583.68832312524319 28.577378183603287 16.89806056022644 6.9611933678388578 6.2035428136587143 376.92823942005634 200.96440102159977 38.241900011897087
leaf_count=2346 115 68 28 25 1529 810 154
internal_value=8.2139e-05 -0.000189951 0.00408126 -0.00458853 -0.000755534 0.0022973 0.00581749
internal_weight=1258.46 1178.48 79.984 13.1647 960.617 217.862 66.8193
internal_count=5075 4753 322 53 3875 878 269
is_linear=0
shrinkage=0.011


Tree=59
num_leaves=8
num_cat=0
split_feature=9 78 75 89 10 115 26
split_gain=11.9665 9.48757 10.5397 7.58626 9.72858 6.72821 5.35213
threshold=-0.31315203910290756 4.9484126984126995 0.48749218261413391 8.1180040492064744 0.36666666666666675 2.5580600000000002 402.50000000000006
decision_type=2 2 2 2 2 2 2
left_child=3 5 -3 4 -1 -2 -5
right_child=1 2 -4 6 -6 -7 -8
leaf_value=-0.0026151233064785518 -0.0011290850241542835 -0.00031440683236263421 0.0057632481257266039 0.0027916893734528533 0.0019321597283597598 -0.012126661891920212 0.011576127461223442
leaf_weight=68.621938690543175 674.03811840713024 98.693337500095367 52.500538557767868 21.227060303092003 322.70566801726818 6.4196452647447577 14.226168662309645
leaf_count=275 2728 399 212 85 1293 26 57
internal_value=8.1242e-05 -0.000686509 0.00180077 0.0015783 0.00113103 -0.00124099 0.00642696
internal_weight=1258.43 831.652 151.194 426.781 391.328 680.458 35.4532
internal_count=5075 3365 611 1710 1568 2754 142
is_linear=0
shrinkage=0.011


Tree=60
num_leaves=8
num_cat=0
split_feature=6 16 82 69 69 13 3
split_gain=14.4005 12.528 10.9568 11.156 10.3705 8.36161 8.28343
threshold=-0.44910434524381132 3.2111111111111117 13.500000000000002 -68.861229006130074 -78.738195995664327 0.68333333333333346 90.680314752916516
decision_type=2 2 2 2 2 2 2
left_child=1 6 5 -4 -3 -2 -1
right_child=2 4 3 -5 -6 -7 -8
leaf_value=-0.0019503853689253889 -0.00096829116229199736 -0.0045199130451865415 0.010656763938757932 0.00077110456894937036 0.003078639373347358 -0.0047222287215228313 0.006103652607235395
leaf_weight=139.59587031602859 487.34337794780731 22.696422696113586 14.857215777039526 149.76192726194859 362.35423678159714 84.098698318004608 16.946673423051834
leaf_count=560 1974 91 60 606 1452 342 68
internal_value=0.000196841 0.00155812 -0.000804088 0.00169144 0.00262461 -0.00152496 -0.00106046
internal_weight=1277.65 541.593 736.061 164.619 385.051 571.442 156.543
internal_count=5153 2171 2982 666 1543 2316 628
is_linear=0
shrinkage=0.011


Tree=61
num_leaves=8
num_cat=0
split_feature=6 82 69 80 42 77 15
split_gain=14.0849 10.7208 10.9056 9.64268 9.20833 14.7023 9.9305
threshold=-0.44910434524381132 13.500000000000002 -68.861229006130074 -2.6961538461538459 4.6750000000000007 -0.42678571428571427 0.69615384615384623
decision_type=2 2 2 2 2 2 2
left_child=4 3 -3 -2 6 -6 -1
right_child=1 2 -4 -5 5 -7 -8
leaf_value=0.0010204671906850679 0.0031005758864770245 0.010532472265985771 0.00076258371751950394 -0.0019506816721005442 -0.0059170045426411751 0.004859085798066284 -0.0069218608502116122
leaf_weight=359.71628710627556 49.656100183725357 14.871823370456694 149.77393373847008 521.68356384336948 16.717796668410301 145.48437608778477 19.699261128902435
leaf_count=1442 201 60 606 2115 67 583 79
internal_value=0.000194704 -0.000795283 0.00167291 -0.00150852 0.00154092 0.00373206 0.000599306
internal_weight=1277.6 735.985 164.646 571.34 541.618 162.202 379.416
internal_count=5153 2982 666 2316 2171 650 1521
is_linear=0
shrinkage=0.011


Tree=62
num_leaves=8
num_cat=0
split_feature=6 16 82 69 69 80 18
split_gain=13.7745 12.2243 10.4894 10.6616 10.1354 9.43345 8.20114
threshold=-0.44910434524381132 3.2111111111111117 13.500000000000002 -68.861229006130074 -78.738195995664327 -2.6961538461538459 4.5277777777777786
decision_type=2 2 2 2 2 2 2
left_child=1 6 5 -4 -3 -2 -1
right_child=2 4 3 -5 -6 -7 -8
leaf_value=-5.2890221592197869e-05 0.0030657428791356278 -0.00448617785972501 0.010410307077941149 0.00075415791445654064 0.0030259951435178123 -0.0019296706320833152 -0.0073589950453575538
leaf_weight=135.35269689559937 49.672325193881989 22.693453043699265 14.885452181100844 149.7857654094696 362.4079967290163 521.56786186993122 21.19068631529808
leaf_count=543 201 91 60 606 1452 2115 85
internal_value=0.000192592 0.00152382 -0.00078651 0.0016546 0.00257721 -0.00149216 -0.00106282
internal_weight=1277.56 541.645 735.911 164.671 385.101 571.24 156.543
internal_count=5153 2171 2982 666 1543 2316 628
is_linear=0
shrinkage=0.011


Tree=63
num_leaves=7
num_cat=0
split_feature=9 43 101 76 27 22
split_gain=13.4827 8.36901 8.71629 7.88108 9.31316 9.12076
threshold=0.059317621266100302 7.6333333333333337 0.6755000000000001 0.44636015325670503 330.50000000000006 0.6195238095238097
decision_type=2 2 2 2 2 2
left_child=3 2 -2 4 -1 -5
right_child=1 -3 -4 5 -6 -7
leaf_value=0.0045751371837646215 -0.00066204395177048498 -0.012040504080746785 -0.0069385300244206053 0.00093262740646839096 0.0006082618046206632 -0.0030391343338734091
leaf_weight=139.71865449845791 464.49916553497314 8.1118012070655805 28.063362419605255 405.23956644535065 147.76044921576977 84.109151855111122
leaf_count=561 1884 33 114 1629 594 338
internal_value=0.000190484 -0.00121586 -0.00102648 0.001098 0.00254245 0.000246532
internal_weight=1277.5 500.674 492.563 776.828 287.479 489.349
internal_count=5153 2031 1998 3122 1155 1967
is_linear=0
shrinkage=0.011


Tree=64
num_leaves=8
num_cat=0
split_feature=6 16 82 69 69 13 3
split_gain=13.2524 11.9594 10.2369 10.4232 9.90528 8.2053 8.08909
threshold=-0.44910434524381132 3.2111111111111117 13.500000000000002 -68.861229006130074 -78.738195995664327 0.68333333333333346 90.680314752916516
decision_type=2 2 2 2 2 2 2
left_child=1 6 5 -4 -3 -2 -1
right_child=2 4 3 -5 -6 -7 -8
leaf_value=-0.0019440781002424124 -0.00091806536595827326 -0.0044474353878811669 0.010292661991761458 0.00074843253044204103 0.0029794090302394192 -0.0046384013891091792 0.0060135179265072558
leaf_weight=139.5907054245472 487.08623027801514 22.689405396580696 14.897725179791449 149.79192459583282 362.45157843828201 84.009601473808289 16.953052818775177
leaf_count=560 1974 91 60 606 1452 342 68
internal_value=0.000188322 0.00149397 -0.000772183 0.00163911 0.00253581 -0.00146949 -0.00106448
internal_weight=1277.47 541.685 735.785 164.69 385.141 571.096 156.544
internal_count=5153 2171 2982 666 1543 2316 628
is_linear=0
shrinkage=0.011


Tree=65
num_leaves=8
num_cat=0
split_feature=9 44 84 89 100 74 47
split_gain=11.015 10.969 10.0771 8.97337 8.90777 8.54762 7.54457
threshold=0.059317621266100302 7.1000000000000005 26.500000000000004 8.1180040492064744 0.6755000000000001 0.82575757575757591 0.36666666666666675
decision_type=2 2 2 2 2 2 2
left_child=2 5 3 -1 -4 -2 -3
right_child=1 6 4 -5 -6 -7 -8
leaf_value=0.00070051115394760923 -0.0016538478854137061 -0.003430878760105097 -0.0042684147024824939 0.0055980873422671459 0.0080465486132412604 -0.012499322311861067 0.010105873968059771
leaf_weight=662.69449716806412 444.76958775520325 6.8995992988348034 72.400961592793465 48.277261093258858 7.469783976674079 8.6068897396326047 15.575681582093237
leaf_count=2663 1805 28 291 194 30 35 63
internal_value=-0.000175281 -0.00149743 0.000619686 0.00103707 -0.00307314 -0.0018722 0.00593073
internal_weight=1266.69 475.852 790.843 710.972 79.8707 453.376 22.4753
internal_count=5109 1931 3178 2857 321 1840 91
is_linear=0
shrinkage=0.011


Tree=66
num_leaves=7
num_cat=0
split_feature=18 83 74 96 96 53
split_gain=10.3989 14.0602 11.1301 9.69041 9.87363 3.71021
threshold=4.2111111111111121 -16.499999999999996 0.53896761133603255 42.150000000000013 21.205263157894738 -1.0000000180025095e-35
decision_type=2 2 2 2 2 2
left_child=3 5 -3 4 -1 -2
right_child=1 2 -4 -5 -6 -7
leaf_value=0.0010466839715712023 -0.0048049099478946356 -0.00014724308563081434 -0.0040219698682366399 0.013648458673799563 -0.0024906500210033467 -0.016785861622424014
leaf_weight=641.53386387228966 5.9318114072084418 375.13565263152122 117.68842992186546 6.471645161509513 111.68950319290161 8.1792908161878568
leaf_count=2586 24 1514 476 26 450 33
internal_value=-0.000173349 -0.00139334 -0.00107655 0.000640069 0.000520139 -0.0120716
internal_weight=1266.63 506.935 492.824 759.695 753.223 14.1111
internal_count=5109 2047 1990 3062 3036 57
is_linear=0
shrinkage=0.011


Tree=67
num_leaves=7
num_cat=0
split_feature=9 44 14 32 74 89
split_gain=10.7281 10.7371 9.89231 8.62871 8.35778 8.33421
threshold=0.059317621266100302 7.1000000000000005 0.59411764705882364 9.5000000000000018 0.82575757575757591 8.1180040492064744
decision_type=2 2 2 2 2 2
left_child=3 4 -3 5 -2 -1
right_child=1 2 -4 -5 -6 -7
leaf_value=0.00040963304375332254 -0.0016317560352253693 0.00020959839398713471 0.015206795582649108 -0.011030488332171177 -0.012365830054250146 0.0048012811297952537
leaf_weight=727.63517440855503 444.65839929878712 14.302196979522707 8.1843128204345685 7.220933571457862 8.5904799997806531 56.010028883814812
leaf_count=2924 1805 58 33 29 35 225
internal_value=-0.000171508 -0.00147656 0.00587064 0.000612948 -0.00184755 0.00072675
internal_weight=1266.6 475.735 22.4865 790.866 453.249 783.645
internal_count=5109 1931 91 3178 1840 3149
is_linear=0
shrinkage=0.011


Tree=68
num_leaves=8
num_cat=0
split_feature=9 44 84 14 100 46 8
split_gain=10.4943 10.51 9.81847 9.66873 8.70001 8.20548 7.66326
threshold=0.059317621266100302 7.1000000000000005 26.500000000000004 0.59411764705882364 0.6755000000000001 1.2 0.70294117647058829
decision_type=2 2 2 2 2 2 2
left_child=2 5 6 -3 -4 -2 -1
right_child=1 3 4 -5 -6 -7 -8
leaf_value=0.00090787260066788197 -0.00090790960858233777 0.00020735072607200628 -0.0042211906361988277 0.015029097471327415 0.0079468752140105774 -0.0042202918049187802 0.013034979075425857
leaf_weight=705.0597457587719 327.92539584636688 14.302542537450792 72.381942540407181 8.1946598589420301 7.4730814993381491 125.22250179946423 5.975095033645629
leaf_count=2833 1330 58 291 33 30 510 24
internal_value=-0.000169635 -0.00146057 0.000606154 0.00580663 -0.00303935 -0.00182779 0.00101809
internal_weight=1266.53 475.645 790.89 22.4972 79.855 453.148 711.035
internal_count=5109 1931 3178 91 321 1840 2857
is_linear=0
shrinkage=0.011


Tree=69
num_leaves=7
num_cat=0
split_feature=9 44 72 32 74 89
split_gain=10.2663 10.2879 9.45182 8.40337 8.20905 8.16872
threshold=0.059317621266100302 7.1000000000000005 0.59411764705882364 9.5000000000000018 0.82575757575757591 8.1180040492064744
decision_type=2 2 2 2 2 2
left_child=3 4 -3 5 -2 -1
right_child=1 2 -4 -5 -6 -7
leaf_value=0.00039787526886714709 -0.0015944186051227189 0.00020512729868873416 0.014855281984282412 -0.0108950855457014 -0.01224191041505741 0.0047452320060064343
leaf_weight=727.67442667484283 444.4690106511116 14.302884191274645 8.2039737701415998 7.2152670472860327 8.5740522593259794 56.022679194808006
leaf_count=2924 1805 58 33 29 35 225
internal_value=-0.000167666 -0.00144469 0.00574358 0.000599577 -0.00180817 0.000711849
internal_weight=1266.46 475.55 22.5069 790.912 453.043 783.697
internal_count=5109 1931 91 3178 1840 3149
is_linear=0
shrinkage=0.011


Tree=70
num_leaves=5
num_cat=0
split_feature=97 96 96 19
split_gain=8.27129 7.08052 13.0311 9.43333
threshold=4.4173913043478272 27.526669361358127 21.84105263157895 4.7888888888888896
decision_type=2 2 2 2
left_child=1 2 -1 -3
right_child=-2 3 -4 -5
leaf_value=0.00012396481255063507 -0.010716010886490969 8.5112332026454353e-05 -0.0035631150128541157 0.0062891265920035138
leaf_weight=978.72383779287338 8.4293438494205457 78.8070068359375 131.13017253577709 47.398658156394958
leaf_count=3949 34 318 529 191
internal_value=-0.000106892 -3.05032e-05 -0.00031213 0.00243346
internal_weight=1244.49 1236.06 1109.85 126.206
internal_count=5021 4987 4478 509
is_linear=0
shrinkage=0.011


Tree=71
num_leaves=5
num_cat=0
split_feature=97 91 6 40
split_gain=8.10538 6.35969 8.49683 5.63931
threshold=4.4173913043478272 2.1271888302239863 0.41083555913876529 0.77500000000000013
decision_type=2 2 2 2
left_child=1 3 -3 -1
right_child=-2 2 -4 -5
leaf_value=0.0014429034673602312 -0.010612279249649062 0.00018148634146260197 -0.0021663557402046988 -0.0067963716984469806
leaf_weight=347.80413331091404 8.4220588505268079 610.48986685276031 267.82811832427979 9.9316723346710187
leaf_count=1402 34 2457 1088 40
internal_value=-0.000105733 -3.01388e-05 -0.00053427 0.00120477
internal_weight=1244.48 1236.05 878.318 357.736
internal_count=5021 4987 3545 1442
is_linear=0
shrinkage=0.011


Tree=72
num_leaves=4
num_cat=0
split_feature=97 19 16
split_gain=7.94309 6.43097 6.85604
threshold=4.4173913043478272 7.2111111111111121 5.8166666666666673
decision_type=2 2 2
left_child=1 2 -1
right_child=-2 -3 -4
leaf_value=-0.00016744648714414297 -0.010510034424009078 -0.0090165643474604418 0.0032945237275897044
leaf_weight=1153.6329590976238 8.4143808186054212 9.1613654196262342 73.227800890803337
leaf_count=4655 34 37 295
internal_value=-0.000104638 -2.98287e-05 3.95945e-05
internal_weight=1244.44 1236.02 1226.86
internal_count=5021 4987 4950
is_linear=0
shrinkage=0.011


Tree=73
num_leaves=5
num_cat=0
split_feature=97 96 96 85
split_gain=7.78441 6.92097 12.7488 9.47789
threshold=4.4173913043478272 27.526669361358127 21.84105263157895 29.500000000000004
decision_type=2 2 2 2
left_child=1 2 -1 -3
right_child=-2 3 -4 -5
leaf_value=0.00012328737090400301 -0.010409237787003912 0.0032727417052078561 -0.0035241573914194979 -0.00798324935245932
leaf_weight=978.70426730811596 8.406323775649069 116.82653214037418 131.08810313045979 9.3976850062608701
leaf_count=3949 34 471 529 38
internal_value=-0.000103554 -2.95222e-05 -0.000307998 0.00240632
internal_weight=1244.42 1236.02 1109.79 126.224
internal_count=5021 4987 4478 509
is_linear=0
shrinkage=0.011


Tree=74
num_leaves=5
num_cat=0
split_feature=97 96 96 85
split_gain=7.62924 6.76746 12.4745 9.27938
threshold=4.4173913043478272 27.526669361358127 21.84105263157895 29.500000000000004
decision_type=2 2 2 2
left_child=1 2 -1 -3
right_child=-2 3 -4 -5
leaf_value=0.0001219305510198837 -0.010309851633255152 0.0032360899771133786 -0.0034865081269166119 -0.0079049589840487731
leaf_weight=978.71384976804256 8.3979014605283719 116.85442954301834 131.05065251886845 9.390363007783888
leaf_count=3949 34 471 529 38
internal_value=-0.000102483 -2.92212e-05 -0.000304624 0.00237923
internal_weight=1244.41 1236.01 1109.76 126.245
internal_count=5021 4987 4478 509
is_linear=0
shrinkage=0.011


Tree=75
num_leaves=8
num_cat=0
split_feature=47 68 13 92 26 26 51
split_gain=12.2652 11.1392 13.3792 10.4323 8.7825 8.72321 6.79895
threshold=0.45000000000000007 61.141575357905033 0.18333333333333338 0.21825396825396828 285.50000000000006 12.500000000000002 3.1000000000000005
decision_type=2 2 2 2 2 2 2
left_child=1 2 -1 5 -3 -2 -5
right_child=3 4 -4 6 -6 -7 -8
leaf_value=-0.0088834769419284254 0.0083854548217928322 -0.0017655658133856468 -0.00014593561977560947 0.011935581730476288 -0.0097199591275178646 0.00063085701218364664 0.0016473006923709503
leaf_weight=21.556527644395828 17.840145438909531 41.358784377574921 627.37451219558716 17.396654516458515 28.481224685907364 485.78547199070454 14.388206973671911
leaf_count=87 72 167 2532 70 115 1959 58
internal_value=4.35088e-05 -0.000894541 -0.000442612 0.00130391 -0.00505679 0.00091345 0.00737959
internal_weight=1254.18 718.771 648.931 535.41 69.84 503.626 31.7849
internal_count=5060 2901 2619 2159 282 2031 128
is_linear=0
shrinkage=0.011


Tree=76
num_leaves=7
num_cat=0
split_feature=84 102 69 21 78 41
split_gain=9.08908 11.2356 11.0272 10.7284 8.75002 7.33364
threshold=24.500000000000004 0.044499999999999991 -51.572364054921302 -7.4999999999999991 4.9484126984126995 3.3666666666666671
decision_type=2 2 2 2 2 2
left_child=3 2 -2 5 -5 -1
right_child=1 -3 -4 4 -6 -7
leaf_value=0.00051462401793822489 0.0039678971419032415 0.0095670895338281058 -0.0051386931832547314 4.2851544467345992e-05 0.0026647512598524832 -0.015334653930812531
leaf_weight=5.708553507924079 18.848205596208572 7.9308620095252982 97.614004760980606 931.38754086196423 184.27858385443687 8.4100795537233335
leaf_count=23 76 32 394 3758 743 34
internal_value=4.30282e-05 -0.00277349 -0.00365004 0.000354661 0.00047738 -0.00903797
internal_weight=1254.18 124.393 116.462 1129.78 1115.67 14.1186
internal_count=5060 502 470 4558 4501 57
is_linear=0
shrinkage=0.011


Tree=77
num_leaves=7
num_cat=0
split_feature=84 102 69 78 9 78
split_gain=8.88944 10.9961 10.7934 9.80303 12.4055 8.4166
threshold=24.500000000000004 0.044499999999999991 -51.572364054921302 4.9484126984126995 -0.31315203910290756 5.3798076923076934
decision_type=2 2 2 2 2 2
left_child=3 2 -2 4 -1 -5
right_child=1 -3 -4 5 -6 -7
leaf_value=0.0016051567672299072 0.0039239618318521246 0.0094600231261481264 -0.0050845661390402468 0.005868855161754824 -0.0010331513311099309 0.00094087103073327793
leaf_weight=332.47902081906796 18.85403810441494 7.9368879050016394 97.572444349527359 64.221272900700569 611.77738144993782 121.33308906853199
leaf_count=1332 76 32 394 259 2478 489
internal_value=4.25523e-05 -0.00274323 -0.00361098 0.00035071 -0.000103119 0.00265939
internal_weight=1254.17 124.363 116.426 1129.81 944.256 185.554
internal_count=5060 502 470 4558 3810 748
is_linear=0
shrinkage=0.011


Tree=78
num_leaves=8
num_cat=0
split_feature=84 21 69 12 41 43 69
split_gain=8.69473 10.4936 10.0114 9.96778 7.19164 6.72003 5.72949
threshold=24.500000000000004 -7.4999999999999991 -51.572364054921302 0.31666666666666671 3.3666666666666671 3.3666666666666671 -67.922885133235681
decision_type=2 2 2 2 2 2 2
left_child=1 4 6 -3 -1 -4 -2
right_child=2 3 5 -5 -6 -7 -8
leaf_value=0.0005087025831360596 -0.00029482549072055319 -0.0019836636002372545 -0.007990290592012915 0.00090898029560523006 -0.015190130562471904 -0.0020617910896026962 0.011491238105128176
leaf_weight=5.7085640430450431 12.647511810064318 169.53646992146969 35.17226505279541 946.15376867353916 8.3963198959827405 68.812404930591583 7.7000681906938544
leaf_count=23 51 685 142 3816 34 278 31
internal_value=4.21513e-05 0.000346892 -0.00271332 0.00046821 -0.00894684 -0.00409707 0.00426537
internal_weight=1254.13 1129.8 124.332 1115.69 14.1049 103.985 20.3476
internal_count=5060 4558 502 4501 57 420 82
is_linear=0
shrinkage=0.011


Tree=79
num_leaves=8
num_cat=0
split_feature=47 68 13 92 77 44 26
split_gain=11.9377 10.954 12.8905 10.1977 10.8321 9.87261 8.59596
threshold=0.45000000000000007 61.141575357905033 0.18333333333333338 0.21825396825396828 0.061304218657159855 1.1000000000000003 285.50000000000006
decision_type=2 2 2 2 2 2 2
left_child=1 2 -1 5 -5 -2 -3
right_child=3 6 -4 4 -6 -7 -8
leaf_value=-0.0087274258806310512 0.013573643020434277 -0.0017563160895671451 -0.00014477136184182744 0.0015015559200142645 0.01443137283875138 0.0007096224620850803 -0.0096284133684751208
leaf_weight=21.523972809314728 6.9353936016559592 41.352584093809128 627.33924908936024 17.88692328333855 13.913146391510962 496.70956768095493 28.457585245370865
leaf_count=87 28 167 2532 72 56 2003 115
internal_value=4.16146e-05 -0.000883933 -0.00043581 0.00128499 0.00729049 0.000898859 -0.00501239
internal_weight=1254.12 718.673 648.863 535.445 31.8001 503.645 69.8102
internal_count=5060 2901 2619 2159 128 2031 282
is_linear=0
shrinkage=0.011


Tree=80
num_leaves=7
num_cat=0
split_feature=109 68 89 9 75 76
split_gain=9.56609 10.1808 8.57041 10.2831 8.69014 4.3166
threshold=1.2105000000000004 9.2187458478526896 8.0689038676693539 -0.46315203910290753 0.54653679653679665 0.47913043478260875
decision_type=2 2 2 2 2 2
left_child=2 5 3 -1 -4 -2
right_child=1 -3 4 -5 -6 -7
leaf_value=0.003021755776139729 -0.0053525742557671797 0.015705659554642017 -0.0024794674205917268 5.4947549712506601e-05 0.00058608862544167958 0.0073355395825278179
leaf_weight=187.27368755638599 6.476532995700838 9.4523733854293805 252.57324315607548 575.07532885670662 199.83568851649761 5.7258299142122269
leaf_count=750 26 38 1020 2325 807 23
internal_value=0.000204706 0.00738468 7.3718e-05 0.000785923 -0.00112442 0.000586566
internal_weight=1236.41 21.6547 1214.76 762.349 452.409 12.2024
internal_count=4989 87 4902 3075 1827 49
is_linear=0
shrinkage=0.011


Tree=81
num_leaves=7
num_cat=0
split_feature=109 79 76 39 45 22
split_gain=9.36182 7.69593 8.55816 6.26598 5.83285 1.54163
threshold=1.2105000000000004 0.90000000000000013 0.47913043478260875 0.55000000000000016 -0.39999999999999997 0.45383522727272735
decision_type=2 2 2 2 2 2
left_child=1 3 -3 -1 -2 -6
right_child=4 2 -4 -5 5 -7
leaf_value=0.015690219890984694 0.0009501811644163844 0.0011086432323854968 -0.00078395188994822369 0.0008337733001911701 0.016491765960724381 0.0072956874299469456
leaf_weight=6.4649515002965909 9.9625863730907458 483.60996304452419 717.46206471323967 7.1935737580060959 5.975334167480467 5.725769579410553
leaf_count=26 40 1950 2897 29 24 23
internal_value=0.000202536 7.29189e-05 -2.11723e-05 0.00816451 0.00730397 0.0124426
internal_weight=1236.39 1214.73 1201.07 13.6585 21.6637 11.7011
internal_count=4989 4902 4847 55 87 47
is_linear=0
shrinkage=0.011


Tree=82
num_leaves=8
num_cat=0
split_feature=44 98 15 79 83 77 44
split_gain=9.01032 9.85176 9.79559 14.2537 11.9873 9.07979 8.49704
threshold=5.1000000000000005 32.10292843809993 0.52786377708978338 0.90000000000000013 1.0000000180025095e-35 0.441933066933067 6.9000000000000012
decision_type=2 2 2 2 2 2 2
left_child=2 5 3 -1 -4 -2 -3
right_child=1 6 4 -5 -6 -7 -8
leaf_value=0.016448522849340265 0.0014485260847462338 -0.0054349915679441389 0.00078900810361154437 0.0012917772381244486 -0.0036026333480670678 -0.0064874533248270297 0.0013959396818579931
leaf_weight=7.2098751962184897 126.24562002718449 94.956186026334763 196.79114650189877 642.07463420927525 121.03726099431515 19.821211203932762 28.265189826488495
leaf_count=29 509 384 795 2589 489 80 114
internal_value=0.00020048 -0.00157679 0.000696563 0.00147124 -0.000883553 0.000351809 -0.00386267
internal_weight=1236.4 269.288 967.113 649.285 317.828 146.067 123.221
internal_count=4989 1087 3902 2618 1284 589 498
is_linear=0
shrinkage=0.011


Tree=83
num_leaves=7
num_cat=0
split_feature=109 68 89 9 68 76
split_gain=9.15051 9.84784 8.36365 10.015 8.17488 4.20875
threshold=1.2105000000000004 9.2187458478526896 8.0689038676693539 -0.46315203910290753 64.630156326595298 0.47913043478260875
decision_type=2 2 2 2 2 2
left_child=2 5 3 -1 -4 -2
right_child=1 -3 4 -5 -6 -7
leaf_value=0.0029800318216152638 -0.0053325116199217718 0.015393437063505282 -0.00063100213182561106 5.2242162253805015e-05 -0.0056687867568172498 0.0071946689161171678
leaf_weight=187.28890989720821 6.476037725806238 9.4663139283657056 409.58906398713589 575.07971316576004 42.772178247570992 5.7296880632638931
leaf_count=750 26 38 1654 2325 173 23
internal_value=0.000198299 0.00721777 7.01229e-05 0.000773656 -0.00111356 0.000531308
internal_weight=1236.4 21.672 1214.73 762.369 452.361 12.2057
internal_count=4989 87 4902 3075 1827 49
is_linear=0
shrinkage=0.011


Tree=84
num_leaves=7
num_cat=0
split_feature=109 68 44 76 98 15
split_gain=8.95623 9.6314 8.24357 9.50129 8.73697 4.12857
threshold=1.2105000000000004 9.2187458478526896 5.1000000000000005 0.45643939393939398 32.10292843809993 0.44722222222222224
decision_type=2 2 2 2 2 2
left_child=2 5 3 -1 -4 -2
right_child=1 -3 4 -5 -6 -7
leaf_value=0.0019873548536449978 0.0071264670278936649 0.015221468595122911 0.00019560599412833348 -0.00029233432231075778 -0.0037849732620071626 -0.0052806577495111869
leaf_weight=350.75511653721333 5.7288553118705767 9.4724400788545591 144.56791144609451 596.45695917308331 122.91924040019512 6.4772253632545471
leaf_count=1414 23 38 583 2408 497 26
internal_value=0.00019617 0.00713969 6.93339e-05 0.000551545 -0.00163377 0.000525446
internal_weight=1236.38 21.6785 1214.7 947.212 267.487 12.2061
internal_count=4989 87 4902 3822 1080 49
is_linear=0
shrinkage=0.011


Tree=85
num_leaves=8
num_cat=0
split_feature=9 113 18 80 16 90 80
split_gain=10.1573 11.4824 9.5045 9.45547 9.55644 8.51956 6.71486
threshold=-0.31315203910290756 -0.20499999999999993 3.1714285714285722 -0.80645833333333361 3.535714285714286 2.1629438411200295 -0.4303879329278581
decision_type=2 2 2 2 2 2 2
left_child=1 5 -3 4 -2 -1 -5
right_child=3 2 -4 6 -6 -7 -8
leaf_value=0.0022103266150679782 -0.0023972751656206226 -0.0018896005938942482 0.0018613342362207175 -0.0051039798426374986 0.0023880087060489338 0.013870853344668449 -0.0011322557450797104
leaf_weight=16.480809941887859 69.866406425833702 113.23994615674019 289.95660522580147 56.764044791460037 178.47732464969158 14.234453827142714 541.14994958043098
leaf_count=66 283 454 1161 230 722 57 2193
internal_value=-6.20555e-05 0.00130496 0.000805209 -0.000764136 0.00103711 0.00774673 -0.00151371
internal_weight=1280.17 433.912 403.197 846.258 248.344 30.7153 597.914
internal_count=5166 1738 1615 3428 1005 123 2423
is_linear=0
shrinkage=0.011


Tree=86
num_leaves=8
num_cat=0
split_feature=9 113 79 80 16 90 80
split_gain=9.93756 11.2394 9.37571 9.25015 9.34742 8.33816 6.5746
threshold=-0.31315203910290756 -0.20499999999999993 3.6485294117647062 -0.80645833333333361 3.535714285714286 2.1629438411200295 -0.4303879329278581
decision_type=2 2 2 2 2 2 2
left_child=1 5 -3 4 -2 -1 -5
right_child=3 2 -4 6 -6 -7 -8
leaf_value=0.0021865258756941686 -0.0023716647637557053 -0.0011181308118979204 0.0022621583742673218 -0.0050510322004590977 0.0023612412911582226 0.013722954016105845 -0.0011199493147534252
leaf_weight=16.481295555830005 69.848449125885963 174.66624814271927 228.53194949030876 56.732494086027145 178.51936367154121 14.233912363648413 541.08302585780621
leaf_count=66 283 700 915 230 722 57 2193
internal_value=-6.13382e-05 0.00129078 0.000796328 -0.000755841 0.00102557 0.00766406 -0.00149737
internal_weight=1280.1 433.913 403.198 846.183 248.368 30.7152 597.816
internal_count=5166 1738 1615 3428 1005 123 2423
is_linear=0
shrinkage=0.011


Tree=87
num_leaves=7
num_cat=0
split_feature=91 96 35 6 83 2
split_gain=8.18131 9.91658 8.2759 8.15286 9.40875 8.10779
threshold=2.1271888302239863 37.211964430072761 1.0000000180025095e-35 -0.53625715098481919 13.500000000000002 1353.8482100106764
decision_type=2 2 2 2 2 2
left_child=1 2 -1 5 -5 -2
right_child=3 -3 -4 4 -6 -7
leaf_value=0.0046212347621780187 0.012662692939692799 0.012228297836567077 0.00023876681544649951 -0.00098510702389523349 -0.0065491323698045343 0.00058296485696594487
leaf_weight=63.24383670091629 6.4905157387256613 9.4512931853532773 291.13604512810707 574.91936971247196 38.984472185373306 295.79709866642952
leaf_count=255 26 38 1174 2330 158 1185
internal_value=-6.06249e-05 0.00133339 0.00102728 -0.000615349 -0.00134367 0.000861158
internal_weight=1280.02 363.831 354.38 916.191 613.904 302.288
internal_count=5166 1467 1429 3699 2488 1211
is_linear=0
shrinkage=0.011


Tree=88
num_leaves=8
num_cat=0
split_feature=91 6 83 2 35 10 74
split_gain=8.00389 7.97769 9.21405 7.94139 7.2767 11.9408 6.70277
threshold=2.1271888302239863 -0.53625715098481919 13.500000000000002 1353.8482100106764 1.0000000180025095e-35 0.36666666666666675 0.37300784214520627
decision_type=2 2 2 2 2 2 2
left_child=4 3 -3 -2 5 -1 -6
right_child=1 2 -4 -5 6 -7 -8
leaf_value=-0.0076695007365344386 0.012531979305639608 -0.00097438218172277483 -0.0064824165709449983 0.00057655171655270358 0.0041814714529562749 0.006427977680319075 -0.00016135879340662825
leaf_weight=7.9399366229772559 6.4902472198009482 574.85841162502766 38.956720545887947 295.80179969966412 51.569394022226334 56.819696590304375 247.53410226106644
leaf_count=32 26 2330 158 1185 208 229 998
internal_value=-5.98586e-05 -0.000608601 -0.00132915 0.000851893 0.00131885 0.00465176 0.000589526
internal_weight=1279.97 916.107 613.815 302.292 363.863 64.7596 299.103
internal_count=5166 3699 2488 1211 1467 261 1206
is_linear=0
shrinkage=0.011


Tree=89
num_leaves=8
num_cat=0
split_feature=9 113 18 80 46 69 80
split_gain=9.53102 11.0177 9.21814 9.03576 8.38212 8.28691 6.4463
threshold=-0.31315203910290756 -0.20499999999999993 3.1714285714285722 -0.80645833333333361 3.100000000000001 14.665678622046586 -0.4303879329278581
decision_type=2 2 2 2 2 2 2
left_child=1 5 -3 4 -2 -1 -5
right_child=3 2 -4 6 -6 -7 -8
leaf_value=0.012542741051450507 0.0015829396956684712 -0.0018785838540975469 0.0018154945149570926 -0.0049925473819357538 -0.0062322460799493088 0.0009906418267355149 -0.0010988155330522241
leaf_weight=17.2359973192215 230.89401523768902 113.23115828633308 289.96611671149731 56.694714173674583 17.469579175114632 13.476645082235335 540.95054483413696
leaf_count=69 934 454 1161 230 71 54 2193
internal_value=-5.91693e-05 0.00126495 0.000775415 -0.000739445 0.00102113 0.0075753 -0.00147251
internal_weight=1279.92 433.91 403.197 846.009 248.364 30.7126 597.645
internal_count=5166 1738 1615 3428 1005 123 2423
is_linear=0
shrinkage=0.011


Tree=90
num_leaves=6
num_cat=0
split_feature=1 13 19 46 44
split_gain=13.8834 8.48301 11.0986 8.36233 6.37315
threshold=1684.0250080882665 0.13392857142857145 6.9500000000000011 -2.0999999999999992 4.4500000000000011
decision_type=2 2 2 2 2
left_child=1 3 -3 -1 -2
right_child=4 2 -4 -5 -6
leaf_value=0.0010613929875266462 0.014630507486908598 0.00016737405896648087 -0.011167808099215842 -0.0087608416952534556 0.0010816867441270231
leaf_weight=17.068516790866852 10.957566469907762 1205.4760680347681 10.142510667443274 25.995008453726768 6.9704738706350318
leaf_count=69 44 4865 41 105 28
internal_value=3.62336e-05 -0.000101557 6.85505e-05 -0.00487684 0.00954147
internal_weight=1276.61 1258.68 1215.62 43.0635 17.928
internal_count=5152 5080 4906 174 72
is_linear=0
shrinkage=0.011


Tree=91
num_leaves=7
num_cat=0
split_feature=1 19 97 96 96 68
split_gain=13.5855 8.11535 6.9559 5.68066 6.39409 5.43787
threshold=1684.0250080882665 6.9500000000000011 4.0208333333333348 26.705907592811396 17.369924812030078 -5.2900308927494271
decision_type=2 2 2 2 2 2
left_child=1 2 -1 4 -2 -3
right_child=3 5 -4 -5 -6 -7
leaf_value=6.5551425492390964e-05 0.012710254263128929 -0.0013633701521902437 -0.0098991281597119347 0.017911033165730724 -0.0028987122605933662 -0.014706667365263897
leaf_weight=1235.7058016359806 5.7259549051523226 7.6577073186635971 8.134901285171507 5.9854974746704093 6.2249598503112793 7.1717936396598798
leaf_count=4987 23 31 33 24 25 29
internal_value=3.58294e-05 -0.000100501 -2.18815e-06 0.00943639 0.00468966 -0.00808158
internal_weight=1276.61 1258.67 1243.84 17.9364 11.9509 14.8295
internal_count=5152 5080 5020 72 48 60
is_linear=0
shrinkage=0.011


Tree=92
num_leaves=6
num_cat=0
split_feature=1 30 25 30 44
split_gain=13.3025 8.11963 13.4184 8.36609 6.2461
threshold=1684.0250080882665 0.55571895424836615 10.500000000000002 0.53824093331600165 4.4500000000000011
decision_type=2 2 2 2 2
left_child=1 3 -3 -1 -2
right_child=4 2 -4 -5 -6
leaf_value=-0.00017001504575953999 0.014370077973427015 0.0004571051803188501 0.0077819354430973845 -0.0037456161564311157 0.00096859129671651376
leaf_weight=998.72350461781025 10.968604698777201 135.59859783947468 38.671713128685951 85.663191124796867 6.9743147790431967
leaf_count=4030 44 548 156 346 28
internal_value=3.54275e-05 -9.94947e-05 0.00210085 -0.000454433 0.00933589
internal_weight=1276.6 1258.66 174.27 1084.39 17.9429
internal_count=5152 5080 704 4376 72
is_linear=0
shrinkage=0.011


Tree=93
num_leaves=7
num_cat=0
split_feature=1 13 19 46 10 45
split_gain=13.0184 8.27856 10.7056 8.19766 5.20716 2.46233
threshold=1684.0250080882665 0.13392857142857145 6.9500000000000011 -2.0999999999999992 0.90000000000000013 2.4500000000000006
decision_type=2 2 2 2 2 2
left_child=1 3 -3 -1 5 -2
right_child=4 2 -4 -5 -6 -7
leaf_value=0.0010608717030620824 0.018126790349420975 0.00016660315761551597 -0.010975950641412513 -0.0086651536600686214 0.00063898548564085523 0.0071249276925396078
leaf_weight=17.069238394498825 6.2307159751653689 1205.4764470010996 10.123702123761175 25.973534896969795 5.986510455608367 5.7320386618375778
leaf_count=69 25 4865 41 105 24 23
internal_value=3.51105e-05 -9.8381e-05 6.96202e-05 -0.00481694 0.00923409 0.0133159
internal_weight=1276.59 1258.64 1215.6 43.0428 17.9493 11.9628
internal_count=5152 5080 4906 174 72 48
is_linear=0
shrinkage=0.011


Tree=94
num_leaves=7
num_cat=0
split_feature=13 19 46 71 16 9
split_gain=8.07572 10.7436 7.58804 8.06959 6.22079 4.3414
threshold=0.13392857142857145 6.9500000000000011 -2.0999999999999992 -3.4999999999999996 2.9500000000000006 -0.16315203910290763
decision_type=2 2 2 2 2 2
left_child=2 4 3 -1 -2 -4
right_child=1 -3 5 -5 -6 -7
leaf_value=-0.0064395258227716327 -0.0014424687655008939 -0.010870927740545691 -0.0030696925862775727 0.008337362725522799 0.00064958786092376183 -0.012262365717953369
leaf_weight=8.392518103122713 206.44630862772465 10.112992882728575 11.709273457527162 8.678417965769766 1016.7509839832783 14.493909791111944
leaf_count=34 833 41 47 35 4103 59
internal_value=3.47614e-05 0.000199885 -0.0046131 0.00104937 0.000295541 -0.00829011
internal_weight=1276.58 1233.31 43.2741 17.0709 1223.2 26.2032
internal_count=5152 4977 175 69 4936 106
is_linear=0
shrinkage=0.011


Tree=95
num_leaves=8
num_cat=0
split_feature=35 28 47 9 80 99 80
split_gain=7.83523 11.2674 12.6303 10.0874 12.9849 9.80181 7.93914
threshold=1.5000000000000002 -86.499999999999986 0.45000000000000007 -0.21315203910290761 0.3848214285714287 -1.0000000180025095e-35 -2.498529411764705
decision_type=2 2 2 2 2 2 2
left_child=3 6 -3 4 -1 -5 -2
right_child=1 2 -4 5 -6 -7 -8
leaf_value=0.00098118978341084763 0.0062343968152436926 -0.0013845485765011333 0.0014493153246272045 0.0030310156861812492 0.0076484208546550199 -0.0013693300917829155 -0.0071875847365240469
leaf_weight=90.324016466736794 5.69211621582508 458.38322873413563 324.68290242552757 90.392380967736244 58.141892299056053 187.81145346164703 43.921207547187805
leaf_count=362 23 1851 1309 366 233 761 178
internal_value=8.75851e-05 -0.000532848 -0.000208462 0.0012995 0.00361068 6.00585e-05 -0.0055954
internal_weight=1259.35 832.679 783.066 426.67 148.466 278.204 49.6133
internal_count=5083 3361 3160 1722 595 1127 201
is_linear=0
shrinkage=0.011


Tree=96
num_leaves=8
num_cat=0
split_feature=78 69 46 35 28 9 30
split_gain=7.87623 11.6964 11.1376 9.84213 15.699 12.885 3.3221
threshold=4.9484126984126995 -70.063010234646285 0.36666666666666653 1.5000000000000002 -86.499999999999986 -0.31315203910290756 0.49952198852772473
decision_type=2 2 2 2 2 2 2
left_child=3 6 -3 5 -5 -1 -2
right_child=1 2 -4 4 -6 -7 -8
leaf_value=0.0042239939674381189 -0.01080855405522255 0.0053405374350982502 0.00020513419799121865 -0.0081593984463805905 -0.0006868174137896713 -0.00027914497417229491 -0.00085649563945858437
leaf_weight=113.6015405356884 9.6737149208784121 99.084128990769386 105.77972728013992 35.527156606316566 653.24744212627411 235.19170007109642 7.2073999196290961
leaf_count=455 39 399 427 144 2637 953 29
internal_value=8.6661e-05 0.00196694 0.00269807 -0.000315077 -0.00107784 0.00118857 -0.00672034
internal_weight=1259.31 221.745 204.864 1037.57 688.775 348.793 16.8811
internal_count=5083 894 826 4189 2781 1408 68
is_linear=0
shrinkage=0.011


Tree=97
num_leaves=8
num_cat=0
split_feature=78 15 5 80 50 82 5
split_gain=7.70224 9.80506 20.484 9.68371 6.24006 9.39788 9.38478
threshold=4.9484126984126995 0.53137254901960795 0.42336670175547159 3.7678571428571432 0.55000000000000016 20.500000000000004 0.36475935661965447
decision_type=2 2 2 2 2 2 2
left_child=1 3 -3 -1 5 -2 -6
right_child=4 2 -4 -5 6 -7 -8
leaf_value=0.0001239009546797822 0.0011090695924025125 0.0043212145065708646 -0.0031907170290542651 0.0064497116074114383 -0.004931950821899022 -0.011146818211902065 0.00534264587783963
leaf_weight=693.14351169764996 117.83728379011154 52.325593829154968 261.84493134915829 30.189787402749062 11.928264021873472 7.6851149946451178 84.320421144366264
leaf_count=2797 475 211 1059 122 48 31 340
internal_value=8.565e-05 -0.000311661 -0.00193335 0.000392359 0.00194491 0.000319825 0.00404653
internal_weight=1259.27 1037.5 314.171 723.333 221.771 125.522 96.2487
internal_count=5083 4189 1270 2919 894 506 388
is_linear=0
shrinkage=0.011


Tree=98
num_leaves=8
num_cat=0
split_feature=78 35 9 47 18 68 81
split_gain=7.5309 9.63724 12.6181 10.5926 6.17334 8.68645 7.86683
threshold=4.9484126984126995 1.5000000000000002 -0.21315203910290761 0.45000000000000007 4.354166666666667 -19.029042690164143 16.500000000000004
decision_type=2 2 2 2 2 2 2
left_child=1 2 -1 -3 5 -2 -6
right_child=4 3 -4 -5 6 -7 -8
