tree
version=v4
num_class=1
num_tree_per_iteration=1
label_index=0
max_feature_idx=61
objective=binary sigmoid:1
feature_names=is_home_favorite home_elo away_elo elo_diff elo_expected elo_surprise handicap_normalized handicap_direction handi_team_past_accuracy handicap_deviation home_wr_5 away_wr_5 home_wr_10 away_wr_10 home_wr_20 away_wr_20 home_score_avg away_score_avg home_concede_avg away_concede_avg home_streak away_streak h2h_home_wr h2h_away_wr h2h_score_diff h2h_count home_points away_points points_diff home_season_wr away_season_wr home_rest_days away_rest_days rest_diff home_games_7d away_games_7d home_back_to_back away_back_to_back home_recent_form away_recent_form form_diff home_scored_trend away_scored_trend home_conceded_trend away_conceded_trend home_net_trend away_net_trend home_recent_cover away_recent_cover home_elo_velocity away_elo_velocity home_win_streak away_win_streak home_home_win_rate away_away_win_rate h2h_cover_rate total_points_avg home_pace away_pace pace_diff home_close_game_rate home_blowout_rate
feature_infos=[0:1] [1137.2135286138428:1857.765582756203] [1154.284872316126:1860.544896009244] [-557.13985382803844:536.29373009623032] [0.054076241521945734:0.96870623828807545] [0.13630590969202683:0.96870623828807545] [-1.5979641658303605:4.1854184547664888] [0:1] [0:1] [-6.3549618320610683:16.645038167938932] [0:1] [0:1] [0:1] [0:1] [0:1] [0:1] [88:135] [90:136] [15:139] [88:134.85714285714286] [-17:16] [-15:9] [0:1] [0:1] [-52:44] [0:12] [0:306] [0:306] [-231:252] [0:1] [0:1] [1:208] [1:207] [-29:29] [0:4] [0:5] [0:1] [0:1] [0:1] [0:1] [-1:1] [0:133.80000000000001] [0:136] [0:135.59999999999999] [0:135.40000000000001] [-27.399999999999991:23.799999999999997] [-26:27.400000000000006] [0:1] [0:1] [-228.55920106400231:184.88919873443683] [-196.25202763993138:256.30051605009749] [-20:10] [-19:11] [0:1] [0:1] [0:1] [212:230.28177966101694] [88:135] [90:136] [-35.5:27.599999999999994] [0:1] [0:1]
tree_sizes=2140 2816

Tree=0
num_leaves=19
num_cat=0
split_feature=39 12 45 44 55 28 29 22 24 27 28 59 61 60 46 1 44 60
split_gain=7.92085 6.56795 10.3598 7.41196 6.42297 5.19529 5.83527 4.54558 5.72649 4.35956 4.01207 3.48368 4.48442 2.78448 1.79828 1.1618 0.899498 0.446612
threshold=0.70833333333333337 0.68333333333333346 0.80000000000000437 124.90000000000002 0.64583333333333337 72.500000000000014 0.49766355140186919 0.5277777777777779 -12.166666666666666 40.500000000000007 -85.499999999999986 -2.3007433100600774 0.35388994307400384 0.23483455882352944 -10.700000000000001 1539.567560657759 106.7 0.34833164812942369
decision_type=2 2 2 2 2 2 2 2 2 2 2 2 2 2 2 2 2 2
left_child=1 3 9 5 7 6 -1 8 -2 -3 -10 -4 -13 -9 -5 -15 -6 -11
right_child=4 2 11 14 16 -7 -8 13 10 17 -12 12 -14 15 -16 -17 -18 -19
leaf_value=-0.068825220539893817 -0.069518449668518612 -0.067676155481932676 -0.063525284793888817 -0.067010710282960309 -0.067010710282960309 -0.064501029066750606 -0.073376294903703371 -0.071036236698205246 -0.067612567889989497 -0.058501158977387432 -0.060505262327665517 -0.070789428154995226 -0.064206909526139513 -0.062847863443666691 -0.061090169169267267 -0.067155501339897908 -0.07237727233631229 -0.066179330715499043
leaf_weight=88.900163412094116 5.4938303232192984 4.9943912029266384 6.2429890036582938 5.4938303232192993 5.2441107630729658 9.4893432855606061 50.193631589412689 8.4904650449752825 5.4938303232192984 14.983173608779909 46.697557747364044 42.951764345169067 7.4915868043899527 5.4938303232192975 6.7424281239509565 5.2441107630729675 5.4938303232192993 5.2441107630729666
leaf_count=356 22 20 25 22 21 38 201 34 22 60 187 172 30 22 27 21 22 21
internal_value=-0.0673788 -0.0683316 -0.0661486 -0.0694963 -0.0649192 -0.0701709 -0.0707008 -0.0638174 -0.0624852 -0.0613223 -0.0614155 -0.0684208 -0.0694668 -0.0675103 -0.0633437 -0.0649646 -0.0706833 -0.0595361
internal_weight=330.379 242.727 81.908 160.819 87.6516 148.583 139.094 76.9136 57.6852 25.2217 52.1914 56.6863 50.4434 19.2284 12.2363 10.7379 10.7379 20.2273
internal_count=1323 972 328 644 351 595 557 308 231 101 209 227 202 77 49 43 43 81
is_linear=0
shrinkage=1


Tree=1
num_leaves=26
num_cat=0
split_feature=42 42 4 45 24 24 56 15 16 28 49 13 4 6 52 44 44 44 11 30 45 50 51 49 49
split_gain=14.4876 5.86029 5.61038 5.97835 6.51591 5.52133 4.90601 6.89989 4.7535 5.42568 4.79153 3.60823 3.52348 3.24623 3.78536 3.15572 4.49221 2.83228 2.32151 2.2145 1.73492 1.48114 1.47516 1.4686 1.32173
threshold=112.10000000000001 121.10000000000001 0.61174353131488612 0.80000000000000437 -11.099999999999998 5.5833333333333348 227.92420047810171 0.45227272727272733 118.27500000000002 64.500000000000014 -26.925450776338263 0.38750000000000007 0.712380770071254 -0.65502134725478733 1.0000000180025095e-35 114.45000000000002 108.90000000000002 108.7 0.45000000000000007 0.34228550829127619 -8.199999999999994 31.291858328353673 -1.4999999999999998 27.370439797962494 -1.2951550582035904
decision_type=2 2 2 2 2 2 2 2 2 2 2 2 2 2 2 2 2 2 2 2 2 2 2 2 2
left_child=8 2 3 4 -2 13 11 -8 9 10 12 -4 -1 14 -3 16 18 -5 -10 -11 -12 -7 -15 -18 -17
right_child=1 5 6 17 -6 21 7 -9 15 19 20 -13 -14 22 -16 24 23 -19 -20 -21 -22 -23 -24 -25 -26
leaf_value=-0.0030169194011618067 -0.0062675194773351966 -0.0036714870879388318 -0.0054350265801657218 0 0.0017368588931444269 0.0012936573518879941 0.0068442581693192676 -0.00092794859735572906 -0.0050238645244275841 -0.0014558091577109471 0 0.0019056314777105619 0.0033632688053223405 0.00034292996988622977 0.0041556807762943553 -0.0056629314353963366 0.0070954477100966086 -0.0063859193555855518 0.0012426756380403805 0.0047299831210854525 -0.0071505180782282076 -0.0036326190668548586 0.0088019362565238245 0 0
leaf_weight=22.97344279289246 6.9916153699159613 4.9945193380117408 6.9916459172964087 7.4919054657220867 57.435481026768684 5.4941525608301145 27.717581629753113 12.735611587762831 5.2440203577280062 5.9933283329009992 5.4935051500797263 8.4903703182935697 6.7424708008766165 5.4940771013498297 9.7399219870567304 4.9941904097795486 8.4903294146060926 20.226043999195099 6.4929037392139435 5.2442978173494339 48.939838215708733 6.2430438250303268 19.729584425687793 4.9939510822296134 4.9939752966165525
leaf_count=92 28 20 28 30 230 22 111 51 21 24 22 34 27 22 39 20 34 81 26 21 196 25 79 20 20
internal_value=-0.000363229 0.00128761 0.000164037 -0.00126503 0.000335372 0.00403139 0.00259296 0.00434447 -0.00291666 -0.00402812 -0.00489989 -0.00143869 -0.00100532 0.00569033 0.000737779 0 0.00205192 -0.0047734 -0.00162411 0.00138266 -0.0065943 -0.00103159 0.00765185 0.00536641 -0.00354474
internal_weight=330.372 199.776 148.08 92.145 64.4271 51.6953 55.9352 40.4532 130.596 95.3869 84.1493 15.482 29.7159 39.9581 14.7344 35.2094 25.2212 27.7179 11.7369 11.2376 54.4333 11.7372 25.2237 13.4843 9.98817
internal_count=1323 800 593 369 258 207 224 162 523 382 337 62 119 160 59 141 101 111 47 45 218 47 101 54 40
is_linear=0
shrinkage=0.01


end of trees

feature_importances:
away_conceded_trend=5
h2h_score_diff=3
points_diff=3
home_net_trend=3
home_elo_velocity=3
elo_expected=2
away_scored_trend=2
home_close_game_rate=2
home_elo=1
handicap_normalized=1
away_wr_5=1
home_wr_10=1
away_wr_10=1
away_wr_20=1
home_score_avg=1
h2h_home_wr=1
away_points=1
home_season_wr=1
away_season_wr=1
away_recent_form=1
away_net_trend=1
away_elo_velocity=1
home_win_streak=1
away_win_streak=1
h2h_cover_rate=1
total_points_avg=1
pace_diff=1
home_blowout_rate=1

parameters:
[boosting: gbdt]
[objective: binary]
[metric: binary_logloss]
[tree_learner: serial]
[device_type: cpu]
[data_sample_strategy: bagging]
[data: ]
[valid: ]
[num_iterations: 3000]
[learning_rate: 0.01]
[num_leaves: 31]
[num_threads: 0]
[seed: 0]
[deterministic: 0]
[force_col_wise: 0]
[force_row_wise: 0]
[histogram_pool_size: -1]
[max_depth: 5]
[min_data_in_leaf: 20]
[min_sum_hessian_in_leaf: 0.001]
[bagging_fraction: 0.7]
[pos_bagging_fraction: 1]
[neg_bagging_fraction: 1]
[bagging_freq: 5]
[bagging_seed: 3]
[bagging_by_query: 0]
[feature_fraction: 0.6]
[feature_fraction_bynode: 1]
[feature_fraction_seed: 2]
[extra_trees: 0]
[extra_seed: 6]
[early_stopping_round: 0]
[early_stopping_min_delta: 0]
[first_metric_only: 0]
[max_delta_step: 0]
[lambda_l1: 1]
[lambda_l2: 5]
[linear_lambda: 0]
[min_gain_to_split: 0]
[drop_rate: 0.1]
[max_drop: 50]
[skip_drop: 0.5]
[xgboost_dart_mode: 0]
[uniform_drop: 0]
[drop_seed: 4]
[top_rate: 0.2]
[other_rate: 0.1]
[min_data_per_group: 100]
[max_cat_threshold: 32]
[cat_l2: 10]
[cat_smooth: 10]
[max_cat_to_onehot: 4]
[top_k: 20]
[monotone_constraints: ]
[monotone_constraints_method: basic]
[monotone_penalty: 0]
[feature_contri: ]
[forcedsplits_filename: ]
[refit_decay_rate: 0.9]
[cegb_tradeoff: 1]
[cegb_penalty_split: 0]
[cegb_penalty_feature_lazy: ]
[cegb_penalty_feature_coupled: ]
[path_smooth: 0]
[interaction_constraints: ]
[verbosity: -1]
[saved_feature_importance_type: 0]
[use_quantized_grad: 0]
[num_grad_quant_bins: 4]
[quant_train_renew_leaf: 0]
[stochastic_rounding: 1]
[linear_tree: 0]
[max_bin: 255]
[max_bin_by_feature: ]
[min_data_in_bin: 3]
[bin_construct_sample_cnt: 200000]
[data_random_seed: 1]
[is_enable_sparse: 1]
[enable_bundle: 1]
[use_missing: 1]
[zero_as_missing: 0]
[feature_pre_filter: 1]
[pre_partition: 0]
[two_round: 0]
[header: 0]
[label_column: ]
[weight_column: ]
[group_column: ]
[ignore_column: ]
[categorical_feature: ]
[forcedbins_filename: ]
[precise_float_parser: 0]
[parser_config_file: ]
[objective_seed: 5]
[num_class: 1]
[is_unbalance: 0]
[scale_pos_weight: 1]
[sigmoid: 1]
[boost_from_average: 1]
[reg_sqrt: 0]
[alpha: 0.9]
[fair_c: 1]
[poisson_max_delta_step: 0.7]
[tweedie_variance_power: 1.5]
[lambdarank_truncation_level: 30]
[lambdarank_norm: 1]
[label_gain: ]
[lambdarank_position_bias_regularization: 0]
[eval_at: ]
[multi_error_top_k: 1]
[auc_mu_weights: ]
[num_machines: 1]
[local_listen_port: 12400]
[time_out: 120]
[machine_list_filename: ]
[machines: ]
[gpu_platform_id: -1]
[gpu_device_id: -1]
[gpu_use_dp: 0]
[num_gpu: 1]

end of parameters

pandas_categorical:[]
