tree
version=v4
num_class=1
num_tree_per_iteration=1
label_index=0
max_feature_idx=86
objective=binary sigmoid:1
feature_names=Column_0 Column_1 Column_2 Column_3 Column_4 Column_5 Column_6 Column_7 Column_8 Column_9 Column_10 Column_11 Column_12 Column_13 Column_14 Column_15 Column_16 Column_17 Column_18 Column_19 Column_20 Column_21 Column_22 Column_23 Column_24 Column_25 Column_26 Column_27 Column_28 Column_29 Column_30 Column_31 Column_32 Column_33 Column_34 Column_35 Column_36 Column_37 Column_38 Column_39 Column_40 Column_41 Column_42 Column_43 Column_44 Column_45 Column_46 Column_47 Column_48 Column_49 Column_50 Column_51 Column_52 Column_53 Column_54 Column_55 Column_56 Column_57 Column_58 Column_59 Column_60 Column_61 Column_62 Column_63 Column_64 Column_65 Column_66 Column_67 Column_68 Column_69 Column_70 Column_71 Column_72 Column_73 Column_74 Column_75 Column_76 Column_77 Column_78 Column_79 Column_80 Column_81 Column_82 Column_83 Column_84 Column_85 Column_86
feature_infos=[0:1] [1106.9532174196154:1954.9781783667363] [1105.4953876996781:1955.21661705578] [-616.34689521101859:841.83740862822538] [0.039068366432585412:0.99446654153445435] [0.039068366432585412:0.99446654153445435] [-0.5133847086578015:4.7582611089701023] [0:1] [0:1] [-1.8503347534996957:17.149665246500305] [0:1] [0:1] [0:1] [0:1] [0:1] [0:1] [76:140] [84:132] [79:131.19999999999999] [76:140] [-18:24] [-18:14] [0:1] [0:1] [-49:48] [0:24] [0:846] [0:846] [-753:765] [0:1] [0:1] [1:288] [1:287] [-29:29] [0:4] [0:4] [0:1] [0:1] [0:1] [0:1] [-1:1] [0:140] [0:135.19999999999999] [0:140] [0:135.40000000000001] [-48:29.200000000000003] [-31.200000000000003:48] [0:1] [0:1] none none none none none none none none none none none none none none [-204.54493320930601:226.06308727763212] [-201.03727486431853:239.61117309063434] [-20:18] [-18:18] [0:1] [0:1] [0:1] [209.0595238095238:243] [95.379999999999995:104.67] [95.379999999999995:104.67] [-34.540474741326847:33] [0:1] [0:1] [0:1] [108.5:120.3] [108.5:120.3] [106.3:120.7] [106.3:120.7] [-10.9:10.699999999999999] [-10.9:10.699999999999999] [-11.799999999999997:11.799999999999997] [-14.400000000000006:14.400000000000006] [-12.200000000000003:14] [-12.200000000000003:14]
tree_sizes=960 997 997 1000 995 991 995 994 994 990 1002 995 995 888 992 995 998 992 1000 998 995 1000 985 992 1000 1001 1010 983 991 999 981 998 979 997 981 993 990 999 1002 993 997 990 994 988 996

Tree=0
num_leaves=8
num_cat=0
split_feature=4 4 5 14 28 4 16
split_gain=359.148 78.832 50.152 34.0017 19.9456 12.5506 7.98697
threshold=0.60714234815640267 0.27866400207903497 0.78464046755369821 0.6858552631578948 4.5000000000000009 0.91868768721972538 119.25000000000001
decision_type=2 2 2 2 2 2 2
left_child=1 6 4 -3 -2 -4 -1
right_child=2 3 5 -5 -6 -7 -8
leaf_value=0.17335193440033875 0.25413424782295696 0.22190284865954679 0.30877604036470452 0.2648578512231321 0.28912442039504482 0.34994143868629646 0.28224646341658061
leaf_weight=177.17035531997681 152.07122164964676 456.45973488688469 236.96535024046898 128.44850760698318 213.3426361978054 48.967917650938034 3.6910490691661826
leaf_count=720 618 1855 963 522 867 199 15
internal_value=0.252422 0.218168 0.292697 0.231341 0.274572 0.315846 0.175595
internal_weight=1417.12 765.77 651.347 584.908 365.414 285.933 180.861
internal_count=5759 3112 2647 2377 1485 1162 735
is_linear=0
shrinkage=1


Tree=1
num_leaves=8
num_cat=0
split_feature=4 4 4 67 4 5 45
split_gain=310.183 60.9476 54.8093 26.1691 16.5579 14.8058 10.0277
threshold=0.5685267760211502 0.70910693846987727 0.27866400207903497 0.65833333333333344 0.91868768721972538 0.38660319384136588 -3.0999999999999939
decision_type=2 2 2 2 2 2 2
left_child=2 5 6 -4 -3 -2 -1
right_child=1 4 3 -5 -6 -7 -8
leaf_value=-0.080345053387802082 -0.096736359491213217 0.046096899857378727 -0.03152030707363581 0.010460263741428888 0.092022871525061084 0.010644340215579803 -0.040353664938259322
leaf_weight=136.20575246214867 7.1225981414318076 385.20546734333038 395.36299061775208 101.47431543469429 48.257471770048141 296.57640855014324 46.124997764825821
leaf_count=549 29 1575 1601 413 199 1207 186
internal_value=0.00032086 0.0334646 -0.0356487 -0.0229405 0.0512227 0.0081068 -0.0702524
internal_weight=1416.33 737.162 679.168 496.837 433.463 303.699 182.331
internal_count=5759 3010 2749 2014 1774 1236 735
is_linear=0
shrinkage=0.073782


Tree=2
num_leaves=8
num_cat=0
split_feature=3 3 5 1 15 0 3
split_gain=266.766 59.6399 39.6063 20.3407 14.5772 12.7732 9.79121
threshold=15.62212580508117 -129.03787071479664 0.78464046755369821 1369.8470691670473 0.65833333333333344 1.0000000180025095e-35 361.20474523675222
decision_type=2 2 2 2 2 2 2
left_child=1 3 4 -1 -2 -3 -4
right_child=2 5 6 -5 -6 -7 -8
leaf_value=-0.06711571093564167 0.021999317252553524 -0.066072973399377136 0.049927698360961219 -0.032621881502031998 -0.060509895261078236 -0.0059821572820358158 0.086842656108116784
leaf_weight=189.6138406842947 351.05050484836102 20.277898848056793 233.32659508287907 183.87855963408947 12.009636357426642 376.79508496820927 47.397510930895805
leaf_count=762 1436 82 963 742 49 1526 199
internal_value=0.000305883 -0.0289805 0.0353637 -0.0501454 0.0192572 -0.00906302 0.0561796
internal_weight=1414.35 770.565 643.784 373.492 363.06 397.073 280.724
internal_count=5759 3112 2647 1504 1485 1608 1162
is_linear=0
shrinkage=0.073782


Tree=3
num_leaves=8
num_cat=0
split_feature=3 5 29 3 12 30 86
split_gain=232.305 74.6544 18.1013 17.2772 17.0038 9.91336 5.04777
threshold=66.213346305638893 0.39812560381587075 0.51984140870502449 295.32958967858173 0.58571428571428574 0.68819254140355068 2.2500000000000004
decision_type=2 2 2 2 2 2 2
left_child=1 4 -3 5 -1 -2 -5
right_child=3 2 -4 6 -6 -7 -8
leaf_value=-0.057327965524452143 0.035615885331244282 -0.016606276545212358 0.0099323948988481198 0.080737244102248626 -0.017847118396544442 -0.065050338585024403 0.044744102832224776
leaf_weight=270.51713597774506 390.1917617470026 326.84112437069416 244.45633551478386 65.567398607730865 76.418393433094025 5.3513683378696433 32.227337062358856
leaf_count=1085 1614 1323 994 277 308 22 136
internal_value=0.000290934 -0.0216463 -0.00524567 0.0411263 -0.0486421 0.0342417 0.0689231
internal_weight=1411.57 918.233 571.297 493.338 346.936 395.543 97.7947
internal_count=5759 3710 2317 2049 1393 1636 413
is_linear=0
shrinkage=0.073782


Tree=4
num_leaves=8
num_cat=0
split_feature=3 3 5 75 3 5 45
split_gain=201.208 42.1623 36.4258 21.0276 12.3189 12.2591 9.6752
threshold=-13.460421451531714 94.791360051603775 0.27659835213586553 0.23103087388801677 361.20474523675222 0.38660319384136588 1.9000000000000059
decision_type=2 2 2 2 2 2 2
left_child=2 5 6 -4 -3 -2 -1
right_child=1 4 3 -5 -6 -7 -8
leaf_value=-0.06376529662217055 -0.088536197015102416 0.037897101453681276 -0.026040764462177683 0.012184671571439458 0.078596919598500584 0.0086663320890438614 -0.00099695459947800693
leaf_weight=154.44729921221733 7.1972697526216498 376.75175794959068 412.55756413936615 96.572112679481506 45.547808334231377 300.35980394482613 14.734775468707083
leaf_count=618 29 1575 1661 391 199 1227 59
internal_value=0.000276734 0.0271651 -0.0286507 -0.0187844 0.0422991 0.00637357 -0.0583162
internal_weight=1408.17 729.857 678.312 509.13 422.3 307.557 169.182
internal_count=5759 3030 2729 2052 1774 1256 677
is_linear=0
shrinkage=0.073782


Tree=5
num_leaves=8
num_cat=0
split_feature=3 3 14 73 26 3 72
split_gain=187.381 45.245 32.9958 18.7684 17.8324 12.4159 11.3297
threshold=-48.44797339372996 94.791360051603775 0.65833333333333344 6.6342718196229322 694.50000000000011 369.35760682184804 100.36000000000001
decision_type=2 2 2 2 2 2 2
left_child=2 3 4 -2 -1 -3 -4
right_child=1 5 6 -5 -6 -7 -8
leaf_value=-0.04069832483248928 -0.0018743289506445494 0.03607958303136409 -0.0081125432825367924 0.038588581666217578 0.062844381973770957 0.080300159721648542 0.05169124675941475
leaf_weight=490.56959258019924 336.08603768050671 374.56211812794209 46.37473937869072 76.571586862206459 9.1764529943466169 38.216853022575378 27.359658747911453
leaf_count=1968 1369 1580 188 313 37 171 111
internal_value=0.000405248 0.0229148 -0.0319884 0.00562954 -0.0387876 0.0401864 0.0140532
internal_weight=1398.92 825.437 573.48 412.658 499.746 412.779 73.7344
internal_count=5737 3433 2304 1682 2005 1751 299
is_linear=0
shrinkage=0.073782


Tree=6
num_leaves=8
num_cat=0
split_feature=3 3 3 67 8 3 16
split_gain=161.511 34.7947 25.6546 18.0735 14.2029 11.3482 8.32108
threshold=-31.695260799350191 94.791360051603775 -241.66105877403001 0.65833333333333344 0.70789298030926695 369.35760682184804 119.65000000000002
decision_type=2 2 2 2 2 2 2
left_child=2 4 6 -4 -2 -3 -1
right_child=1 5 3 -5 -6 -7 -8
leaf_value=-0.055486500645540907 -0.0013435364949724172 0.033712979500412479 -0.025494089181283708 0.013388487565311498 0.03377015481751134 0.076539227661940754 0.067739536906817277
leaf_weight=157.24082425236702 287.04786749184132 371.40548202395439 380.02937506139278 78.401109769940376 80.157023787498474 37.177751660346985 2.9945815652608863
leaf_count=631 1171 1580 1524 319 329 171 12
internal_value=0.000383412 0.0228086 -0.0277323 -0.0188378 0.00631613 0.0376224 -0.053153
internal_weight=1394.45 775.788 618.666 458.43 367.205 408.583 160.235
internal_count=5737 3251 2486 1843 1500 1751 643
is_linear=0
shrinkage=0.073782


Tree=7
num_leaves=8
num_cat=0
split_feature=4 4 67 73 26 4 4
split_gain=139.436 34.3601 24.7619 15.5997 15.1142 10.3983 9.8684
threshold=0.51661857711900572 0.70910693846987727 0.65833333333333344 6.6342718196229322 694.50000000000011 0.9221253646595905 0.27866400207903497
decision_type=2 2 2 2 2 2 2
left_child=2 3 4 -2 -1 -3 -4
right_child=1 5 6 -5 -6 -7 -8
leaf_value=-0.035169433646819938 -0.0018782799723956075 0.031501545948614734 -0.067581233139822214 0.035135564263129859 0.060319747123215216 0.073054676478638614 0.021577707951465491
leaf_weight=490.50599147379398 335.99471011757851 368.27636705338955 7.486351564526557 75.944123178720474 9.1433705240488035 36.119217664003372 65.98974546790123
leaf_count=1968 1369 1580 30 313 37 171 269
internal_value=0.000361594 0.0199474 -0.0275303 0.00494097 -0.0334127 0.0352253 0.0124299
internal_weight=1389.46 816.334 573.125 411.939 499.649 404.396 73.4761
internal_count=5737 3433 2304 1682 2005 1751 299
is_linear=0
shrinkage=0.073782


Tree=8
num_leaves=8
num_cat=0
split_feature=5 5 12 33 12 16 44
split_gain=115.615 27.381 19.5152 16.6234 13.0803 12.7222 7.32945
threshold=0.61297328743481549 0.40148932149637134 0.31666666666666671 27.500000000000004 0.58571428571428574 116.45000000000002 121.50000000000001
decision_type=2 2 2 2 2 2 2
left_child=1 4 6 -4 -1 -3 -2
right_child=2 5 3 -5 -6 -7 -8
leaf_value=-0.041521353606255779 -0.03818097236660746 -0.012699553845216481 0.028641702943622994 -0.13547913546172718 -0.0076693792119216422 0.018717866997131037 0.040430485683083793
leaf_weight=273.99846892058849 35.215559363365173 321.97400955855846 571.63763880729675 3.3424014300107947 80.655016958713531 89.629279911518097 7.8445425033569327
leaf_count=1103 146 1300 2452 14 325 364 33
internal_value=0.000341475 -0.018806 0.024085 0.0276753 -0.033832 -0.00585052 -0.0237757
internal_weight=1384.3 766.257 618.04 574.98 354.653 411.603 43.0601
internal_count=5737 3092 2645 2466 1428 1664 179
is_linear=0
shrinkage=0.073782


Tree=9
num_leaves=8
num_cat=0
split_feature=3 5 77 5 10 29 26
split_gain=105.663 32.5 14.4534 11.8129 10.9988 7.54341 6.8381
threshold=66.213346305638893 0.40148932149637134 118.90000000000002 0.88292239560168195 0.55000000000000016 0.54778212654924996 628.50000000000011
decision_type=2 2 2 2 2 2 2
left_child=1 4 -3 5 -1 -2 -5
right_child=3 2 -4 6 -6 -7 -8
leaf_value=-0.040785273917616792 0.011598977773130823 -0.006401062970101022 0.042135991227912797 0.058277768441700691 -0.012499180367078967 0.032595034977035343 -0.017418200180613543
leaf_weight=240.6847813129425 172.45632170140743 525.79260614514351 35.622424602508545 85.0447648614645 109.1169830262661 204.05454823374748 6.9599592089653006
leaf_count=972 740 2133 146 394 439 881 32
internal_value=0.000319585 -0.0143191 -0.00331413 0.0287953 -0.0319716 0.0229872 0.0525172
internal_weight=1379.73 911.217 561.415 468.516 349.802 376.511 92.0047
internal_count=5737 3690 2279 2047 1411 1621 426
is_linear=0
shrinkage=0.073782


Tree=10
num_leaves=8
num_cat=0
split_feature=5 14 68 18 16 40 27
split_gain=79.7076 22.7981 18.7564 22.2312 14.073 11.9193 8.87304
threshold=0.62711595647360807 0.46862745098039221 0.54772727272727284 121.05000000000001 117.25000000000001 0.36666666666666675 73.500000000000014
decision_type=2 2 2 2 2 2 2
left_child=1 6 3 -2 -3 -4 -1
right_child=2 4 5 -5 -6 -7 -8
leaf_value=0.0038315614107140529 0.027860208096983814 -0.0099607534713223589 0.0079965361984055041 -0.11486259340460186 0.023819527378675751 -0.053060830273889394 -0.032805943138766488
leaf_weight=40.426406055688858 502.52411316335201 351.27736283838749 50.89252108335495 5.9738574624061576 82.940528601408005 26.36930425465107 317.47918207943439
leaf_count=163 2196 1421 212 25 338 114 1283
internal_value=0.000385235 -0.0148726 0.0210228 0.0261708 -0.00350064 -0.0128197 -0.0286599
internal_weight=1377.88 792.123 585.76 508.498 434.218 77.2618 357.906
internal_count=5752 3205 2547 2221 1759 326 1446
is_linear=0
shrinkage=0.073782


Tree=11
num_leaves=8
num_cat=0
split_feature=1 3 43 32 15 81 17
split_gain=75.5125 34.709 12.5587 10.1726 9.81653 11.3272 8.67942
threshold=1421.6686645100115 124.11912483126777 101.45000000000002 1.5000000000000002 0.67948717948717963 1.2000000000000004 118.35000000000001
decision_type=2 2 2 2 2 2 2
left_child=4 2 -2 -3 5 -1 -6
right_child=1 3 -4 -5 6 -7 -8
leaf_value=-0.0097089269257758636 0.029778821105904841 0.058073569259276786 -0.0021689284015945021 0.024644364595140217 -0.081012023192537003 -0.036078759209496554 0.029448321254265084
leaf_weight=168.94703663885593 75.629314810037613 61.225584998726845 583.33420445024967 264.4019453972578 28.206133887171745 187.52128733694553 4.4306255877017966
leaf_count=686 311 276 2390 1193 115 763 18
internal_value=0.00036091 0.0112377 0.00149477 0.0309435 -0.0271532 -0.0235907 -0.065917
internal_weight=1373.7 984.591 658.964 325.628 389.105 356.468 32.6368
internal_count=5752 4170 2701 1469 1582 1449 133
is_linear=0
shrinkage=0.073782


Tree=12
num_leaves=8
num_cat=0
split_feature=4 26 5 29 4 15 29
split_gain=66.9349 19.6257 18.0681 10.4597 10.3988 8.32296 6.66336
threshold=0.54064391498069109 690.50000000000011 0.74268145715619871 0.32809412055335974 0.27866400207903497 0.54772727272727284 0.61071263896716033
decision_type=2 2 2 2 2 2 2
left_child=1 4 3 -2 -1 -4 -3
right_child=2 6 5 -5 -6 -7 -8
leaf_value=-0.034823219641165602 -0.041971709695773338 0.12993577056133629 0.031353162838203712 0.0078828482699113724 -0.01348857766864465 -0.013997791528102642 0.026216295629402624
leaf_weight=176.4578048735857 24.248669922351837 5.6473743021488181 304.59538032114506 402.05580930411816 424.20867593586445 23.640696197748184 8.5678382962942106
leaf_count=724 99 23 1391 1669 1707 104 35
internal_value=0.0003377 -0.0177295 0.0150647 0.00503758 -0.0197622 0.0280773 0.0678177
internal_weight=1369.42 614.882 754.541 426.304 600.666 328.236 14.2152
internal_count=5752 2489 3263 1768 2431 1495 58
is_linear=0
shrinkage=0.073782


Tree=13
num_leaves=7
num_cat=0
split_feature=1 3 75 43 2 15
split_gain=58.3396 25.9806 12.3119 8.9679 9.00955 7.61638
threshold=1421.6686645100115 124.11912483126777 0.23103087388801677 99.100000000000009 1466.1069336973007 0.54772727272727284
decision_type=2 2 2 2 2 2
left_child=3 2 -2 -1 -5 -3
right_child=1 5 -4 4 -6 -7
leaf_value=0.086132540833851357 -0.00497045796772918 0.030434481515242591 0.017166883691854297 -0.011031515813688343 -0.034205501079066322 -0.01291105207109886
leaf_weight=3.9478303492069236 464.51422417163849 295.33220158517361 193.76230636239052 151.40777142345905 231.94485537707806 23.738290548324585
leaf_count=16 1896 1365 805 616 950 104
internal_value=0.000316516 0.00992186 0.00154192 -0.023914 -0.0250617 0.0271999
internal_weight=1364.65 977.347 658.277 387.3 383.353 319.07
internal_count=5752 4170 2701 1582 1566 1469
is_linear=0
shrinkage=0.073782


Tree=14
num_leaves=8
num_cat=0
split_feature=3 1 68 26 64 21 70
split_gain=50.934 13.5754 14.0213 12.9492 10.5822 10.3697 4.95368
threshold=-12.08117044226003 1464.6140303871946 0.45227272727272733 690.50000000000011 79.839198610598388 4.5000000000000009 220.95842961890222
decision_type=2 2 2 2 2 2 2
left_child=3 4 -3 5 -2 -1 -5
right_child=1 2 -4 6 -6 -7 -8
leaf_value=-0.013400594814114073 -0.015769446256406503 0.025973162356194561 0.00053235928521430653 0.0010251327119057548 0.093675601437193529 -0.053387849802212346 0.085738755027514435
leaf_weight=621.30290752649307 97.118382439017296 418.93803039193153 164.44537621736526 6.3505572676658621 5.0225538164377204 37.465572491288185 9.4189431071281415
leaf_count=2522 406 1888 697 26 21 153 39
internal_value=0.000295946 0.014461 0.018807 -0.0140957 -0.0103326 -0.0156815 0.0518714
internal_weight=1360.06 685.524 583.383 674.538 102.141 658.768 15.7695
internal_count=5752 3012 2585 2740 427 2675 65
is_linear=0
shrinkage=0.073782


Tree=15
num_leaves=8
num_cat=0
split_feature=1 15 17 73 45 79 30
split_gain=44.084 22.0941 14.1811 10.3265 8.81908 9.31946 8.12801
threshold=1421.6686645100115 0.324561403508772 111.45000000000002 6.1702831984280033 -15.899999999999997 117.85000000000001 0.57677764717544944
decision_type=2 2 2 2 2 2 2
left_child=4 2 -2 -3 5 -1 -6
right_child=1 3 -4 -5 6 -7 -8
leaf_value=-0.071775869793294936 0.034546872673903752 -0.0034816762540293361 -0.01260985164350242 0.0188389401921427 -0.010972449299588984 0.064819717075460984 -0.034767025518372692
leaf_weight=29.070333674550056 204.0127886980772 575.99378940463066 41.718861669301987 140.27386717498302 244.7952356338501 2.9529466331005088 115.19730854034424
leaf_count=120 938 2404 189 602 1000 12 476
internal_value=-0.00105636 0.00744003 0.026529 0.00088636 -0.0219123 -0.0590407 -0.0185969
internal_weight=1354.02 961.999 245.732 716.268 392.016 32.0233 359.993
internal_count=5741 4133 1127 3006 1608 132 1476
is_linear=0
shrinkage=0.073782


Tree=16
num_leaves=8
num_cat=0
split_feature=1 15 75 83 81 63 45
split_gain=37.9447 20.5596 11.5747 10.3316 8.3321 9.08593 6.30759
threshold=1421.6686645100115 0.54772727272727284 0.08493649031939822 1.2500000000000002 2.4000000000000008 114.61000950254846 -14.499999999999998
decision_type=2 2 2 2 2 2 2
left_child=4 2 -2 -3 5 -1 -6
right_child=1 3 -4 -5 6 -7 -8
leaf_value=-0.010062881990550328 -0.013457601224810796 -0.019700177012923089 0.017686820151657196 0.0084292407735135459 -0.072140297012862273 -0.119481042389236 -0.028012459174414698
leaf_weight=239.58184112608433 72.949796333909035 187.33165267109871 584.8563566505909 114.34045864641666 20.61249865591526 4.1777413338422766 126.59135323762894
leaf_count=984 308 766 2590 469 86 17 521
internal_value=-0.000979875 0.00691274 0.0142282 -0.00902952 -0.0203555 -0.0119651 -0.0342249
internal_weight=1350.44 959.478 657.806 301.672 390.963 243.76 147.204
internal_count=5741 4133 2898 1235 1608 1001 607
is_linear=0
shrinkage=0.073782


Tree=17
num_leaves=8
num_cat=0
split_feature=5 1 72 2 73 8 21
split_gain=34.0907 20.5828 14.513 11.3974 8.82622 8.74809 4.95218
threshold=0.78464046755369821 1365.369075472626 99.700000000000003 1450.1031001673775 5.7837381916329287 0.75549516908212577 -8.4999999999999982
decision_type=2 2 2 2 2 2 2
left_child=1 3 -3 -1 5 -2 -6
right_child=4 2 -4 -5 6 -7 -8
leaf_value=-0.0039852659972953539 0.018815417022795614 -0.012999997980073738 0.006632350968917353 -0.037307411783562699 -0.034367080564888811 -0.042540905723770582 0.046245103341087869
leaf_weight=87.332040667533875 139.810462012887 337.20447643101215 522.54513289034367 156.13760145008564 4.2963213473558417 13.85416668653488 85.978850200772285
leaf_count=354 662 1391 2173 655 22 66 418
internal_value=-0.000910127 -0.00643136 -0.00106466 -0.0253684 0.0240458 0.0132578 0.0423669
internal_weight=1347.16 1103.22 859.75 243.47 243.94 153.665 90.2752
internal_count=5741 4573 3564 1009 1168 728 440
is_linear=0
shrinkage=0.073782


Tree=18
num_leaves=8
num_cat=0
split_feature=14 15 79 82 46 32 44
split_gain=30.2465 18.3008 12.0749 12.1126 10.7406 10.4309 6.95238
threshold=0.46862745098039221 0.30384615384615393 113.10000000000001 -10.399999999999999 14.700000000000005 1.5000000000000002 98.90000000000002
decision_type=2 2 2 2 2 2 2
left_child=2 5 6 -4 -3 -2 -1
right_child=1 4 3 -5 -6 -7 -8
leaf_value=0.03774147380129849 0.058506556516613011 0.002749601381548953 0.067904708081836837 -0.0097337960639338628 -0.045992343395753019 0.017587334807124991 -0.033972875830971139
leaf_weight=7.6161230951547614 41.827560156583786 648.33656369149685 11.400223299860953 250.50655224919319 25.547201842069626 181.3107482790947 176.95595943927765
leaf_count=32 196 2740 47 1037 105 848 736
internal_value=-0.000843637 0.00696445 -0.0165365 -0.0063358 0.000895534 0.0252775 -0.0309925
internal_weight=1343.5 897.022 446.479 261.907 673.884 223.138 184.572
internal_count=5741 3889 1852 1084 2845 1044 768
is_linear=0
shrinkage=0.073782


Tree=19
num_leaves=8
num_cat=0
split_feature=4 1 47 2 30 42 2
split_gain=27.5927 14.4442 13.6217 8.18077 7.07586 7.80333 7.29733
threshold=0.74026777927289378 1365.369075472626 0.90000000000000013 1450.1031001673775 0.49131428078796507 109.10000000000001 1292.53446735375
decision_type=2 2 2 2 2 2 2
left_child=1 3 -3 -1 5 -2 -6
right_child=4 2 -4 -5 6 -7 -8
leaf_value=-0.0037448517924625396 0.037517386512479073 -0.00072078437537743273 -0.094045890873997215 -0.032163895037190179 0.051380317666995745 0.0086815633263628914 -0.0056528055409940901
leaf_weight=84.672509223222733 127.63019354641438 773.04641012847424 8.57775169610977 159.39051543176174 14.153771340847014 85.69574248790741 87.563278958201408
leaf_count=343 624 3179 35 676 71 409 404
internal_value=-0.00078095 -0.00664916 -0.00175236 -0.0223177 0.0183141 0.0259498 0.00226968
internal_weight=1340.73 1025.69 781.624 244.063 315.043 213.326 101.717
internal_count=5741 4233 3214 1019 1508 1033 475
is_linear=0
shrinkage=0.073782


Tree=20
num_leaves=8
num_cat=0
split_feature=3 20 75 16 5 72 24
split_gain=28.037 11.9559 10.7293 9.47835 8.17379 8.3866 6.24803
threshold=15.62212580508117 1.5000000000000002 0.19946236559139788 119.25000000000001 0.88292239560168195 99.300000000000011 4.6076923076923082
decision_type=2 2 2 2 2 2 2
left_child=1 3 -3 -1 5 -2 -6
right_child=4 2 -4 -5 6 -7 -8
leaf_value=-0.016773958409762604 -0.006504079137854878 -0.0074280489247580701 0.029347391346122763 0.027167856673394108 0.022651472771044238 0.014700663235535497 0.07122969326646951
leaf_weight=542.44167283177376 141.92482480406761 108.46122518181801 71.636585339903831 28.032229825854301 63.978998050093651 355.30883181095123 18.727925956249237
leaf_count=2230 621 439 293 114 336 1581 100
internal_value=3.7486e-05 -0.00937485 0.00718712 -0.0146084 0.0122238 0.00864259 0.0337085
internal_weight=1330.51 750.572 180.098 570.474 579.941 497.234 82.7069
internal_count=5714 3076 732 2344 2638 2202 436
is_linear=0
shrinkage=0.073782


Tree=21
num_leaves=8
num_cat=0
split_feature=29 15 43 86 64 70 74
split_gain=24.3176 20.0432 11.9063 12.6613 11.389 10.2504 7.7941
threshold=0.54778212654924996 0.67948717948717963 108.63333333333334 11.250000000000009 67.022279579194006 221.4370381859076 0.26478537360890309
decision_type=2 2 2 2 2 2 2
left_child=1 4 3 -2 -1 -4 -3
right_child=2 6 5 -5 -6 -7 -8
leaf_value=-0.0078197585172118545 0.0264955579940939 -0.012987763663966756 -0.00066989016476894667 -0.1261092798609702 0.018118003605780093 0.091588592748511596 -0.063227521120338318
leaf_weight=649.51158276200294 240.19032242894173 26.829966768622398 247.54540900886059 2.9591766595840445 107.31469804048538 6.7006912231445304 45.786605253815651
leaf_count=2748 1088 112 1083 13 451 30 189
internal_value=3.75254e-05 -0.00769527 0.0129378 0.0246104 -0.0041376 0.00176196 -0.0447175
internal_weight=1326.84 829.443 497.396 243.149 756.826 254.246 72.6166
internal_count=5714 3500 2214 1101 3199 1113 301
is_linear=0
shrinkage=0.073782


Tree=22
num_leaves=8
num_cat=0
split_feature=4 32 16 22 78 25 29
split_gain=22.6144 10.4402 10.3702 10.2824 8.39398 8.54398 7.63183
threshold=0.60714234815640267 1.5000000000000002 115.45000000000002 0.21825396825396828 119.95 7.5000000000000009 0.54778212654924996
decision_type=2 2 2 2 2 2 2
left_child=1 3 -3 -1 6 -6 -2
right_child=4 2 -4 -5 5 -7 -8
leaf_value=-0.025711155402929307 0.0032667267361847028 -0.017672424453571436 0.0059025756426927221 0.020602741214722178 0.00067853325289471194 -0.12280790240320959 0.020483198266804465
leaf_weight=34.249806940555573 265.79958383738995 476.86074848473072 128.84290055930614 108.84652587771416 7.5980785638093931 5.0139784067869186 297.5867430716753
leaf_count=142 1184 1961 526 447 33 21 1400
internal_value=3.58108e-05 -0.00841658 -0.012653 0.00949487 0.0110286 -0.0483819 0.0123662
internal_weight=1324.8 748.8 605.704 143.096 575.998 12.6121 563.386
internal_count=5714 3076 2487 589 2638 54 2584
is_linear=0
shrinkage=0.073782


Tree=23
num_leaves=8
num_cat=0
split_feature=3 8 15 25 2 28 63
split_gain=19.8044 11.8827 12.1456 10.8006 9.20389 8.68295 8.6691
threshold=79.457944938184724 0.70404081632653071 0.67948717948717963 6.5000000000000009 1292.53446735375 94.500000000000014 40.942944994292255
decision_type=2 2 2 2 2 2 2
left_child=1 2 -1 5 -5 -2 -3
right_child=3 6 -4 4 -6 -7 -8
leaf_value=-0.0061937436746418188 0.019560040662038747 0.024375648460814765 -0.035543396039069752 0.033248135324113186 -0.0049750225592441405 0.062169025120298586 -0.019170322948501944
leaf_weight=697.45424151420593 152.39489340782166 105.11980114877224 86.296426624059677 42.676258146762848 173.78532089293003 31.504904359579086 32.506772428750992
leaf_count=2869 726 438 359 216 810 161 135
internal_value=3.43953e-05 -0.0059169 -0.00943023 0.0137368 0.0025518 0.0268844 0.014068
internal_weight=1321.74 921.377 783.751 400.361 216.462 183.9 137.627
internal_count=5714 3801 3228 1913 1026 887 573
is_linear=0
shrinkage=0.073782


Tree=24
num_leaves=8
num_cat=0
split_feature=29 15 43 8 64 2 32
split_gain=16.8672 15.2071 10.2156 12.4338 9.83051 9.41258 6.4201
threshold=0.54778212654924996 0.67948717948717963 108.63333333333334 0.96666666666666679 67.022279579194006 1311.9448062262438 1.5000000000000002
decision_type=2 2 2 2 2 2 2
left_child=1 4 3 -2 -1 -4 -3
right_child=2 6 5 -5 -6 -7 -8
leaf_value=-0.006730865304491949 0.024087141047734708 0.0034433070554546804 0.046383923627893217 -0.10135249611980146 0.017393416619657844 -0.0039243404249822483 -0.050317777429496127
leaf_weight=648.35654354095459 234.87120899558067 15.256956502795218 22.165347397327423 4.3426513373851767 107.074781909585 230.05633759498596 56.495423778891563
leaf_count=2748 1082 64 115 19 451 998 237
internal_value=3.46319e-05 -0.00639516 0.0108626 0.0217849 -0.00330721 0.000491102 -0.0388512
internal_weight=1318.62 827.184 491.436 239.214 755.431 252.222 71.7524
internal_count=5714 3500 2214 1101 3199 1113 301
is_linear=0
shrinkage=0.073782


Tree=25
num_leaves=8
num_cat=0
split_feature=75 46 14 15 75 72 72
split_gain=23.8071 11.6831 12.0079 10.9043 9.49935 8.89664 8.05442
threshold=0.19519411170443068 12.099999999999996 0.35504201680672276 0.55277777777777792 0.16421515610354029 101.06000000000002 100.60000000000001
decision_type=2 2 2 2 2 2 2
left_child=3 2 -2 4 -1 -5 -3
right_child=1 6 -4 5 -6 -7 -8
leaf_value=0.001472396847307635 -0.0279116357169432 -0.057541264199135363 0.018027424454095504 -0.034668285056802133 -0.019697476859740187 0.0023188974172228642 0.019657270126352853
leaf_weight=474.79283894598484 33.168849736452103 21.209641352295876 453.94956225156784 127.72572793066502 152.31925348937511 48.776395007967949 11.168250679969786
leaf_count=2023 140 88 2051 534 660 202 47
internal_value=-0.000271839 0.012035 0.014892 -0.00823122 -0.00366586 -0.0244326 -0.0308339
internal_weight=1323.11 519.496 487.118 803.614 627.112 176.502 32.3779
internal_count=5745 2326 2191 3419 2683 736 135
is_linear=0
shrinkage=0.073782


Tree=26
num_leaves=8
num_cat=0
split_feature=75 2 20 21 68 0 72
split_gain=20.4839 11.6978 14.091 12.5112 9.63997 11.3611 8.06768
threshold=0.19519411170443068 1357.7004435487388 1.0000000180025095e-35 -7.4999999999999991 0.51315789473684215 1.0000000180025095e-35 101.06000000000002
decision_type=2 2 2 2 2 2 2
left_child=4 3 -3 -2 5 -1 -6
right_child=1 2 -4 -5 6 -7 -8
leaf_value=-0.049485482612937844 -0.04639006510820172 -0.011921389438859748 0.01598087381286847 0.048187843361566701 -0.029022535664067494 1.0823760110794635e-06 9.7882577401656919e-05
leaf_weight=26.466316893696785 8.5084338784217817 148.73480743169785 291.33804352581501 68.624903813004494 166.27489683032036 535.71983781456947 74.937582969665527
leaf_count=108 46 636 1288 356 696 2304 311
internal_value=-0.000251522 0.0111985 0.00654403 0.037704 -0.00762635 -0.00232638 -0.0199653
internal_weight=1320.6 517.206 440.073 77.1333 803.399 562.186 241.212
internal_count=5745 2326 1924 402 3419 2412 1007
is_linear=0
shrinkage=0.073782


Tree=27
num_leaves=8
num_cat=0
split_feature=43 3 86 70 74 45 80
split_gain=19.3109 14.7037 13.4108 11.1189 9.14289 12.2859 8.29498
threshold=101.7 -81.341540598967512 6.8500000000000023 210.259422045972 0.30163163962046652 -2.3249999999999953 111.75000000000001
decision_type=2 2 2 2 2 2 2
left_child=4 3 -3 -2 5 -1 -6
right_child=1 2 -4 -5 6 -7 -8
leaf_value=-0.079910257501529053 0.099160954202428792 0.0052380259653978271 -0.040499439056659758 -0.015313081584641395 -0.08920661685982495 0.045523503580359087 0.010169208036194291
leaf_weight=4.4244766533374777 4.6315027922391883 713.8333714902401 36.651751711964607 428.20594924688339 5.1708183437585822 87.206343173980713 37.62776543200016
leaf_count=19 19 3172 158 1790 23 396 168
internal_value=-0.000231254 -0.00324403 0.00299897 -0.0140744 0.0262626 0.0394105 -0.00183027
internal_weight=1317.75 1183.32 750.485 432.837 134.429 91.6308 42.7986
internal_count=5745 5139 3330 1809 606 415 191
is_linear=0
shrinkage=0.073782


Tree=28
num_leaves=8
num_cat=0
split_feature=1 42 32 73 19 82 30
split_gain=17.1567 15.5946 9.8257 9.52822 6.89518 7.05312 3.67278
threshold=1421.6686645100115 113.26666666666668 1.5000000000000002 6.049974653763976 124.15000000000002 -10.399999999999999 0.45116838018985234
decision_type=2 2 2 2 2 2 2
left_child=4 3 -3 -2 5 -1 -6
right_child=1 2 -4 -5 6 -7 -8
leaf_value=0.038010905168232641 0.0065510663965112643 0.019197230098764728 -0.012491221234199851 0.027428780519954777 0.011901396244747479 -0.016954060136870189 0.12194776197124219
leaf_weight=13.123639091849325 409.3591039031744 64.695261731743813 299.66893243789673 168.07716844975948 3.9183308929204932 353.41427683830261 2.9137777239084244
leaf_count=54 1812 276 1280 803 16 1492 12
internal_value=-0.000213012 0.00509084 -0.00685589 0.0126341 -0.0135984 -0.0149753 0.059592
internal_weight=1315.17 941.8 364.364 577.436 373.37 366.538 6.83211
internal_count=5745 4171 1556 2615 1574 1546 28
is_linear=0
shrinkage=0.073782


Tree=29
num_leaves=8
num_cat=0
split_feature=43 75 41 17 73 43 63
split_gain=16.3008 12.6487 11.035 10.8269 10.6872 7.21166 7.05758
threshold=101.45000000000002 0.23103087388801677 101.10000000000001 111.45000000000002 -7.0645468998410186 99.100000000000009 96.85538077513128
decision_type=2 2 2 2 2 2 2
left_child=2 4 5 -3 -2 -1 -4
right_child=1 3 6 -5 -6 -7 -8
leaf_value=0.013297372678436446 -0.048961770084557009 0.022065324441685727 0.048206192279013182 -0.0062875472830145711 -0.005738865906178549 -0.057477207013839293 -0.0057530498790469807
leaf_weight=23.914660379290581 32.313247710466385 174.92192076146603 74.643604084849358 125.97839403152466 853.14367909729481 11.595817819237707 15.910763368010519
leaf_count=103 137 822 350 554 3658 50 71
internal_value=-0.000195371 -0.00287816 0.0250237 0.0101861 -0.00732108 -0.00976669 0.0386959
internal_weight=1312.42 1186.36 126.065 300.9 885.457 35.5105 90.5544
internal_count=5745 5171 574 1376 3795 153 421
is_linear=0
shrinkage=0.073782


Tree=30
num_leaves=8
num_cat=0
split_feature=32 14 15 43 5 43 63
split_gain=17.7808 17.0324 12.4128 10.0823 9.64803 9.15655 6.99951
threshold=1.5000000000000002 0.6858552631578948 0.67948717948717963 102.10000000000001 0.79671659089974611 101.7 22.281113660398891
decision_type=2 2 2 2 2 2 2
left_child=1 3 5 -1 -4 -2 -3
right_child=2 6 4 -5 -6 -7 -8
leaf_value=0.062102936918719424 0.019580986496662321 0.064357593041455649 -0.034287507181938764 -0.00010741134475588724 0.10547580026600141 -0.0040583217701636925 0.015614338345352514
leaf_weight=15.522731423377989 99.251307100057602 47.937081143260002 88.898159742355347 159.67750480771065 2.7328348308801642 876.62543429434299 24.385489076375961
leaf_count=70 459 223 377 685 12 3827 115
internal_value=3.7148e-05 0.017855 -0.00409208 0.00539895 -0.0300532 -0.00165067 0.0479752
internal_weight=1315.03 247.523 1067.51 175.2 91.631 975.877 72.3226
internal_count=5768 1093 4675 755 389 4286 338
is_linear=0
shrinkage=0.073782


Tree=31
num_leaves=8
num_cat=0
split_feature=32 20 15 84 46 27 13
split_gain=15.3403 13.8142 10.6968 10.0374 9.32766 8.91098 7.81012
threshold=1.5000000000000002 1.5000000000000002 0.67948717948717963 -9.0500000000000025 15.099999999999996 397.50000000000006 0.88194444444444453
decision_type=2 2 2 2 2 2 2
left_child=1 3 6 -1 -4 -3 -2
right_child=2 5 4 -5 -6 -7 -8
leaf_value=-0.10785480944930725 -0.0011488353511546563 0.056919774746662363 -0.020497329894936956 0.0073733593045949156 -0.10325444700192238 0.0020875376591586274 -0.11722415098936192
leaf_weight=4.1888252645730963 972.60148878395557 58.163999229669571 83.150946214795113 161.39936502277851 8.139207571744917 22.474867358803749 3.1342505365610114
leaf_count=18 4273 272 354 701 35 102 13
internal_value=3.71795e-05 0.0166382 -0.00379146 0.00442124 -0.0279401 0.0416789 -0.0015284
internal_weight=1313.25 246.227 1067.03 165.588 91.2902 80.6389 975.736
internal_count=5768 1093 4675 719 389 374 4286
is_linear=0
shrinkage=0.073782


Tree=32
num_leaves=8
num_cat=0
split_feature=43 19 32 67 18 17 26
split_gain=13.4509 11.5038 9.31765 14.7752 8.52781 8.47396 5.24502
threshold=101.7 111.15000000000002 1.5000000000000002 0.71008403361344552 97.15000000000002 111.05000000000001 73.500000000000014
decision_type=2 2 2 2 2 2 2
left_child=1 4 3 -2 -1 -4 -3
right_child=2 6 5 -5 -6 -7 -8
leaf_value=-0.060466381611566519 0.0019883949086095341 0.0012910633070458194 0.00061970921229679546 0.050678216824129318 0.012954371143476267 -0.013325075272212121 0.057614121395888021
leaf_weight=9.9646158218383771 180.51591868698597 11.247139096260069 531.12563067674637 41.7887824177742 61.986958712339401 428.14968718588352 47.200038313865662
leaf_count=46 780 48 2349 205 282 1831 227
internal_value=3.43944e-05 0.0225218 -0.0024455 0.0111596 0.0027251 -0.00560155 0.04683
internal_weight=1311.98 130.399 1181.58 222.305 71.9516 959.275 58.4472
internal_count=5768 603 5165 985 328 4180 275
is_linear=0
shrinkage=0.073782


Tree=33
num_leaves=8
num_cat=0
split_feature=32 14 82 23 42 70 45
split_gain=11.8041 13.2651 9.36921 9.22676 9.0261 7.83512 5.06409
threshold=1.5000000000000002 0.71008403361344552 -10.399999999999999 0.81534090909090928 113.90000000000002 212.58393623216048 12.299999999999999
decision_type=2 2 2 2 2 2 2
left_child=1 3 5 -1 -4 -2 -3
right_child=2 6 4 -5 -6 -7 -8
leaf_value=0.01343210034698606 -0.039421550542546105 0.05819179442576887 0.00044080445143631025 -0.028734615108534093 -0.014048282043007104 0.050095257419262892 -0.011432538464727761
leaf_weight=160.9496888667345 6.4453572928905478 42.609079785645008 671.49710426479578 34.202778875827789 358.96701973676682 29.238782271742821 6.4763388186693183
leaf_count=702 27 210 2980 146 1537 131 35
internal_value=3.54472e-05 0.0146673 -0.00331421 0.0060241 -0.00460412 0.0338276 0.0489474
internal_weight=1310.39 244.238 1066.15 195.152 1030.46 35.6841 49.0854
internal_count=5768 1093 4675 848 4517 158 245
is_linear=0
shrinkage=0.073782


Tree=34
num_leaves=8
num_cat=0
split_feature=72 29 2 45 45 43 78
split_gain=13.0551 12.4228 10.5614 7.94749 8.33261 6.69985 5.83485
threshold=100.05500000000002 0.4241834689305507 1249.3511362677143 -16.699999999999999 -16.199999999999992 101.7 114.63703315666216
decision_type=2 2 2 2 2 2 2
left_child=1 5 -3 6 -5 -1 -2
right_child=3 2 -4 4 -6 -7 -8
leaf_value=0.020899735962047361 -0.012009493777174269 0.070339929755864533 -0.003334935145815177 0.15219948493236207 0.006761658383893975 -0.029867192554245879 -0.11075411628442068
leaf_weight=15.481271743774412 8.9170079082250577 10.886728279292582 352.58262106776237 2.1203241050243369 758.50442443788052 155.32181145250797 5.1781615912914267
leaf_count=65 39 64 1534 9 3373 662 22
internal_value=3.48225e-05 -0.00883557 -0.00111451 0.00615584 0.00717717 -0.0252464 -0.0486524
internal_weight=1308.99 534.272 363.469 774.72 760.625 170.803 14.0952
internal_count=5768 2325 1598 3443 3382 727 61
is_linear=0
shrinkage=0.073782


Tree=35
num_leaves=8
num_cat=0
split_feature=20 64 13 26 80 26 20
split_gain=12.188 9.12304 8.84679 7.13367 6.69134 6.51039 3.94974
threshold=1.5000000000000002 121.5559081603965 0.76388888888888895 775.50000000000011 117.30000000000001 430.50000000000006 5.5000000000000009
decision_type=2 2 2 2 2 2 2
left_child=1 2 -1 5 -3 -2 -5
right_child=3 4 -4 6 -6 -7 -8
leaf_value=-0.0040077902831159775 0.015268031185571599 0.058778347718711876 -0.035510308050651362 0.11071892062181454 -0.063308167688788872 -0.0041718947845063616 0.0047661153996627079
leaf_weight=802.73289356380701 290.56984613090754 18.635601803660396 51.657395482063293 5.8821345120668393 2.7638491094112387 138.16159565001726 2.9202105700969696
leaf_count=3474 1327 81 225 27 12 632 14
internal_value=0.000299945 -0.00472169 -0.00591699 0.0103575 0.0428089 0.00899705 0.0760293
internal_weight=1313.32 875.79 854.39 437.534 21.3995 428.731 8.80235
internal_count=5792 3792 3699 2000 93 1959 41
is_linear=0
shrinkage=0.073782


Tree=36
num_leaves=8
num_cat=0
split_feature=5 0 19 2 6 45 28
split_gain=9.85069 10.8575 8.87751 10.0998 7.3763 7.2846 6.67775
threshold=0.22510676340879782 1.0000000180025095e-35 115.95000000000002 1656.7348224323212 0.94325426726569828 3.1999999999999962 -133.49999999999997
decision_type=2 2 2 2 2 2 2
left_child=2 6 5 -4 -3 -1 -2
right_child=1 4 3 -5 -6 -7 -8
leaf_value=-0.033009376053201672 0.0033235932275414975 0.0024741739974005069 -0.017160558721868249 0.1310568755520487 0.032462485814851928 0.052705732889528435 -0.051027289130810248
leaf_weight=91.807841643691063 19.547516390681267 1105.4145611971617 5.9848880320787412 4.2284501492977142 46.523995533585548 5.6822274029254904 32.751429975032806
leaf_count=418 81 4878 27 19 210 24 135
internal_value=0.00027907 0.00219336 -0.0210931 0.044151 0.00368862 -0.0279691 -0.0306701
internal_weight=1311.94 1204.24 107.703 10.2133 1151.94 97.4901 52.2989
internal_count=5792 5304 488 46 5088 442 216
is_linear=0
shrinkage=0.073782


Tree=37
num_leaves=8
num_cat=0
split_feature=13 16 63 5 43 84 21
split_gain=10.1878 11.3227 11.8516 9.12279 8.33654 9.55278 8.00314
threshold=0.29285714285714287 111.65000000000002 21.004930393604699 0.7477916405628463 111.50000000000001 -6.950000000000002 -8.4999999999999982
decision_type=2 2 2 2 2 2 2
left_child=4 3 -3 -2 6 -6 -1
right_child=1 2 -4 -5 5 -7 -8
leaf_value=-0.038737546346004188 -0.013954922801317984 0.012886879166006449 -0.0090071132874368458 0.019203663907943851 -0.085041099188149949 0.0043875542637095387 0.031404135447497178
leaf_weight=9.478533208370207 461.72311951220036 348.19702410697937 219.22852431237698 49.971288055181503 6.967776730656623 91.179717369377613 123.35344775766134
leaf_count=49 1958 1513 971 249 31 416 605
internal_value=0.000257756 -0.00275035 0.00442306 -0.0107103 0.0143219 -0.00195874 0.0263699
internal_weight=1310.1 1079.12 567.426 511.694 230.979 98.1475 132.832
internal_count=5792 4691 2484 2207 1101 447 654
is_linear=0
shrinkage=0.073782


Tree=38
num_leaves=8
num_cat=0
split_feature=20 13 75 0 2 32 11
split_gain=9.88014 7.21142 8.53904 8.00466 6.38881 6.70128 4.36481
threshold=1.5000000000000002 0.76388888888888895 0.23244068592905806 1.0000000180025095e-35 1260.72773785971 1.5000000000000002 1.0000000180025095e-35
decision_type=2 2 2 2 2 2 2
left_child=1 3 -3 -1 6 -6 -2
right_child=4 2 -4 -5 5 -7 -8
leaf_value=-0.035183745409402292 0.0092592168748906814 -0.015077371247718765 -0.088002315158101196 -0.00097432727149966941 0.027532147761142021 0.0030738796348479093 0.08263977080223428
leaf_weight=39.07702425122261 7.715150564908984 40.006790459156036 11.212806254625319 782.4726906940341 74.263761326670647 342.54962909221649 10.603694684803484
leaf_count=162 46 179 47 3404 350 1540 64
internal_value=0.000240675 -0.00428511 -0.0311414 -0.0026062 0.00932433 0.00744008 0.0519571
internal_weight=1307.9 872.769 51.2196 821.55 435.132 416.813 18.3188
internal_count=5792 3792 226 3566 2000 1890 110
is_linear=0
shrinkage=0.073782


Tree=39
num_leaves=8
num_cat=0
split_feature=16 8 42 13 79 16 41
split_gain=8.72503 8.84127 9.38396 7.90223 10.7282 7.94496 7.58141
threshold=101.05000000000001 0.42823920265780735 105.10000000000001 0.70714285714285718 111.75000000000001 126.15000000000002 103.10000000000001
decision_type=2 2 2 2 2 2 2
left_child=1 2 -1 5 -5 -2 -3
right_child=3 6 -4 4 -6 -7 -8
leaf_value=0.053610627889529062 0.003345649202466014 -0.083070464544322861 -0.032871436832158762 0.034200692502751748 -0.034542899885380673 -0.11972527057221774 -0.0022533406525094483
leaf_weight=11.245771393179895 1167.4153255298734 19.385448426008228 17.281090185046196 15.289681881666182 63.28272433578968 2.8291554301977149 9.4763764739036542
leaf_count=48 5192 84 75 65 274 12 42
internal_value=0.000224249 -0.0278947 0.00114585 0.00151935 -0.0211219 0.00304245 -0.0566637
internal_weight=1306.21 57.3887 28.5269 1248.82 78.5724 1170.24 28.8618
internal_count=5792 249 123 5543 339 5204 126
is_linear=0
shrinkage=0.073782


Tree=40
num_leaves=8
num_cat=0
split_feature=5 77 7 26 8 6 44
split_gain=10.5126 9.07082 8.43314 9.69173 6.25566 6.13984 4.48152
threshold=0.88292239560168195 117.95000000000002 1.0000000180025095e-35 634.50000000000011 0.69501860272840033 1.2207093102987459 117.90000000000002
decision_type=2 2 2 2 2 2 2
left_child=2 6 5 -4 -3 -1 -2
right_child=1 4 3 -5 -6 -7 -8
leaf_value=-0.016498114429270964 0.023679202874385748 -0.11259479964989387 -0.0022175502520786509 0.025312878267492983 0.0099851475557535246 -0.075847848092446601 0.06610887365389384
leaf_weight=40.266518011689186 44.190835647284985 3.8514889329671842 1102.5620158016682 74.265460461378098 5.3433979973196983 12.476782113313673 19.795235320925713
leaf_count=166 263 22 4792 333 33 53 116
internal_value=-0.000154204 0.0270048 -0.00177357 -0.000477191 -0.0412727 -0.0306282 0.0368757
internal_weight=1302.75 73.181 1229.57 1176.83 9.19489 52.7433 63.9861
internal_count=5778 434 5344 5125 55 219 379
is_linear=0
shrinkage=0.073782


Tree=41
num_leaves=8
num_cat=0
split_feature=5 64 77 5 83 73 33
split_gain=9.17619 8.29021 7.87238 7.62596 7.13043 6.29989 5.91752
threshold=0.88292239560168195 74.823137781481037 117.95000000000002 0.40148932149637134 -7.2499999999999991 -6.799335459861779 -2.4999999999999996
decision_type=2 2 2 2 2 2 2
left_child=1 3 4 -1 -2 -3 -4
right_child=2 5 6 -5 -6 -7 -8
leaf_value=-0.014343497445866178 -0.06551734867582 -0.059249700682032259 0.063961612587473751 -0.00020242038481353263 0.041048967537488323 0.01820747572568953 -0.070896121643711923
leaf_weight=279.88448204100132 3.5800005048513404 5.9171619266271582 2.3103156685829163 805.19147190451622 59.1319919526577 137.98164838552475 7.0826573893427831
leaf_count=1212 20 25 13 3510 359 597 42
internal_value=-0.000140646 -0.00164391 0.0254321 -0.00385285 0.0348906 0.0149905 -0.0373257
internal_weight=1301.08 1228.97 72.105 1085.08 62.712 143.899 9.39297
internal_count=5778 5344 434 4722 379 622 55
is_linear=0
shrinkage=0.073782


Tree=42
num_leaves=8
num_cat=0
split_feature=16 27 72 44 68 63 70
split_gain=8.07559 8.60166 10.5187 8.57959 8.94829 8.49827 6.37764
threshold=101.22500000000001 199.50000000000003 96.935000000000016 112.90000000000002 0.25657894736842107 51.510338968754361 216.47130750297302
decision_type=2 2 2 2 2 2 2
left_child=3 2 -2 4 -1 -3 -5
right_child=1 5 -4 6 -6 -7 -8
leaf_value=0.051861276530595558 -0.044508347504864404 0.0009445340446265258 0.013160724863617516 -0.1075234813270238 -0.027832202200330166 -0.01679767416308852 -0.0017571451938174951
leaf_weight=9.748019725084303 18.029431983828545 671.95107377320528 361.10572922974825 10.241266846656798 35.32978093624115 187.98947103321552 4.5259014517068854
leaf_count=43 77 2957 1653 44 154 830 20
internal_value=-0.000128639 0.00114804 0.0104074 -0.0265948 -0.0105121 -0.00293129 -0.0753703
internal_weight=1298.92 1239.08 379.135 59.845 45.0778 859.941 14.7672
internal_count=5778 5517 1730 261 197 3787 64
is_linear=0
shrinkage=0.073782


Tree=43
num_leaves=8
num_cat=0
split_feature=17 43 70 45 64 83 86
split_gain=8.09543 9.83796 12.3879 7.21958 6.77478 6.25213 3.16287
threshold=109.25000000000001 101.7 212.65337998961533 -18.699999999999999 82.10958685158927 -4.2499999999999991 1.3000000000000045
decision_type=2 2 2 2 2 2 2
left_child=3 5 -3 6 -5 -2 -1
right_child=1 2 -4 4 -6 -7 -8
leaf_value=-0.010096708642959151 -0.040652678070260108 -0.049905855776466397 -0.0056271120770607138 0.0046407339517601466 0.032667040354607532 0.031291052365396713 -0.11683000004910109
leaf_weight=2.6953833550214759 7.4162926077842704 36.444915875792503 610.35073906183243 531.32391384989023 51.53528992831707 54.579870663583279 3.6167642772197723
leaf_count=12 33 159 2651 2430 233 244 16
internal_value=-0.000119603 -0.00543412 -0.00812875 0.00626915 0.00712521 0.0226233 -0.0719748
internal_weight=1297.96 708.792 646.796 589.171 582.859 61.9962 6.31215
internal_count=5778 3087 2810 2691 2663 277 28
is_linear=0
shrinkage=0.073782


Tree=44
num_leaves=8
num_cat=0
split_feature=5 0 26 77 8 13 65
split_gain=7.65347 7.15825 8.39153 6.92855 5.87355 5.07064 4.53522
threshold=0.88292239560168195 1.0000000180025095e-35 634.50000000000011 117.95000000000002 0.47466187296695778 0.21111111111111114 -1.4999999999999998
decision_type=2 2 2 2 2 2 2
left_child=1 4 -3 6 -1 -5 -2
right_child=3 2 -4 5 -6 -7 -8
leaf_value=-0.088856794807528575 0.10899203275804656 -0.0018989602691767077 0.023797457984221251 -0.082368516391068847 -0.017991943617034486 0.025341145773801671 0.02723667363513935
leaf_weight=7.4319073408842078 3.952977590262889 1099.9040237218142 73.791057974100113 5.3435233533382398 45.020869791507721 4.1936240941286087 57.250803083181381
leaf_count=31 23 4792 333 31 188 24 356
internal_value=-0.000111131 -0.00147494 -0.000280428 0.0234783 -0.028134 -0.0347904 0.0326171
internal_weight=1296.89 1226.15 1173.7 70.7409 52.4528 9.53715 61.2038
internal_count=5778 5344 5125 434 219 55 379
is_linear=0
shrinkage=0.073782


end of trees

feature_importances:
Column_3=22
Column_5=21
Column_4=15
Column_15=13
Column_43=13
Column_2=10
Column_16=10
Column_26=10
Column_32=10
Column_45=10
Column_1=9
Column_75=9
Column_29=8
Column_72=8
Column_8=7
Column_14=7
Column_73=7
Column_13=6
Column_20=6
Column_63=6
Column_64=6
Column_70=6
Column_0=5
Column_17=5
Column_21=4
Column_30=4
Column_42=4
Column_44=4
Column_67=4
Column_68=4
Column_77=4
Column_86=4
Column_12=3
Column_19=3
Column_27=3
Column_28=3
Column_46=3
Column_79=3
Column_82=3
Column_83=3
Column_6=2
Column_18=2
Column_25=2
Column_33=2
Column_41=2
Column_74=2
Column_78=2
Column_80=2
Column_81=2
Column_84=2
Column_7=1
Column_10=1
Column_11=1
Column_22=1
Column_23=1
Column_24=1
Column_40=1
Column_47=1
Column_65=1

parameters:
[boosting: gbdt]
[objective: binary]
[metric: binary_logloss]
[tree_learner: serial]
[device_type: cpu]
[data_sample_strategy: bagging]
[data: ]
[valid: ]
[num_iterations: 3000]
[learning_rate: 0.073782]
[num_leaves: 65]
[num_threads: 0]
[seed: 0]
[deterministic: 0]
[force_col_wise: 0]
[force_row_wise: 0]
[histogram_pool_size: -1]
[max_depth: 3]
[min_data_in_leaf: 12]
[min_sum_hessian_in_leaf: 0.001]
[bagging_fraction: 0.87454]
[pos_bagging_fraction: 1]
[neg_bagging_fraction: 1]
[bagging_freq: 5]
[bagging_seed: 3]
[bagging_by_query: 0]
[feature_fraction: 0.658401]
[feature_fraction_bynode: 1]
[feature_fraction_seed: 2]
[extra_trees: 0]
[extra_seed: 6]
[early_stopping_round: 0]
[early_stopping_min_delta: 0]
[first_metric_only: 0]
[max_delta_step: 0]
[lambda_l1: 0.037716]
[lambda_l2: 0.03224]
[linear_lambda: 0]
[min_gain_to_split: 0]
[drop_rate: 0.1]
[max_drop: 50]
[skip_drop: 0.5]
[xgboost_dart_mode: 0]
[uniform_drop: 0]
[drop_seed: 4]
[top_rate: 0.2]
[other_rate: 0.1]
[min_data_per_group: 100]
[max_cat_threshold: 32]
[cat_l2: 10]
[cat_smooth: 10]
[max_cat_to_onehot: 4]
[top_k: 20]
[monotone_constraints: ]
[monotone_constraints_method: basic]
[monotone_penalty: 0]
[feature_contri: ]
[forcedsplits_filename: ]
[refit_decay_rate: 0.9]
[cegb_tradeoff: 1]
[cegb_penalty_split: 0]
[cegb_penalty_feature_lazy: ]
[cegb_penalty_feature_coupled: ]
[path_smooth: 0]
[interaction_constraints: ]
[verbosity: -1]
[saved_feature_importance_type: 0]
[use_quantized_grad: 0]
[num_grad_quant_bins: 4]
[quant_train_renew_leaf: 0]
[stochastic_rounding: 1]
[linear_tree: 0]
[max_bin: 255]
[max_bin_by_feature: ]
[min_data_in_bin: 3]
[bin_construct_sample_cnt: 200000]
[data_random_seed: 1]
[is_enable_sparse: 1]
[enable_bundle: 1]
[use_missing: 1]
[zero_as_missing: 0]
[feature_pre_filter: 1]
[pre_partition: 0]
[two_round: 0]
[header: 0]
[label_column: ]
[weight_column: ]
[group_column: ]
[ignore_column: ]
[categorical_feature: ]
[forcedbins_filename: ]
[precise_float_parser: 0]
[parser_config_file: ]
[objective_seed: 5]
[num_class: 1]
[is_unbalance: 0]
[scale_pos_weight: 1]
[sigmoid: 1]
[boost_from_average: 1]
[reg_sqrt: 0]
[alpha: 0.9]
[fair_c: 1]
[poisson_max_delta_step: 0.7]
[tweedie_variance_power: 1.5]
[lambdarank_truncation_level: 30]
[lambdarank_norm: 1]
[label_gain: ]
[lambdarank_position_bias_regularization: 0]
[eval_at: ]
[multi_error_top_k: 1]
[auc_mu_weights: ]
[num_machines: 1]
[local_listen_port: 12400]
[time_out: 120]
[machine_list_filename: ]
[machines: ]
[gpu_platform_id: -1]
[gpu_device_id: -1]
[gpu_use_dp: 0]
[num_gpu: 1]

end of parameters

pandas_categorical:null
