tree
version=v4
num_class=1
num_tree_per_iteration=1
label_index=0
max_feature_idx=86
objective=binary sigmoid:1
feature_names=is_home_favorite home_elo away_elo elo_diff elo_expected elo_surprise handicap_normalized handicap_direction handi_team_past_accuracy handicap_deviation home_wr_5 away_wr_5 home_wr_10 away_wr_10 home_wr_20 away_wr_20 home_score_avg away_score_avg home_concede_avg away_concede_avg home_streak away_streak h2h_home_wr h2h_away_wr h2h_score_diff h2h_count home_points away_points points_diff home_season_wr away_season_wr home_rest_days away_rest_days rest_diff home_games_7d away_games_7d home_back_to_back away_back_to_back home_recent_form away_recent_form form_diff home_scored_trend away_scored_trend home_conceded_trend away_conceded_trend home_net_trend away_net_trend home_recent_cover away_recent_cover line_movement line_movement_abs has_line_movement line_movement_midday consensus_home_prob consensus_away_prob sharp_home_prob odds_dispersion sharp_soft_gap implied_overround odds_count best_home_odds best_away_odds odds_vs_handicap home_elo_velocity away_elo_velocity home_win_streak away_win_streak home_home_win_rate away_away_win_rate h2h_cover_rate total_points_avg home_pace away_pace pace_diff home_close_game_rate home_blowout_rate home_b2b home_off_rtg away_off_rtg home_def_rtg away_def_rtg home_net_rtg away_net_rtg off_rtg_diff def_rtg_diff home_matchup_edge away_matchup_edge
feature_infos=[0:1] [1214.2422684382784:1778.1251471024882] [1218.3946503257134:1778.686188730843] [-478.646614689442:523.28225211700601] [0.073451649084229312:0.96204745828910188] [0.073451649084229312:0.96204745828910188] [-0.85059855677854934:4.8318077648523898] [0:1] [0:1] [-3.517711503347535:19.982288496652465] [0:1] [0:1] [0:1] [0:1] [0:1] [0:1] [76:140] [84:132] [79:131.19999999999999] [76:140] [-18:24] [-18:14] [0:1] [0:1] [-49:48] [0:24] [0:846] [0:846] [-753:765] [0:1] [0:1] [1:288] [1:287] [-29:29] [0:4] [0:4] [0:1] [0:1] [0:1] [0:1] [-1:1] [0:140] [0:135.19999999999999] [0:140] [0:135.40000000000001] [-48:29.200000000000003] [-31.200000000000003:48] [0:1] [0:1] none none none none none none none none none none none none none none [-133.81005105014765:140.51271295670335] [-139.7792851355473:146.19897358679168] [-20:18] [-18:18] [0:1] [0:1] [0:1] [209.0595238095238:243] [95.379999999999995:104.67] [95.379999999999995:104.67] [-34.540474741326847:33] [0:1] [0:1] [0:1] [108.5:120.3] [108.5:120.3] [106.3:120.7] [106.3:120.7] [-10.9:10.699999999999999] [-10.9:10.699999999999999] [-11.799999999999997:11.799999999999997] [-14.400000000000006:14.400000000000006] [-12.200000000000003:14] [-12.200000000000003:14]
tree_sizes=1772 1809 1680 1661 1600 1729 1807 1724 1838 1730 1815 1809 1682 1756 1700 1716 1694 1703 1681 1628 1777 1643 1717 1621 1700 1684 1729 1604 1736 1560 1472 1181 1202 1512 1063 1631 1736 1595 1403 1406 1709 1391 1496 1474 1364 1811 1544 1626 1577 841 1512 1741 1169 1369 1206 1455 1263 1182 1774 1723 1822 1804 1193 1169 943 1511 1295 1384 1379 1182 1698 1509 1799 1397 1633 1770 1729 1401 1780 1831

Tree=0
num_leaves=16
num_cat=0
split_feature=4 4 5 7 26 1 28 2 16 19 29 63 78 16 13
split_gain=405.721 76.0426 37.9325 36.0613 25.9539 21.0324 12.3909 11.9793 10.7104 7.1375 7.1109 7.10507 7.03783 6.63416 4.8022
threshold=0.5644934907577609 0.3921405756879876 0.58767584930383776 1.0000000180025095e-35 448.50000000000006 1445.7986424111607 -97.499999999999986 1426.965266879414 110.41428571428573 111.95000000000002 0.48989887538545263 13.829355170591272 113.50000000000001 118.15000000000002 0.29285714285714287
decision_type=2 2 2 2 2 2 2 2 2 2 2 2 2 2 2
left_child=1 8 9 6 -5 12 -3 -7 14 10 -2 -10 -4 -11 -1
right_child=2 3 5 4 -6 7 -8 -9 11 13 -12 -13 -14 -15 -16
leaf_value=0.23988908883658108 0.32148366302600551 0.23377904285417897 0.1821963506834508 0.23472461289543362 0.28886293955356368 0.32664689718912399 0.17331172752620549 0.30017299365031469 0.19072658924790142 0.21324851046564675 0.25208734530810012 0.24718174962858849 0.26621146782702154 0.2824166711245632 0.16293654185037415
leaf_weight=8.6124478280544263 13.779916524887083 37.648700505495071 8.1203079521656054 267.72409248352051 68.899582624435425 212.85049632191658 70.868142127990723 302.41995373368263 71.114212065935135 36.41835081577301 27.55983304977417 22.638434290885925 23.376644104719162 9.5967275798320753 160.9297394156456
leaf_count=35 56 153 33 1088 280 865 288 1229 289 148 112 92 95 39 654
internal_value=0.25377 0.212766 0.299749 0.233002 0.246127 0.307472 0.19329 0.311321 0.178969 0.252087 0.27521 0.203208 0.247917 0.230017 0.166209
internal_weight=1342.56 708.435 634.122 445.141 336.624 546.767 108.517 515.27 263.295 87.3548 41.3397 93.7526 31.497 46.0151 169.542
internal_count=5456 2879 2577 1809 1368 2222 441 2094 1070 355 168 381 128 187 689
is_linear=0
shrinkage=1


Tree=1
num_leaves=16
num_cat=0
split_feature=3 3 5 0 27 1 3 71 28 45 72 46 18 10 30
split_gain=345.651 63.678 32.5502 30.3823 19.2516 18.117 10.5354 10.209 10.1696 9.44555 6.67612 8.07037 6.60403 5.87277 4.61962
threshold=6.7657160089632962 -114.44454945063875 0.58767584930383776 1.0000000180025095e-35 541.50000000000011 1445.7986424111607 218.11021775942007 102.55000000000003 -97.499999999999986 1.9000000000000059 99.300000000000011 -1.6000000000000012 114.72500000000001 0.77500000000000013 0.59141321044546868
decision_type=2 2 2 2 2 2 2 2 2 2 2 2 2 2 2
left_child=1 7 10 8 -5 12 -7 9 -3 -1 11 -2 -4 -12 -9
right_child=2 3 5 4 -6 6 -8 14 -10 -11 13 -13 -14 -15 -16
leaf_value=-0.077931028371225716 -0.089356364388388038 -0.016824159519665535 0.017529678090104341 -0.013051206211028173 0.042754447178025332 0.04969962704305695 0.084431518380855178 0.037851003557035329 -0.071924672131786577 -0.027000302663990953 -0.00026294889676176694 0 -0.058795117835332172 0.050340090507780162 -0.038219053076167978
leaf_weight=211.56658136844635 9.8367081880569476 37.732107549905777 21.410814374685291 292.95755413174629 43.889922112226486 435.51916781067848 75.495036333799362 6.937851250171664 71.462030410766602 33.152993991971016 37.900640919804573 19.937683179974556 10.105236068367956 19.669877931475639 13.63664750754833
leaf_count=853 40 153 87 1189 179 1784 310 28 288 134 154 81 41 80 55
internal_value=0.00154142 -0.0361136 0.0442366 -0.017555 -0.00545807 0.0514425 0.0550453 -0.0669063 -0.0538775 -0.0714741 0 -0.0308688 -0.00356737 0.0151771 -0.00733627
internal_weight=1341.21 711.336 629.875 446.042 336.847 542.53 511.014 265.294 109.194 244.72 87.3449 29.7744 31.5161 57.5705 20.5745
internal_count=5456 2879 2577 1809 1368 2222 2094 1070 441 987 355 121 128 234 83
is_linear=0
shrinkage=0.079


Tree=2
num_leaves=15
num_cat=0
split_feature=3 3 5 0 26 1 2 26 25 71 18 85 85 34
split_gain=294.474 53.4797 28.2305 25.6984 20.2626 15.8501 11.0999 10.7775 8.92379 9.45524 7.16865 5.72729 6.30402 5.79896
threshold=6.7657160089632962 -114.44454945063875 0.58767584930383776 1.0000000180025095e-35 448.50000000000006 1459.8099061722853 1426.965266879414 433.50000000000006 17.500000000000004 102.55000000000003 114.72500000000001 -2.6499999999999981 -1.0499999999999969 1.5000000000000002
decision_type=2 2 2 2 2 2 2 2 2 2 2 2 2 2
left_child=1 8 11 7 -5 10 -7 -3 9 -1 -4 13 -13 -2
right_child=2 3 5 4 -6 6 -8 -9 -10 -11 -12 12 -14 -15
leaf_value=-0.068914414644613925 0 -0.016240742172489331 0.024650792099011779 -0.015047035879961623 0.032898240761679395 0.067136844365745726 0.041145456260275597 -0.070508248342413662 0 -0.0061927378812051724 -0.044311046325329527 0.077299824174303311 0.00043299653216424577 -0.073464119710886663
leaf_weight=235.23198379576206 13.265332221984865 44.439326837658882 27.396645173430443 268.62604802846909 68.389629006385803 198.41338837146759 297.75373736023903 65.179367393255234 11.204853639006613 20.092498600482941 14.270492002367972 8.0986582636833173 54.344749331474304 11.591395914554594
leaf_count=944 54 179 112 1088 280 824 1228 262 45 81 58 33 221 47
internal_value=0.00140774 -0.0332034 0.0410642 -0.0161619 -0.00499694 0.0478282 0.0517589 -0.0494979 -0.0613527 -0.0644006 0 0 0.0121523 -0.0326442
internal_weight=1338.3 713.164 625.134 446.634 337.016 537.834 496.167 109.619 266.529 255.324 41.6671 87.3001 62.4434 24.8567
internal_count=5456 2879 2577 1809 1368 2222 2052 441 1070 1025 170 355 254 101
is_linear=0
shrinkage=0.079


Tree=3
num_leaves=15
num_cat=0
split_feature=3 3 5 0 26 1 28 3 63 43 83 19 29 33
split_gain=251.34 45.8485 24.248 19.4689 19.8798 13.8447 10.2827 8.74065 7.9684 7.26205 6.29675 5.8591 6.0852 4.68532
threshold=6.7657160089632962 -129.45911780288176 0.58767584930383776 1.0000000180025095e-35 448.50000000000006 1445.7986424111607 -97.499999999999986 218.11021775942007 -42.190496837315543 101.7 1.8499999999999945 111.95000000000002 0.48989887538545263 1.5000000000000002
decision_type=2 2 2 2 2 2 2 2 2 2 2 2 2 2
left_child=1 8 11 6 -5 10 -3 -7 -1 -10 -4 12 -2 -13
right_child=2 3 5 4 -6 7 -8 -9 9 -11 -12 13 -14 -15
leaf_value=0.0098142913873633612 0.064359137443889478 -0.010214213597353652 0.013998801171232249 -0.01621178905379736 0.030271041395186653 0.04278868216098515 -0.060837015915420192 0.074971259225625378 0 -0.065764666775368796 -0.065443132399343476 -0.037195055202631049 0 0.013367021191979198
leaf_weight=7.2467896938323966 13.624566346406935 44.686265707015991 23.337062269449238 289.5251120775938 70.526700958609581 428.01538349688053 79.93398804962635 73.304729759693146 10.476045042276381 211.73066231608391 8.1541453897953016 32.32914412021637 27.534978553652763 13.795626834034918
leaf_count=29 56 180 95 1170 290 1784 320 310 42 848 33 131 112 56
internal_value=0.00130657 -0.0305605 0.0381789 -0.0164787 -0.00680674 0.0445018 -0.043553 0.0477128 -0.0598316 -0.0625873 -0.00320257 0 0.021235 -0.0197454
internal_weight=1334.22 714.126 620.096 484.672 360.052 532.811 124.62 501.32 229.453 222.207 31.4912 87.2843 41.1595 46.1248
internal_count=5456 2879 2577 1960 1460 2222 500 2094 919 890 128 355 168 187
is_linear=0
shrinkage=0.079


Tree=4
num_leaves=14
num_cat=0
split_feature=3 3 3 5 75 13 45 44 63 25 19 45 42
split_gain=214.577 38.6658 21.3476 15.2883 14.1391 11.1214 10.1524 9.96706 6.90178 6.6631 5.6969 8.13865 6.51213
threshold=6.7657160089632962 -129.45911780288176 124.56041155836398 0.40843524620539468 0.19519411170443068 0.70714285714285718 -6.3999999999999977 97.90000000000002 -42.190496837315543 17.500000000000004 118.35000000000001 -1.5499999999999969 105.10000000000001
decision_type=2 2 2 2 2 2 2 2 2 2 2 2 2
left_child=1 8 3 -2 7 -6 -5 -3 -1 -10 12 -12 -4
right_child=2 4 10 6 5 -7 -8 -9 9 -11 11 -13 -14
leaf_value=0.0090436727486443921 -0.063577664653556895 0.024540825461178091 0.068873798174848316 -0.0094748960389829679 0.013508280843234667 -0.045134320026129146 0.031251032779741138 -0.028291086916012249 -0.06047489475115371 0 0.0086510157106769493 0.10174138095645177 0.033719536475656509
leaf_weight=7.2454575747251502 11.336561128497122 21.812325432896614 65.746882185339928 38.594254359602928 131.31058369576931 23.44849868118763 343.28204776346684 308.26436464488506 213.08723886311054 9.2396897971630079 10.142116487026213 35.898766115307808 109.83789274096489
leaf_count=29 46 88 280 159 532 95 1431 1245 853 37 43 153 465
internal_value=0.00121801 -0.0281435 0.0355089 0.0239686 -0.0151877 0.00392231 0.0268534 -0.0244726 -0.0550318 -0.057604 0.0554935 0.0835848 0.0475036
internal_weight=1329.25 714.408 614.839 393.213 484.836 154.759 381.876 330.077 229.572 222.327 221.626 46.0409 175.585
internal_count=5456 2879 2577 1636 1960 627 1590 1333 919 890 941 196 745
is_linear=0
shrinkage=0.079


Tree=5
num_leaves=15
num_cat=0
split_feature=3 3 0 5 26 5 26 18 73 10 24 39 75 80
split_gain=189.746 35.7055 25.956 15.1236 14.3493 12.4357 9.66266 8.55366 7.85 6.94592 7.87591 6.25303 5.25199 3.60374
threshold=20.707442725087621 -114.44454945063875 1.0000000180025095e-35 0.79717551996002467 595.50000000000011 0.41450172799996238 508.50000000000006 112.35000000000001 1.7446107270150792 0.77500000000000013 9.0384615384615401 0.55000000000000016 0.1787759541862623 117.30000000000001
decision_type=2 2 2 2 2 2 2 2 2 2 2 2 2 2
left_child=1 9 6 5 -4 8 -3 -7 -2 10 -1 13 -11 -5
right_child=3 2 4 11 -6 7 -8 -9 -10 12 -12 -13 -14 -15
leaf_value=-0.050277250819537926 0.0015905896905867092 -0.027988419319162731 -0.0095568452586938177 0.078394599152850825 0.042250568762711355 0.036226021552723094 -0.078535773440589943 0.0089605213198971634 -0.10079889339104779 -0.041708491389301654 -0.11464701422870809 0.00013424665131879103 0.0268862879238389 0.010918354607715052
leaf_weight=226.31646081805229 7.9135492593049985 77.449704319238663 357.61743602156639 70.491648450493813 36.319573193788528 331.19295874238014 42.671538472175598 106.20553642511368 7.1963292807340622 14.726279318332674 15.715030401945112 11.749515801668165 11.730671942234038 9.4138418138027173
leaf_count=907 32 311 1448 308 150 1401 171 447 29 59 63 51 47 41
internal_value=-0.00211437 -0.0271036 -0.0146116 0.0336241 -0.00450501 0.0272743 -0.0468531 0.0298523 -0.0401729 -0.0506172 -0.0549134 0.063784 -0.00724153 0.0717958
internal_weight=1326.71 782.547 514.058 544.163 393.937 452.508 120.121 437.398 15.1099 268.488 242.031 91.655 26.457 79.9055
internal_count=5465 3156 2080 2309 1598 1909 482 1848 61 1076 970 400 106 349
is_linear=0
shrinkage=0.079


Tree=6
num_leaves=16
num_cat=0
split_feature=3 1 15 0 3 41 0 2 21 45 42 83 45 75 1
split_gain=162.403 31.5547 15.1944 14.3444 13.7668 11.3257 10.7119 10.8601 8.23717 6.90831 8.08974 6.70812 6.63758 2.00929 1.94001
threshold=20.707442725087621 1483.1565247824967 0.67948717948717963 1.0000000180025095e-35 129.1580106859814 115.10000000000001 1.0000000180025095e-35 1374.5223166930525 4.5000000000000009 -1.6000000000000012 111.7 -7.3500000000000005 1.2999999999999974 0.1787759541862623 1467.6870084056736
decision_type=2 2 2 2 2 2 2 2 2 2 2 2 2 2 2
left_child=1 2 5 12 6 -1 13 -8 -5 10 -6 -11 -3 -2 -4
right_child=4 3 14 8 9 -7 7 -9 -10 11 -12 -13 -14 -15 -16
leaf_value=-0.038622399586816618 0 -0.062631395016347166 -0.090759085840062578 0.0069348449408281375 0.03490127503140375 -0.00096965730515701561 -0.017691192505132302 0.029050052653902262 -0.051568270755106192 -0.0053158230444703743 -0.050148466736814369 0.058255613716729868 -0.0089524578835075714 -0.073597890784502296 -0.021069439715244068
leaf_weight=350.4051928371191 7.4227205514907819 34.642862990498543 39.802417114377022 235.25985558331013 29.4870775192976 65.012412518262863 31.825284257531166 285.08621852099895 15.799324437975882 7.7857176512479773 8.3837445676326734 162.20691865682602 33.871661812067032 7.220627561211586 7.2087830752134314
leaf_count=1411 30 139 160 955 128 262 132 1211 64 34 36 709 136 29 29
internal_value=-0.0019361 -0.0250141 -0.0382466 -0.00552848 0.0313208 -0.0329889 0.020743 0.024016 0.00281996 0.047671 0.0132151 0.0547117 -0.037676 -0.0426786 -0.0823757
internal_weight=1321.42 782.003 462.429 319.574 539.418 415.418 331.555 316.912 251.059 207.863 37.8708 169.993 68.5145 14.6433 47.0112
internal_count=5465 3156 1862 1294 2309 1673 1402 1343 1019 907 164 743 275 59 189
is_linear=0
shrinkage=0.079


Tree=7
num_leaves=15
num_cat=0
split_feature=3 3 7 5 8 46 16 5 24 6 46 73 41 83
split_gain=138.611 27.3816 20.1863 12.5358 12.4424 10.3228 9.54887 9.09266 8.17514 7.84563 6.67985 6.30739 5.02097 2.96345
threshold=20.707442725087621 -114.44454945063875 1.0000000180025095e-35 0.79717551996002467 0.59023615223514125 8.0999999999999961 119.25000000000001 0.41450172799996238 7.9545454545454559 1.6278978175498395 -3.600000000000001 1.7446107270150792 110.45000000000002 2.5499999999999976
decision_type=2 2 2 2 2 2 2 2 2 2 2 2 2 2
left_child=1 6 5 7 -4 -3 8 11 -1 -9 13 -2 -12 -5
right_child=3 2 4 10 -6 -7 -8 9 -10 -11 12 -13 -14 -15
leaf_value=-0.041511654448932109 0.0025611397331674465 -0.052015327423504794 -0.015822774158953744 0.083152858245614872 0.012328476003552899 0.0025051587015942596 0.028183651246232493 0.02260047786023477 -0.095238871024026991 0.072236238151329749 0.072294102967420878 -0.088379519207430368 -0.00088709245708978618 0.030758112376690162
leaf_weight=234.6682150810957 7.9170567989349347 96.891094237565994 221.71491353213787 47.202790766954422 172.63367015123367 23.17737141251564 9.2256977409124357 407.54696936905384 23.231889441609383 23.337386265397072 7.2042027264833477 7.2327026575803757 17.459178581833839 16.595443829894066
leaf_count=945 32 389 896 215 702 93 37 1747 94 101 32 29 78 75
internal_value=-0.00182856 -0.0231075 -0.01216 0.0290842 -0.00322659 -0.0405982 -0.043784 0.0232822 -0.0467778 0.0255427 0.0571079 -0.0338593 0.0161956 0.0712265
internal_weight=1316.04 781.543 514.417 534.496 394.349 120.068 267.126 446.034 257.9 430.884 88.4616 15.1498 24.6634 63.7982
internal_count=5465 3156 2080 2309 1598 482 1076 1909 1039 1848 400 61 110 290
is_linear=0
shrinkage=0.079


Tree=8
num_leaves=16
num_cat=0
split_feature=40 5 67 8 0 5 12 15 26 42 15 75 83 8 23
split_gain=64.3687 43 20.006 15.4501 13.0692 13.6868 12.7709 11.828 11.2424 10.4613 9.72886 7.23198 4.48808 3.48016 3.44684
threshold=-0.18333333333333329 0.59590853008279676 0.35147058823529415 0.70892773424419009 1.0000000180025095e-35 0.56601864943647184 0.31666666666666671 0.51315789473684215 505.50000000000006 105.90000000000002 0.65833333333333344 0.17402119835604588 -1.8999999999999984 0.64716577540106968 0.58114035087719318
decision_type=2 2 2 2 2 2 2 2 2 2 2 2 2 2 2
left_child=2 3 9 10 8 -6 11 -8 -4 14 -2 -3 -5 -11 -1
right_child=1 6 4 12 5 -7 7 -9 -10 13 -12 -13 -14 -15 -16
leaf_value=0.021632100168959424 -0.01052538277783672 0.0016292249858106151 -0.015761993592214574 -0.0086832169833546986 -0.015715646770762804 0.021696916292042356 0.036929155423024912 -0.0025739859367532132 -0.077308435449119139 -0.06379585168189654 -0.062433381999657464 -0.078459847946460826 0.048786342897293146 -0.016685418454172159 -0.038471524941746479
leaf_weight=15.374058321118357 259.46844607591629 20.784921258687977 55.89144791662693 7.4050097167491904 211.77437816560268 84.227161318063736 374.35894449055195 48.396573856472969 32.987416967749596 103.24246306717396 26.139660030603409 9.0813616663217527 33.446329012513161 18.028200343251228 9.6367331594228727
leaf_count=62 1052 86 225 30 857 359 1645 206 133 418 106 38 136 73 39
internal_value=-0.00166057 0.0127088 -0.0229386 -0.00889445 -0.0130986 -0.00470593 0.0285273 0.0321529 -0.0398306 -0.048087 -0.0156579 -0.0191799 0.035742 -0.0576836 0
internal_weight=1310.24 779.081 531.162 326.459 384.88 296.002 452.622 422.756 88.8789 146.281 285.608 29.8663 40.8513 121.271 25.0108
internal_count=5465 3299 2166 1324 1574 1216 1975 1851 358 592 1158 124 166 491 101
is_linear=0
shrinkage=0.079


Tree=9
num_leaves=15
num_cat=0
split_feature=3 3 0 26 5 46 16 18 72 24 24 46 41 77
split_gain=101.607 21.4574 16.1267 11.6045 10.8428 9.08854 8.0699 8.00306 8.98448 7.13478 7.07495 6.1574 4.37359 3.99562
threshold=20.707442725087621 -114.44454945063875 1.0000000180025095e-35 595.50000000000011 0.79717551996002467 8.0999999999999961 119.25000000000001 112.35000000000001 103.71500000000002 7.9545454545454559 1.2264957264957268 -3.600000000000001 110.45000000000002 117.55000000000003
decision_type=2 2 2 2 2 2 2 2 2 2 2 2 2 2
left_child=1 6 5 -4 7 -3 9 8 -2 -1 -9 13 -13 -6
right_child=4 2 3 -5 11 -7 -8 10 -10 -11 -12 12 -14 -15
leaf_value=-0.035998884136396986 0.028589999277695486 -0.046301505858663723 -0.0066096004638597381 0.04020079315379791 0.075460022571031571 0.0049246820231365653 0.027764034440209705 0.018183659187942579 -0.039249954820122224 -0.086607050692205062 -0.022435937602647501 0.066343667277246721 -0.0034293707794945138 0.0094839564340238689
leaf_weight=233.05159123241901 318.95737436413765 96.553242191672325 358.6056300252676 36.11896325647831 50.507015898823738 23.140087753534317 9.2269221693277341 63.961763098835945 11.332004517316816 22.835668593645096 45.67475825548172 6.9482866078615215 17.275958672165871 10.845385581254957
leaf_count=945 1390 389 1448 150 239 93 37 274 49 94 196 32 78 51
internal_value=-0.00156459 -0.0197404 -0.010045 -0.00205153 0.0251927 -0.0355018 -0.0381448 0.0197854 0.0259341 -0.040944 0.000280344 0.0517195 0.0122071 0.0655573
internal_weight=1305.03 779.532 514.418 394.725 525.503 119.693 265.114 439.926 330.289 255.887 109.637 85.5766 24.2242 61.3524
internal_count=5465 3156 2080 1598 2309 482 1076 1909 1439 1039 470 400 110 290
is_linear=0
shrinkage=0.079


Tree=10
num_leaves=16
num_cat=0
split_feature=4 14 4 6 27 0 77 25 6 46 5 26 30 16 32
split_gain=81.8542 21.2383 18.5503 12.162 10.438 9.83088 8.68859 6.60827 12.8749 6.29854 8.39157 7.84019 5.07135 4.87595 3.97356
threshold=0.53154714120087176 0.65833333333333344 0.71859436930488385 1.0233865067380374 574.50000000000011 1.0000000180025095e-35 110.95 8.5000000000000018 1.2651910310627583 10.700000000000005 0.51796048723509791 307.50000000000006 0.50470611684457645 114.55000000000001 2.5000000000000004
decision_type=2 2 2 2 2 2 2 2 2 2 2 2 2 2 2
left_child=1 3 5 4 -1 13 -7 12 -9 10 -3 -11 -4 -2 -5
right_child=2 9 7 14 -6 6 -8 8 -10 11 -12 -13 -14 -15 -16
leaf_value=-0.026284158503485078 -0.052571755623169757 0.04612027926623731 0.058100289337848804 -0.046063900411341223 0.0061694520267312272 -0.0099014237026285676 0.019316653625099781 -0.011887868956001591 0.051066703731542047 -0.073876944188674243 -0.014940557221953563 0.029181455878069286 0.0061512026446541154 0.0046522335536272365 -0.11154030743974036
leaf_weight=411.71055364608765 21.300097912549973 48.259250357747078 110.86617451906204 35.755250945687294 66.73393976688385 71.229185044765472 374.5740457624197 36.970688387751579 39.836315676569939 9.4235097765922564 16.551755204796791 7.1475544124841681 18.430439785122871 10.918147519230841 12.001089066267012
leaf_count=1668 86 195 510 146 272 300 1594 166 186 38 67 29 83 44 49
internal_value=0.00123498 -0.019778 0.0200541 -0.0256691 -0.0215329 0.011197 0.014407 0.0400708 0.0193722 0.0169883 0.0288695 -0.0229781 0.051529 -0.0298606 -0.0648222
internal_weight=1291.71 607.583 684.125 526.201 478.444 478.021 445.803 206.104 76.807 81.3821 64.811 16.5711 129.297 32.2182 47.7563
internal_count=5433 2464 2969 2135 1940 2024 1894 945 352 329 262 67 593 130 195
is_linear=0
shrinkage=0.079


Tree=11
num_leaves=16
num_cat=0
split_feature=3 1 3 74 2 6 46 15 82 22 72 25 6 45 30
split_gain=70.788 18.7159 16.0614 13.0193 11.9169 11.8296 9.66156 9.08429 8.32701 7.04225 6.33272 5.83501 11.2295 4.90586 4.40379
threshold=-16.46683941230469 1520.47737222824 124.56041155836398 0.23918244227168714 1387.8058433145652 1.0233865067380374 11.800000000000006 0.67948717948717963 0.41373104893381002 0.31009615384615391 97.565000000000012 8.5000000000000018 1.2651910310627583 -3.4999999999999996 0.50470611684457645
decision_type=2 2 2 2 2 2 2 2 2 2 2 2 2 2 2
left_child=1 5 3 13 -5 7 9 -1 -8 -3 -7 14 -13 -2 -4
right_child=2 6 11 4 -6 10 8 -9 -10 -11 -12 12 -14 -15 -16
leaf_value=-0.015749456749156936 0.001535182220432628 -0.0094457665257801828 0.054714665226784455 -0.038741856660105829 0.0079570822314621419 0 0.015759906093252989 -0.050421057285819637 -0.085552885039669957 0.040881490726881249 -0.079524005274136791 -0.010906225730361143 0.048004199710021921 0.043270599496266063 0.0056779686196669248
leaf_weight=407.34330172836781 28.967062771320343 20.574052855372429 108.525116533041 37.724929004907608 324.11087392270565 10.463313788175581 7.1573514342308071 57.984040930867195 10.178772673010824 56.408479988574982 35.889815613627434 37.111220449209213 39.063938155770302 86.144841641187668 18.393110081553459
leaf_count=1652 121 83 510 157 1378 43 29 237 41 229 148 166 186 370 83
internal_value=0.00114083 -0.0184036 0.0187154 0.010477 0.00278873 -0.0244392 0.013198 -0.0203035 -0.0375797 0.0260375 -0.0636024 0.0375293 0.0179007 0.0337042 0.0484574
internal_weight=1286.04 605.999 680.041 476.948 361.836 511.68 94.3187 465.327 17.3361 76.9825 46.3531 203.093 76.1752 115.112 126.918
internal_count=5433 2462 2971 2026 1535 2080 382 1889 70 312 191 945 352 491 593
is_linear=0
shrinkage=0.079


Tree=12
num_leaves=15
num_cat=0
split_feature=4 67 6 26 74 71 72 4 30 19 81 74 85 29
split_gain=60.3077 17.1508 12.6588 16.7154 11.0679 10.9202 9.68019 9.56904 16.2238 7.81356 5.11263 4.8168 4.0608 3.80314
threshold=0.55406263708401959 0.6858552631578948 1.5069955553874792 421.50000000000006 0.25825995196856127 100.05500000000002 100.42000000000002 0.35995026101657551 0.62700285572598724 107.25000000000001 5.4000000000000012 0.18469899665551842 -3.9500000000000024 0.5334305150631683
decision_type=2 2 2 2 2 2 2 2 2 2 2 2 2 2
left_child=1 7 3 5 -5 -2 9 11 -9 -3 12 -1 -4 -8
right_child=2 6 10 4 -6 -7 13 8 -10 -11 -12 -13 -14 -15
leaf_value=0.020730359266292096 0.040793698326841508 -0.043413536047443725 0 0.022445383771142968 -0.018209887452225071 0.012307877735523968 0.010527847709445287 -0.020372956570235301 0.022135468887181424 0.015641235166683476 0 -0.037663191655451282 0.073902980581673647 0.072527496781925285
leaf_weight=6.8130834996700278 159.92472922801971 20.693079113960266 8.2687328904867154 62.602061256766319 120.93739426136017 208.826989620924 15.836636558175085 314.34533955156803 65.912744358181953 41.122004464268684 6.0108829587697974 187.24309061467648 42.329525798559189 19.64940057694912
leaf_count=28 714 84 38 275 523 918 64 1272 266 167 28 773 203 80
internal_value=0.00105438 -0.0151806 0.0191378 0.0152196 -0.0037565 0.0249555 0.0148535 -0.0204565 -0.0127211 -0.00240121 0.0554418 -0.0350568 0.0637888 0.0479138
internal_weight=1280.52 671.615 608.9 552.291 183.539 368.752 97.3011 574.314 380.258 61.8151 56.6091 194.056 50.5983 35.486
internal_count=5433 2734 2699 2430 798 1632 395 2339 1538 251 269 801 241 144
is_linear=0
shrinkage=0.079


Tree=13
num_leaves=16
num_cat=0
split_feature=3 1 1 32 2 30 2 16 31 73 42 32 18 43 30
split_gain=52.2165 15.0808 11.9865 9.5546 9.16646 8.65928 8.25973 7.69421 9.28949 6.69996 6.52697 6.47375 4.73538 5.73688 5.32604
threshold=-3.327673791568031 1405.935277166783 1456.0514808807895 1.5000000000000002 1449.3291347843794 0.55762660829888022 1314.8794516810847 117.35000000000001 2.5000000000000004 6.1702831984280033 106.10000000000001 1.5000000000000002 114.72500000000001 113.7 0.43457367024345223
decision_type=2 2 2 2 2 2 2 2 2 2 2 2 2 2 2
left_child=1 4 12 5 10 -4 -5 8 -3 -9 -1 -6 13 -2 -14
right_child=2 7 3 6 11 -7 -8 9 -10 -11 -12 -13 14 -15 -16
leaf_value=0.043816765163266436 -0.018920633511724502 -0.018028840006011106 0.055153613337748104 0.061970808167915364 -0.006176646728601431 0 0.013022491878568469 0.0015490175922816529 0.0092633583302893195 0.061540866536663484 -0.021795071233646882 -0.048807404228686055 -0.077533951545992685 0.045524116461896427 0
leaf_weight=14.401584044098852 27.169887498021126 282.53350125253201 83.09288877248764 24.212351784110069 34.068043619394302 23.348844334483147 425.33380155265331 51.416997954249382 101.62926225364208 16.729853317141533 27.404976353049278 130.16972127556801 12.590571820735933 12.55003748834133 8.553286746144293
leaf_count=58 113 1147 377 123 141 102 1894 209 413 68 111 539 51 52 35
internal_value=0.0010079 -0.0143762 0.0176011 0.0213251 -0.0322134 0.0432116 0.0159015 -0.00601159 -0.010529 0.017872 0 -0.0406211 -0.014647 0 -0.0448654
internal_weight=1275.21 658.354 616.852 555.988 206.044 106.442 449.546 452.31 384.163 68.1469 41.8066 164.238 60.8638 39.7199 21.1439
internal_count=5433 2686 2747 2496 849 479 2017 1837 1560 277 169 680 251 165 86
is_linear=0
shrinkage=0.079


Tree=14
num_leaves=15
num_cat=0
split_feature=3 45 6 70 1 8 8 68 41 20 16 45 28 26
split_gain=44.6334 14.8809 12.4913 15.1901 11.51 10.7081 7.27881 8.41201 6.55259 6.6153 6.37555 5.90106 5.89685 1.95312
threshold=-16.46683941230469 -2.1999999999999953 1.5069955553874792 218.92151073010237 1474.9917143643813 0.44471026049973422 0.55869104398516167 0.59411764705882364 115.7 -1.4999999999999998 115.45000000000002 13.099999999999996 -121.49999999999999 388.50000000000006
decision_type=2 2 2 2 2 2 2 2 2 2 2 2 2 2
left_child=1 8 3 4 -2 -5 7 -3 9 -1 -8 13 -10 -4
right_child=2 6 11 5 -6 -7 10 -9 12 -11 -12 -13 -14 -15
leaf_value=-0.04136383412828587 -0.0091931326405936629 0.001235802211265045 0 0.042029630674053665 0.029187839924612633 -0.007784871654364387 2.4587920771162409e-06 -0.039830636738736179 -0.042909449042918879 -0.016668310745204539 0.038202064279424436 -0.0099969340239289863 0.03461224497770387 0.066880033552818019
leaf_weight=149.44954609870911 53.975806683301926 71.529982477426529 5.7962973564863196 30.029708132147789 286.04139214754105 242.96772304177284 100.61913433670998 49.334622010588646 8.0825240612030047 162.38550807535648 40.601200237870216 5.6564926803112021 19.834655374288559 43.727602854371071
leaf_count=617 225 290 29 132 1294 1049 409 202 33 665 165 28 81 214
internal_value=0.000945062 -0.014569 0.0150792 0.0116101 0.0227789 -0.00190801 -1.1546e-05 -0.0146434 -0.0254814 -0.028851 0.011751 0.0516475 0.00830315 0.0608583
internal_weight=1270.03 601.837 668.195 613.015 340.017 272.997 262.085 120.865 339.752 311.835 141.22 55.1804 27.9172 49.5239
internal_count=5433 2462 2971 2700 1519 1181 1066 492 1396 1282 574 271 114 243
is_linear=0
shrinkage=0.079


Tree=15
num_leaves=15
num_cat=0
split_feature=3 1 16 45 6 70 1 70 6 1 24 77 22 17
split_gain=44.7593 14.349 9.38613 10.4998 8.28695 10.744 8.75977 8.20816 8.14186 7.39129 7.3153 7.17487 6.59615 1.40017
threshold=22.273085947847225 1484.1518235129895 111.55000000000001 4.299999999999998 1.3860932932251187 218.86910252869703 1459.8099061722853 219.5176265119982 0.29797293376387468 1618.7194503854378 12.633333333333335 113.50000000000001 0.52786377708978349 101.85000000000001
decision_type=2 2 2 2 2 2 2 2 2 2 2 2 2 2
left_child=1 2 3 -1 5 6 -2 -7 -4 13 11 -3 -11 -6
right_child=4 10 8 -5 9 7 -8 -9 -10 12 -12 -13 -14 -15
leaf_value=-0.034417763430080829 -0.021171511296733215 -0.020035337250665204 0.0051185112900564737 0.027792509433607056 0.0060089973619505532 -0.049049225257814494 0.028039594578441112 0.0037730553432716004 -0.03928396527979168 0.063529089191970783 0.073732783059161769 0.0050089565550544097 -0.040892954912956282 0.070030722212410842
leaf_weight=297.53582558035851 22.542662590742111 107.01087163388729 102.48943471908569 16.006036683917046 6.3334379941225043 20.352970004081726 224.69869862496853 174.08830630779266 33.359593167901039 6.1166469007730475 7.8232067078351966 204.08208794891834 9.7595804482698423 34.903809443116188
leaf_count=1228 94 435 417 65 32 90 1055 767 138 32 32 835 49 172
internal_value=-0.0021631 -0.014201 -0.0233085 -0.0308972 0.0161635 0.0121646 0.0231163 -0.00120986 -0.00500026 0.0451876 -0.00102968 -0.00326157 0 0.0628123
internal_weight=1267.1 768.307 449.391 313.542 498.796 441.683 247.241 194.441 135.849 57.1135 318.916 311.093 15.8762 41.2372
internal_count=5441 3150 1848 1293 2291 2006 1149 857 555 285 1302 1270 81 204
is_linear=0
shrinkage=0.079


Tree=16
num_leaves=15
num_cat=0
split_feature=1 2 2 63 14 32 44 71 19 72 77 30 84 44
split_gain=33.3748 13.7069 11.8632 9.84298 13.7476 9.67718 8.71307 8.72684 8.63946 7.53031 9.6939 7.51361 6.50216 5.61398
threshold=1484.1518235129895 1497.9905667423341 1439.7237777877324 0.5083389060666833 0.54772727272727284 1.5000000000000002 123.90000000000002 100.13500000000002 115.05000000000001 99.700000000000003 117.55000000000003 0.50693811534857469 0.39999999999999863 117.63333333333334
decision_type=2 2 2 2 2 2 2 2 2 2 2 2 2 2
left_child=2 5 3 4 -1 11 7 -4 -7 10 -3 -2 -5 -11
right_child=1 9 6 12 -6 8 -8 -9 -10 13 -12 -13 -14 -15
leaf_value=-0.031855296099450273 0.066545408795892172 -0.021679191783305476 -0.043306419364441524 0 0.050968383627711132 0.026030095375324042 0.058295839725120153 -0.016852056517114425 -0.0027083560808058567 0.0039542726438031245 0.026108015310117794 0 0.056349534619759195 0.044984726146794128
leaf_weight=62.753492072224617 44.559611558914185 147.3650233745575 129.21735890209675 26.711437344551086 14.852605253458021 154.90434880554676 7.0122906714677802 255.21172143518925 102.0741374194622 224.1424979865551 30.447432816028595 11.790280684828756 27.137939140200615 24.189150169491768
leaf_count=258 216 614 538 112 65 728 29 1053 481 945 127 56 116 103
internal_value=-0.00196854 0.00873669 -0.0173128 0.00248928 -0.0146075 0.021285 -0.024237 -0.0260261 0.0141978 -0.000238297 -0.0128895 0.0516764 0.0291176 0.00838813
internal_weight=1262.37 739.472 522.897 131.455 77.6061 313.328 391.441 384.429 256.978 426.144 177.812 56.3499 53.8494 248.332
internal_count=5441 3270 2171 551 323 1481 1620 1591 1209 1789 741 272 228 1048
is_linear=0
shrinkage=0.079


Tree=17
num_leaves=15
num_cat=0
split_feature=1 2 79 68 0 63 42 45 46 16 73 83 24 16
split_gain=28.5524 17.8887 11.9179 13.7391 9.99487 9.66874 9.54298 7.97798 7.18139 7.00717 6.69405 6.01936 5.72024 4.04703
threshold=1466.8464447238273 1426.965266879414 113.10000000000001 0.67948717948717963 1.0000000180025095e-35 34.770387525643407 111.7 -0.90000000000000557 -13.399999999999997 114.55000000000001 4.542052115967409 -1.6500000000000055 4.2928571428571436 111.05000000000001
decision_type=2 2 2 2 2 2 2 2 2 2 2 2 2 2
left_child=2 6 8 10 9 -6 11 -8 -1 -3 -4 -2 -10 -5
right_child=1 4 3 13 5 -7 7 -9 12 -11 -12 -13 -14 -15
leaf_value=0.034163388913879329 0.068093250326651714 -0.040795643433860246 0.0057389308363402546 -0.091923611717953865 0.0087433829811653513 -0.024895370369579992 -0.064811114303071779 0.017523477351928489 -0.029089491029526876 0 -0.025215078519000858 0.02648801366795759 -0.068920544180894702 -0.0027976488176927913
leaf_weight=7.4509834051132193 41.44634036719799 55.169337227940559 183.72826147079468 14.605969265103342 511.31004117429256 58.27874581515789 9.7656435370445234 28.237346932291985 131.41057015955448 41.018722429871559 56.62667079269886 76.454052269458771 34.982037127017975 7.417636811733245
leaf_count=31 213 225 759 63 2201 254 45 140 550 166 233 382 148 31
internal_value=-0.00178908 0.00678806 -0.0181909 -0.00704047 0.000979832 0.00511189 0.0308981 -0.00084115 -0.0343983 -0.0223663 -0.00110885 0.0420375 -0.0381193 -0.0668195
internal_weight=1257.9 821.68 436.222 262.379 665.777 569.589 155.903 38.003 173.844 96.1881 240.355 117.9 166.393 22.0236
internal_count=5441 3626 1815 1086 2846 2455 780 185 729 391 992 595 698 94
is_linear=0
shrinkage=0.079


Tree=18
num_leaves=15
num_cat=0
split_feature=4 26 26 26 14 4 6 18 15 19 6 1 1 18
split_gain=28.7361 11.4273 8.71769 10.2957 8.22526 8.71191 6.26831 6.44676 5.13622 4.45104 4.38234 3.84761 3.80523 3.56755
threshold=0.58629906881470528 655.50000000000011 598.50000000000011 628.50000000000011 0.6858552631578948 0.50439044230685959 1.2651910310627583 115.65000000000002 0.67948717948717963 110.15000000000002 0.90248424457567678 1561.379209140285 1615.5150856907537 110.05000000000001
decision_type=2 2 2 2 2 2 2 2 2 2 2 2 2 2
left_child=1 4 6 10 8 -6 7 -2 -1 -5 -4 13 -8 -3
right_child=2 11 3 9 5 -7 12 -9 -10 -11 -12 -13 -14 -15
leaf_value=-0.014116672656562855 0.016849181747739229 0 -0.10475376760478053 -0.049160370261505305 0.029637220673700719 -0.012600798138872313 0.060986451335114801 -0.020686521033523537 -0.037948387788757483 0.014812855771241216 -0.0012100016348194041 0 0.00058938357999013835 0.081089850908077576
leaf_weight=543.22434079647064 349.7293809056282 6.9506729990243974 9.2253458648920041 7.7425638288259497 52.60807791352272 68.897158056497574 32.420728161931038 28.580201208591461 71.07249091565609 42.924066498875618 6.6061435490846625 7.8505342006683341 12.778413206338881 12.92976728081703
leaf_count=2236 1629 29 40 35 214 284 164 125 300 199 32 33 67 54
internal_value=-0.0016524 -0.0113103 0.0131771 -0.0124846 -0.0132952 0.00480556 0.0174607 0.0137282 -0.0170504 0.00289575 -0.0684001 0.0374474 0.0462979 0.0562268
internal_weight=1253.54 763.533 490.007 66.4981 735.802 121.505 423.509 378.31 614.297 50.6666 15.8315 27.731 45.1991 19.8804
internal_count=5441 3150 2291 306 3034 498 1985 1754 2536 234 72 116 231 83
is_linear=0
shrinkage=0.079


Tree=19
num_leaves=14
num_cat=0
split_feature=4 45 26 43 43 19 83 22 2 20 63 48 25
split_gain=24.4491 10.6913 9.06944 9.22813 7.56948 8.15305 9.88006 7.07097 5.32182 5.57694 4.28569 4.26648 3.7374
threshold=0.58629906881470528 -16.699999999999999 690.50000000000011 101.90000000000002 111.90000000000002 115.15000000000002 5.0500000000000052 0.70294117647058829 1539.9603842082327 5.5000000000000009 35.918357659054216 0.55000000000000016 7.5000000000000009
decision_type=2 2 2 2 2 2 2 2 2 2 2 2 2
left_child=1 12 3 -3 8 7 -7 -6 9 -2 -10 -4 -1
right_child=4 2 11 -5 5 6 -8 -9 10 -11 -12 -13 -14
leaf_value=-0.092235439437056282 0.018384089933280168 0.017478878019912557 0.0057589336688375122 -0.013107768128635695 0.031228545925588054 -0.007824738148862951 -0.096506058678825349 -0.015317121344185527 0.003496420545862214 0.053957319640417986 -0.063863714859803217 0.094296448007330086 -0.0090875343448828822
leaf_weight=13.740726888179781 241.15312008559704 65.055439546704292 12.409472763538362 655.44936500489712 58.967943593859673 69.6787069439888 9.4778469204902631 27.582501664757729 37.649057567119598 36.150088131427765 6.6053831428289405 7.0687529295682898 8.6718738973140699
leaf_count=58 1149 266 52 2707 271 320 43 130 170 179 29 30 37
internal_value=-0.00152383 -0.0104339 -0.00863651 -0.0101964 0.0121965 -0.000909913 -0.0198302 0.0151539 0.0192842 0.0234139 -0.00416548 0.0434869 -0.0649031
internal_weight=1249.66 762.396 739.983 720.505 487.265 165.707 79.1566 86.5504 321.558 277.303 44.2544 19.4782 22.4126
internal_count=5441 3150 3055 2973 2291 764 363 401 1527 1328 199 82 95
is_linear=0
shrinkage=0.079


Tree=20
num_leaves=16
num_cat=0
split_feature=3 32 43 43 72 48 17 85 16 74 63 45 75 17 27
split_gain=22.6607 10.3477 9.94664 7.64878 7.33614 7.2415 6.94813 6.92535 6.48502 6.39753 6.29917 5.3064 5.23188 4.60815 3.34254
threshold=22.273085947847225 1.5000000000000002 105.63333333333334 104.7 99.700000000000003 0.55000000000000016 107.25000000000001 -4.6000000000000005 106.53571428571429 0.19890987940355256 32.646757433774845 -2.7333333333333338 0.19331647069546989 106.95000000000002 121.50000000000001
decision_type=2 2 2 2 2 2 2 2 2 2 2 2 2 2 2
left_child=1 3 10 13 7 6 -3 -4 -6 -5 11 -2 -7 -1 -12
right_child=2 5 4 9 8 12 -8 -9 -10 -11 14 -13 -14 -15 -16
leaf_value=0 -0.012570639091459493 -0.0010333597168907965 -0.078097399798195494 -0.059014998494133643 -0.031309606774559851 0 -0.020907013957080389 -0.004057850591324328 0.017227694263049757 0.0072813919455272831 0.033225042806662962 0.044183876960895978 0.070698204791044231 0.073413557582010458 -0.020571717352640555
leaf_weight=6.9305270910263088 8.2138199061155301 165.24594047665596 9.116611719131468 9.7831073105335218 17.172166928648949 27.572074189782143 414.34892311692238 92.848905503749847 219.84620167315006 110.84276740252972 11.301650464534761 106.55004458129406 9.3151444345712644 16.817236572504044 19.712135329842567
leaf_count=28 38 678 42 40 77 114 1718 434 1031 459 55 522 40 69 91
internal_value=-3.58849e-05 -0.00862672 0.0132259 0.00999086 0.00541581 -0.0131613 -0.0154266 -0.0117507 0.0132546 0.00100163 0.0306458 0.0391838 0.019507 0.0510775 0
internal_weight=1245.62 760.856 484.762 144.374 338.984 616.482 579.595 101.966 237.018 120.626 145.778 114.764 36.8872 23.7478 31.0138
internal_count=5436 3146 2290 596 1584 2550 2396 476 1108 499 706 560 154 97 146
is_linear=0
shrinkage=0.079


Tree=21
num_leaves=15
num_cat=0
split_feature=3 43 32 43 74 48 44 24 17 12 29 18 75 18
split_gain=19.1882 9.09186 8.79468 6.61803 6.80971 6.23914 6.22024 5.72336 5.13444 9.157 6.61398 4.87385 4.46878 2.44403
threshold=22.273085947847225 101.7 1.5000000000000002 105.90000000000002 0.19890987940355256 0.55000000000000016 95.300000000000026 -7.2928571428571418 111.55000000000001 0.31666666666666671 0.62898906811950306 106.55000000000001 0.19331647069546989 97.15000000000002
decision_type=2 2 2 2 2 2 2 2 2 2 2 2 2 2
left_child=2 7 3 11 -5 6 -4 -2 9 -3 -10 -1 -7 -9
right_child=1 8 5 4 -6 12 -8 13 10 -11 -12 -13 -14 -15
leaf_value=0.065960070031127069 -0.005763406591137 -0.035364623832882185 0.03234072831067953 -0.06478013484802192 0.0064489887300652072 0 -0.01574525145303737 0 0.0032255002211935713 0.018020154706155818 -0.040701791447760344 0 0.065734987660209881 0.057672645291435266
leaf_weight=19.261017322540287 9.6261339932680112 20.43661504983902 15.867966607213019 9.034043684601782 107.47216020524502 27.572074189782143 563.0516160428524 5.8572028726339331 108.85291734337807 265.14819578826427 25.773466482758522 8.5722701996564847 9.2325060069560987 46.313880383968353
leaf_count=79 47 87 65 37 445 114 2331 29 501 1280 120 35 40 226
internal_value=-3.32086e-05 0.0122092 -0.00793847 0.00919294 0 -0.0121292 -0.0142402 0.0409129 0.00772984 0.0138206 -0.00439295 0.0438219 0.0181443 0.051582
internal_weight=1242.07 482.008 760.064 144.339 116.506 615.724 578.92 61.7972 420.211 285.585 134.626 27.8333 36.8046 52.1711
internal_count=5436 2290 3146 596 482 2550 2396 302 1988 1367 621 114 154 255
is_linear=0
shrinkage=0.079


Tree=22
num_leaves=15
num_cat=0
split_feature=7 43 16 64 24 17 29 31 8 63 18 41 29 4
split_gain=17.8893 12.5957 11.2501 9.40651 8.46436 7.88213 6.96646 6.90288 6.63477 6.25939 5.98542 5.95003 5.68879 3.46275
threshold=1.0000000180025095e-35 104.50000000000001 106.41428571428573 -43.595605399400704 -3.5916666666666663 112.25000000000001 0.54465572251955552 11.500000000000002 0.65981494000338026 -10.379119699891588 97.15000000000002 114.50000000000001 0.46615562343358402 0.38916204724451314
decision_type=2 2 2 2 2 2 2 2 2 2 2 2 2 2
left_child=4 6 5 -4 8 -3 11 12 9 -1 -8 -2 -6 -10
right_child=1 2 3 -5 7 -7 10 -9 13 -11 -12 -13 -14 -15
leaf_value=-0.00037865570493430498 0.011064901451615939 -0.0098608925593481993 0.046317098191845499 0.0017821889775614253 -0.016573222785446165 -0.058644004579893827 -0.016665756592696278 0.042694160120713316 0 0.065882736211192533 0.041106294440514807 -0.066651553057498661 -0.047710931017689001 -0.071617415901902792
leaf_weight=12.95101083815098 96.385065987706184 107.42896173894405 31.505109757184982 630.50361974537373 96.469915702939034 28.471555590629578 9.7284822613000852 7.0286294221878043 6.9991884678602201 16.198455303907394 102.62003582715988 6.3062144964933387 79.170508205890656 6.899638906121254
leaf_count=55 419 453 138 2795 404 122 46 29 30 68 487 28 334 28
internal_value=-4.4161e-06 0.00439038 -4.92031e-05 0.00406577 -0.0202009 -0.0208815 0.021361 -0.0277872 0.00949322 0.0327886 0.0351447 0.00522955 -0.0312256 -0.0316164
internal_weight=1238.67 1012.95 797.909 662.009 225.717 135.901 215.04 182.669 43.0483 29.1495 112.349 102.691 175.64 13.8988
internal_count=5436 4488 3508 2933 948 575 980 767 181 123 533 447 738 58
is_linear=0
shrinkage=0.079


Tree=23
num_leaves=14
num_cat=0
split_feature=7 10 46 19 6 3 24 46 24 16 24 46 80
split_gain=15.2609 11.0054 12.7361 8.4051 9.05186 9.11864 8.02988 7.45811 8.77477 7.6828 7.21307 1.70177 0.52135
threshold=1.0000000180025095e-35 0.45000000000000007 14.700000000000005 119.45000000000002 0.41887519592623507 -103.01897401115194 -4.3923076923076918 -2.5499999999999967 6.4722222222222232 100.25000000000001 7.354166666666667 17.600000000000005 116.35000000000001
decision_type=2 2 2 2 2 2 2 2 2 2 2 2 2
left_child=3 7 10 4 6 -6 -1 9 -9 -2 -3 -4 -5
right_child=1 2 11 12 5 -7 -8 8 -10 -11 -12 -13 -14
leaf_value=0.048743058352639396 -0.050118482524676475 0.0092642758356434977 -0.081811296184457094 -0.10116194270410175 -0.016250755146892545 -0.078625906674203286 -0.0084748858585406619 -0.0087140481145428529 -0.054122268811338581 0.012100432111401428 0.038175599419283252 -0.010366406178194683 -0.031216090734009713
leaf_weight=17.882813423871994 13.113591089844702 559.14679612219334 9.3537127822637576 8.474725738167761 63.966632932424545 22.118880972266197 105.23611254990101 182.71602515876293 33.357088580727577 141.74494582414627 63.470857486128807 7.8943751603364936 7.1337387412786475
leaf_count=74 55 2540 39 36 280 92 436 770 143 616 291 34 30
internal_value=-7.20823e-06 0.00404624 0.0103882 -0.0187083 -0.0138974 -0.0335455 0 -0.00660417 -0.0162274 0.00612989 0.0123857 -0.0554001 -0.0761779
internal_weight=1235.61 1010.8 639.866 224.813 209.204 86.0855 123.119 370.932 216.073 154.859 622.618 17.2481 15.6085
internal_count=5436 4488 2904 948 882 372 510 1584 913 671 2831 73 66
is_linear=0
shrinkage=0.079


Tree=24
num_leaves=15
num_cat=0
split_feature=43 0 41 72 29 41 80 16 2 85 33 41 44 71
split_gain=13.4046 10.7153 10.58 9.67365 8.58123 7.46421 11.8264 6.9629 6.35315 7.48117 5.69699 4.60924 4.49039 4.16322
threshold=101.7 1.0000000180025095e-35 101.30000000000003 99.700000000000003 0.42114275414563812 115.50000000000001 116.70000000000002 112.15000000000002 1477.5797379194541 2.2500000000000004 -7.4999999999999991 106.50000000000001 102.45000000000002 102.31000000000002
decision_type=2 2 2 2 2 2 2 2 2 2 2 2 2 2
left_child=2 5 8 4 -3 10 -7 -5 -1 -10 -2 13 -13 -4
right_child=1 3 11 7 -6 6 -8 -9 9 -11 -12 12 -14 -15
leaf_value=0.045844720488676084 0.010216481671220714 -0.030169919852902908 0.074513404471154773 -0.0013842483975521228 -0.0011425375007036692 -0.013688216994551805 0.073196691822372942 0.015589831427365778 -0.057955022123054381 0.029440965062037437 -0.032680509980506686 -0.034740939066452994 0.030624414026148135 0
leaf_weight=8.259748309850691 18.116504997014999 94.591360911726952 31.116570591926575 290.15530040860176 219.58335071802139 38.576593950390816 12.719177007675169 292.11292032897472 19.641940847039226 7.0246863216161719 144.09382165968418 6.3064712584018698 42.116202622652054 7.8870724439620963
leaf_count=39 77 403 143 1267 973 160 52 1329 82 30 616 28 202 35
internal_value=-4.24639e-05 -0.00286515 0.024681 0.000808559 -0.0102259 -0.0187911 0.00579036 0.00694715 -0.00965557 -0.0309011 -0.0272264 0.0396255 0.0198787 0.0613566
internal_weight=1232.3 1109.95 122.353 896.443 314.175 213.506 51.2958 582.268 34.9264 26.6666 162.21 87.4263 48.4227 39.0036
internal_count=5436 4877 559 3972 1376 905 212 2596 151 112 693 408 230 178
is_linear=0
shrinkage=0.079


Tree=25
num_leaves=15
num_cat=0
split_feature=32 14 1 2 45 13 43 46 43 43 16 15 86 84
split_gain=13.658 18.01 9.70492 8.88976 8.37612 7.64346 7.04865 6.86281 9.63534 7.36221 6.1449 5.29098 3.62471 2.80518
threshold=1.5000000000000002 0.6858552631578948 1405.935277166783 1314.8794516810847 12.299999999999999 0.70714285714285718 102.10000000000001 -6.5499999999999963 115.10000000000001 119.30000000000003 107.31666666666668 0.45227272727272733 -3.600000000000001 -0.14999999999999855
decision_type=2 2 2 2 2 2 2 2 2 2 2 2 2 2
left_child=1 6 7 13 12 -5 11 9 -9 -2 -8 -1 -3 -4
right_child=2 4 3 5 -6 -7 10 8 -10 -11 -12 -13 -14 -15
leaf_value=0.10689293250470192 -0.0083549522761838923 0.011001504097770093 0 0.0014890275683727236 -0.01283403791845957 -0.029667251322170279 -0.023837330393857697 -0.0064493762113862051 -0.049849300551449649 0.070294813186180027 0.010012656711938584 0 0.073819080309582369 0.069861569836430867
leaf_weight=6.8937285691499701 28.896703228354454 11.314095228910444 6.2524494379758861 751.74457167088985 7.8635793924331656 52.430274933576584 50.553849935531616 74.359787225723267 66.249697268009186 9.376163497567175 96.918137714266777 8.0740627944469434 48.067939296364784 15.004994928836821
leaf_count=34 120 53 34 3322 39 220 216 322 288 39 423 34 227 88
internal_value=0.00118256 0.0186208 -0.00269897 0.00079176 0.0531248 -0.000409651 0.00366907 -0.0194046 -0.0276675 0.00814497 -0.000865138 0.0554258 0.0636697 0.0512298
internal_weight=1234 229.685 1004.31 825.432 67.2456 804.175 162.44 178.882 140.609 38.2729 147.472 14.9678 59.382 21.2574
internal_count=5459 1026 4433 3664 319 3542 707 769 610 159 639 68 280 122
is_linear=0
shrinkage=0.079


Tree=26
num_leaves=15
num_cat=0
split_feature=20 32 2 45 86 86 70 42 74 24 45 73 86 35
split_gain=11.7761 13.887 9.99076 9.10855 8.19635 10.0275 9.16783 7.916 9.19226 6.96553 6.62054 6.07278 6.55675 5.82084
threshold=1.5000000000000002 1.5000000000000002 1440.9296491537634 12.299999999999999 3.1500000000000061 1.3000000000000045 211.35290340199751 109.90000000000002 0.28918615639026701 -0.7100840336134453 -11.799999999999988 3.9915330844678611 -1.6500000000000055 1.5000000000000002
decision_type=2 2 2 2 2 2 2 2 2 2 2 2 2 2
left_child=2 3 7 9 5 -4 -6 10 -9 -2 -1 12 -3 -13
right_child=1 11 4 -5 6 -7 -8 8 -10 -11 -12 13 -14 -15
leaf_value=-0.024182186680622345 0.017673871403766458 -0.022453440706035877 -0.0090755969178626505 -0.025147895612890353 0.02388649350650128 0.021055725703544751 -0.031755141672896274 -0.035430793241567796 0.022977741584747767 0.076306869412114925 0.030526292517350589 0.0035479266767436714 0.006781512617433161 0.039668657975302897
leaf_weight=13.563341096043585 27.192413449287415 73.116385877132416 388.40634843707085 8.5993549227714521 18.958232626318932 82.489795416593552 142.79539889097214 38.647530660033226 27.773541122674942 38.64160430431366 109.03860965371132 79.376886054873466 131.65812911093235 50.321015775203705
leaf_count=57 126 325 1655 42 81 356 617 175 125 184 518 375 585 238
internal_value=0.00110436 0.0121278 -0.00425092 0.0431752 -0.00910768 -0.00356822 -0.0245666 0.011435 -0.00939137 0.0537379 0.0235937 0.00489425 -0.0031341 0.018396
internal_weight=1230.58 408.906 821.673 74.4334 632.65 470.896 161.754 189.023 66.4211 65.834 122.602 334.472 204.775 129.698
internal_count=5459 1875 3584 352 2709 2011 698 875 300 310 575 1523 910 613
is_linear=0
shrinkage=0.079


Tree=27
num_leaves=14
num_cat=0
split_feature=32 14 82 42 3 30 45 43 80 15 8 24 86
split_gain=10.7102 14.9476 7.82885 9.3166 11.1445 10.2546 6.98775 5.98652 5.54497 4.68409 3.85927 4.26851 3.11758
threshold=1.5000000000000002 0.6858552631578948 -10.399999999999999 113.45000000000002 22.273085947847225 0.38742919253360092 12.299999999999999 102.10000000000001 112.85000000000001 0.45227272727272733 0.52062900218853858 -1.0263157894736838 -3.600000000000001
decision_type=2 2 2 2 2 2 2 2 2 2 2 2 2
left_child=1 7 10 4 -4 -5 12 9 -9 -1 -2 -12 -3
right_child=2 6 3 5 -6 -7 -8 8 -10 -11 11 -13 -14
leaf_value=0.10160892828302873 0.070600766234499471 0.0087823219963169587 -0.007229147905467438 -0.058252388580464699 0.014168957127687105 -0.0094711004893595022 -0.010127585862569503 -0.02408695509786437 0.0086458360469202685 0 0.045828181429358905 -0.022757574778357569 0.068228402097855204
leaf_weight=6.5411391258239737 12.722083970904349 11.193136334419249 345.03471422195435 30.806330919265747 268.28496162593365 323.26966018974781 7.9609784036874762 47.101908043026924 99.638986527919769 8.0596811473369581 10.776931926608084 9.9746651053428668 46.317964464426041
leaf_count=34 54 53 1436 137 1317 1395 39 206 433 34 49 45 227
internal_value=0.00103797 0.0165975 -0.00238112 -0.00378158 0.00195609 -0.014023 0.0485457 0.00296107 -0.00113152 0.0513601 0.034855 0.00770438 0.0585358
internal_weight=1227.68 226.814 1000.87 967.396 613.32 354.076 65.4721 161.342 146.741 14.6008 33.4737 20.7516 57.5111
internal_count=5459 1026 4433 4285 2753 1532 319 707 639 68 148 94 280
is_linear=0
shrinkage=0.079


Tree=28
num_leaves=15
num_cat=0
split_feature=20 32 1 15 45 8 42 14 24 45 74 18 74 40
split_gain=9.59713 10.7042 8.22075 7.91241 7.65344 7.45786 7.38425 7.21757 6.07975 5.6951 5.37319 8.10509 7.17203 3.955
threshold=1.5000000000000002 1.5000000000000002 1405.935277166783 0.30384615384615393 12.299999999999999 0.50854763296317951 104.30000000000003 0.51315789473684215 -0.7100840336134453 -10.700000000000001 0.35737937559129618 102.22500000000001 0.27666265221463943 0.18333333333333335
decision_type=2 2 2 2 2 2 2 2 2 2 2 2 2 2
left_child=2 4 5 6 8 9 -4 -5 -2 -1 12 -12 -3 -7
right_child=1 10 3 7 -6 13 -8 -9 -10 -11 11 -13 -14 -15
leaf_value=-0.030857201646442761 0.014666225549242332 0.011995860891265529 0.044634444465064212 0.0075926669924007298 -0.022960213355116679 -0.0450160394392067 0.0043385042186171469 -0.012369776000780796 0.070325907179071251 0.0046741135022411329 -0.025145159236300955 0.069820868881864048 -0.012275086434813119 0.0017561643738551709
leaf_weight=39.012920945882797 26.807431600987911 179.56745485961437 42.379669860005379 180.37568850815296 8.6775469928979856 64.599102884531021 108.64812423288822 285.77831800282001 37.158452481031418 89.481879219412804 6.1567157655954388 17.743810549378395 129.8992840051651 8.4363887161016446
leaf_count=171 126 828 212 756 42 285 502 1240 184 383 28 80 587 35
internal_value=0.000968866 0.0109687 -0.00385918 0.000496038 0.0386516 -0.0177282 0.0163633 -0.00441496 0.0486951 -0.00528213 0.00461141 0.040867 0.00146075 -0.0381442
internal_weight=1224.72 406.011 818.712 617.182 72.6434 201.53 151.028 466.154 63.9659 128.495 333.367 23.9005 309.467 73.0355
internal_count=5459 1875 3584 2710 352 874 714 1996 310 554 1523 108 1415 320
is_linear=0
shrinkage=0.079


Tree=29
num_leaves=14
num_cat=0
split_feature=43 41 73 17 28 24 63 25 29 86 19 2 46
split_gain=8.70752 12.8102 9.82792 8.04134 6.96797 6.55325 5.28173 5.93434 5.46178 5.08833 4.00886 3.07359 0.489929
threshold=101.7 101.30000000000003 -7.3869499698613614 109.25000000000001 -175.49999999999997 -3.7709790209790204 30.084881343202031 4.5000000000000009 0.69302588153552203 4.6000000000000023 112.42270237370666 1540.7316210123347 6.3999999999999995
decision_type=2 2 2 2 2 2 2 2 2 2 2 2 2
left_child=1 9 11 4 -4 -5 8 -8 -3 10 -1 -2 -13
right_child=2 6 3 5 -6 -7 7 -9 -10 -11 -12 12 -14
leaf_value=-0.056616317610232607 -0.010147968413999625 0.063606877376854387 -0.034650750986005063 0.0089333662583932719 0.00986898329839523 -0.010688228026919561 0.04039684158918521 -0.027105004557627717 0 0.032775803315196229 0 -0.029582613682277256 -0.10445591577722316
leaf_weight=18.115170747041706 12.526788339018823 46.668958954513073 22.104248747229576 131.88146628439426 455.82905462384224 464.54715694487095 17.75730495154858 13.485301598906515 7.909118026494979 7.8937024027109137 9.8192862868309003 6.3586286604404432 7.1497053354978561
leaf_count=79 52 223 95 572 2079 2032 86 62 41 35 44 28 31
internal_value=0.000911136 0.0210149 -0.00121418 0 0.00758326 -0.00616918 0.0379736 0.0078269 0.0532504 -0.0166085 -0.0344246 -0.0491489 -0.0772829
internal_weight=1222.05 121.649 1100.4 1074.36 477.933 596.429 85.8207 31.2426 54.5781 35.8282 27.9345 26.0351 13.5083
internal_count=5459 570 4889 4778 2174 2604 412 148 264 158 123 111 59
is_linear=0
shrinkage=0.079


Tree=30
num_leaves=13
num_cat=0
split_feature=43 5 13 22 41 64 40 26 77 71 30 83
split_gain=13.3481 14.5663 8.02097 9.53342 5.83591 7.11297 5.98972 5.72097 4.38313 3.37227 3.33172 0.510965
threshold=101.90000000000002 0.2101559364800035 0.31666666666666671 0.14835164835164841 101.30000000000003 9.7254537601318152 0.36666666666666675 508.50000000000006 117.95000000000002 100.60000000000001 0.50693811534857469 -2.100000000000001
decision_type=2 2 2 2 2 2 2 2 2 2 2 2
left_child=4 11 7 -4 5 9 8 -3 -6 -1 -8 -2
right_child=1 2 3 -5 6 -7 10 -9 -10 -11 -12 -13
leaf_value=0 -0.02119517908246896 0.01379450895833601 -0.031513493336326151 -0.0024665016908559188 0.063568904269332566 -0.051861983408002195 0.029517793732116802 -0.010364948053123551 0 0.050847532490786024 -0.015248589370719682 -0.087855371174799579
leaf_weight=11.756496638059618 6.0455860942602184 283.88169961422682 81.142669454216957 637.41433131694794 43.50904692709446 11.890839323401449 23.101613335311413 72.812537029385567 7.402646839618682 12.882867231965063 15.493592247366903 12.418250709772108
leaf_count=53 28 1314 347 2770 198 51 128 346 35 58 75 58
internal_value=0.00041797 -0.00229792 -0.00100091 -0.00589723 0.0248333 0 0.0357084 0.00856119 0.0540069 0.0223613 0.00876708 -0.0719042
internal_weight=1219.75 1093.72 1075.25 718.557 126.037 36.5302 89.5069 356.694 50.9117 24.6394 38.5952 18.4638
internal_count=5461 4863 4777 3117 598 162 436 1660 233 111 203 86
is_linear=0
shrinkage=0.079


Tree=31
num_leaves=10
num_cat=0
split_feature=5 43 30 30 84 41 4 64 83
split_gain=11.654 9.99824 7.36287 6.90168 6.40588 5.86032 5.88818 5.58043 4.00355
threshold=0.2101559364800035 101.90000000000002 0.68819254140355068 0.6406602254428343 0.54999999999999727 101.30000000000003 0.5109186505786566 9.7254537601318152 -2.3000000000000038
decision_type=2 2 2 2 2 2 2 2 2
left_child=8 5 3 -3 -4 7 -7 -2 -1
right_child=1 2 4 -5 -6 6 -8 -9 -10
leaf_value=0 0.016525184725459618 -0.00082179095839336443 0.0095073171532179326 0.029865630156153837 -0.0451679502554121 0.071979871772370946 0.019906452501434357 -0.050153605364777559 -0.08610772163377442
leaf_weight=6.5356096029281643 24.073237642645836 969.50659472495317 15.392864808440207 47.832856267690659 41.731581822037697 21.30897481739521 67.012653216719627 11.241016164422033 12.844681829214094
leaf_count=30 109 4334 65 202 176 88 347 48 62
internal_value=0.000350824 0.00142219 -0.000930211 0.000516234 -0.0285577 0.0227302 0.0337049 -0.00168253 -0.0602524
internal_weight=1217.48 1198.1 1074.46 1017.34 57.1244 123.636 88.3216 35.3143 19.3803
internal_count=5461 5369 4777 4536 241 592 435 157 92
is_linear=0
shrinkage=0.079


Tree=32
num_leaves=10
num_cat=0
split_feature=5 43 18 75 17 8 67 16 84
split_gain=10.2394 8.61355 10.6388 5.51408 8.1908 7.82475 5.06695 4.61263 1.31607
threshold=0.2101559364800035 101.45000000000002 98.225000000000009 0.23103087388801677 111.65000000000002 0.48654681467181476 0.73030303030303034 101.05000000000001 0.25000000000000006
decision_type=2 2 2 2 2 2 2 2 2
left_child=8 2 6 5 -5 -3 -2 -4 -1
right_child=1 3 7 4 -6 -7 -8 -9 -10
leaf_value=-0.08004521438157243 0.013041171775887938 0.0068325498754125639 -0.015836199522518871 0.020060197559223027 -0.0070536279230300186 -0.0095838110375473153 -0.061923891932197224 0.040044770803666294 -0.014677094631927848
leaf_weight=10.642698407173159 7.0554626584053066 263.87904638051987 7.4134237319231024 166.21960142254829 111.97908721864223 545.70532978326082 11.875653237104414 83.146546773612499 8.282657861709593
leaf_count=52 34 1144 33 798 499 2401 57 403 40
internal_value=0.000318641 0.00131841 0.022468 -0.000712167 0.00876071 -0.00410024 -0.0283401 0.0342807 -0.0571695
internal_weight=1216.2 1197.27 109.491 1087.78 278.199 809.584 18.9311 90.56 18.9254
internal_count=5461 5369 527 4842 1297 3545 91 436 92
is_linear=0
shrinkage=0.079


Tree=33
num_leaves=13
num_cat=0
split_feature=16 43 83 5 18 13 44 73 72 71 73 43
split_gain=9.1283 11.3828 7.82875 7.64191 7.5661 6.1167 5.00175 4.52816 3.75415 2.67095 2.64219 1.28227
threshold=101.05000000000001 101.45000000000002 1.3999999999999988 0.2101559364800035 98.225000000000009 0.31666666666666671 112.90000000000002 3.1587069235680763 98.055000000000021 100.36000000000001 -2.4044020770363512 114.30000000000003
decision_type=2 2 2 2 2 2 2 2 2 2 2 2
left_child=2 4 6 11 7 -5 8 -2 -1 -6 -4 -3
right_child=1 3 10 5 9 -7 -8 -9 -10 -11 -12 -13
leaf_value=-0.039170282044078721 0.003665683984143563 -0.0068395212999395822 -0.11524220363482253 0.0089031883759377057 0.019169428930118707 -0.0039111519323175 -0.064334314515910304 -0.076821183300083376 0.025643070792194248 0.053602119919376898 -0.028674727049267268 -0.079578393996242849
leaf_weight=6.9486149251461056 10.457722291350366 6.2807104885578147 8.2084967941045779 346.99835684150457 41.994580812752247 700.88922044634819 7.7463084459304801 5.6021644175052634 20.498241767287254 41.035158172249794 9.0355948507785779 8.7488467246294004
leaf_count=31 49 31 37 1627 209 3044 34 28 88 198 41 44
internal_value=0.000274416 0.00181729 -0.0318505 -0.000471133 0.027442 0.000229796 -0.00701496 -0.017817 0.00530084 0.0374927 -0.0762229 -0.056386
internal_weight=1214.44 1162.01 52.4373 1062.92 99.0896 1047.89 35.1932 16.0599 27.4469 83.0297 17.2441 15.0296
internal_count=5461 5230 231 4746 484 4671 153 77 119 407 78 75
is_linear=0
shrinkage=0.079


Tree=34
num_leaves=9
num_cat=0
split_feature=5 43 48 85 26 36 41 83
split_gain=8.06342 6.40719 5.30763 6.89741 6.40992 4.51241 4.50645 3.57072
threshold=0.2101559364800035 101.90000000000002 0.55000000000000016 -1.2499999999999998 559.50000000000011 1.0000000180025095e-35 101.30000000000003 -2.3000000000000038
decision_type=2 2 2 2 2 2 2 2
left_child=7 5 4 -4 -3 6 -2 -1
right_child=1 2 3 -5 -6 -7 -8 -9
leaf_value=0 0 0.00014804422723444625 -0.012402641721450057 0.041335500043842746 -0.018258797826590435 -0.043927732582751428 0.032454369647167192 -0.077707986862103326
leaf_weight=6.3747647702693966 33.861121982336044 878.69311182200909 19.625970900058746 40.285917565226555 134.47840003669262 5.7332751452922812 81.651595659554005 11.763726994395254
leaf_count=30 151 3910 84 179 604 28 413 62
internal_value=0.000224955 0.00110763 -0.000741545 0.0219419 -0.0021895 0.018356 0.0223872 -0.0518928
internal_weight=1212.47 1194.33 1073.08 59.9119 1013.17 121.246 115.513 18.1385
internal_count=5461 5369 4777 263 4514 592 564 92
is_linear=0
shrinkage=0.079


Tree=35
num_leaves=14
num_cat=0
split_feature=75 46 24 85 5 70 27 47 9 16 74 22 64
split_gain=10.186 10.8094 6.20025 10.5661 6.99624 6.14936 5.85039 4.90348 9.53562 5.08327 4.59108 4.20441 7.8799
threshold=0.19657494145199064 10.450000000000005 -7.4772727272727257 2.6000000000000019 0.51160982855859605 221.36425578190855 250.50000000000003 0.55000000000000016 1.7322884966524652 111.33750000000002 0.29190867886520067 0.73030303030303045 31.158869586247082
decision_type=2 2 2 2 2 2 2 2 2 2 2 2 2
left_child=2 5 3 4 -1 6 -2 9 -9 -4 -5 12 -3
right_child=1 11 7 10 -6 -7 -8 8 -10 -11 -12 -13 -14
leaf_value=-0.08060756940391095 0.022820626138445339 -0.051400157740188981 -0.0071881314918101251 0.054634304722276449 -0.012371651269381665 0.072022012524281948 0.0032535116892078307 -0.059240751850746155 0.01581196901536731 0.0069092053563890822 -0.015664008193916768 -0.083607500954219385 0.020667197260067337
leaf_weight=23.638853922486305 178.47954053431749 17.638155743479729 353.93067745864391 10.490414634346964 22.798657655715942 11.726985603570936 237.8542750030756 25.773274570703506 14.767608270049093 287.95302864909172 9.4694581478834134 7.494183048605918 17.944791480898857
leaf_count=101 872 76 1563 46 103 54 1089 108 69 1269 45 33 77
internal_value=0.000662239 0.00983976 -0.00496868 -0.0281771 -0.0494468 0.0138035 0.0119008 -0.00255209 -0.0292613 -0.000696578 0.0159326 -0.0270387 -0.0120512
internal_weight=1219.96 471.138 748.822 66.3974 46.4375 428.061 416.334 682.425 40.5409 641.884 19.9599 43.0771 35.5829
internal_count=5505 2201 3304 295 204 2015 1961 3009 177 2832 91 186 153
is_linear=0
shrinkage=0.079


Tree=36
num_leaves=15
num_cat=0
split_feature=75 46 19 18 15 1 75 10 42 83 85 75 86 86
split_gain=8.71632 9.91873 7.20731 9.29437 9.11724 7.42085 7.25544 6.53617 5.77434 5.08305 6.22015 4.46096 5.7014 4.41126
threshold=0.19519411170443068 10.450000000000005 108.95000000000002 109.95000000000002 0.23303167420814483 1571.2211265988074 0.1747280383670605 0.77500000000000013 114.10000000000001 -0.8499999999999942 -2.350000000000001 0.21351240636704122 3.0499999999999976 -2.3000000000000038
decision_type=2 2 2 2 2 2 2 2 2 2 2 2 2 2
left_child=2 11 3 4 -1 7 -7 -4 -5 -3 -11 13 -13 -2
right_child=1 9 5 8 -6 6 -8 -9 -10 10 -12 12 -14 -15
leaf_value=0.032396487547021284 -0.0038316352894214117 -0.068970593984704912 -0.0068510206311704512 0.010676624778598556 -0.037956062542276001 0.053935984928228042 -0.0040897194478347262 0.018410781909985869 -0.028983416124222627 0.056921509804621996 -0.026868417745601121 0.014821692519694191 -0.0074605993170979842 0.043209584990427687
leaf_weight=11.10879113525152 11.128131568431852 12.711269214749334 376.29500006139278 86.104695811867714 113.83929626643658 30.527265354990959 18.34717957675457 75.756380468606949 31.184064358472824 6.8132767677307156 24.051681861281395 279.33061976730824 89.247915022075176 51.168403834104538
leaf_count=53 50 54 1633 374 496 153 92 342 138 30 104 1332 423 231
internal_value=0.000604946 0.00904752 -0.00464055 -0.0158453 -0.0308357 0.000563908 0.0299666 -0.00237902 0 -0.0260572 -0.00485959 0.0128486 0.00913461 0.0330847
internal_weight=1217.61 474.451 743.163 242.237 124.948 500.926 48.8744 452.051 117.289 43.5762 30.865 430.875 368.579 62.2965
internal_count=5505 2224 3281 1061 549 2220 245 1975 512 188 134 2036 1755 281
is_linear=0
shrinkage=0.079


Tree=37
num_leaves=14
num_cat=0
split_feature=20 74 26 26 64 21 86 63 22 44 21 1 42
split_gain=8.59096 7.56349 5.97193 9.96716 7.19142 6.03829 4.88491 12.2609 7.80027 4.58007 4.5621 1.14535 0.487904
threshold=1.5000000000000002 0.36860768943635686 715.50000000000011 430.50000000000006 -28.470012172826952 4.5000000000000009 3.1500000000000061 19.842164887653556 0.64495798319327746 103.90000000000002 -2.4999999999999996 1600.4642218420879 102.10000000000001
decision_type=2 2 2 2 2 2 2 2 2 2 2 2 2
left_child=1 6 3 5 -5 -2 8 -8 -1 12 -11 -4 -3
right_child=2 9 11 4 -6 -7 7 -9 -10 10 -12 -13 -14
leaf_value=0.0065905924586506298 0.01889164679702552 -0.015735417133952632 0.069832326890792676 -0.058008405869571233 -0.0017255387329365168 -0.039841693130484128 -0.003596270920054905 -0.058796970442197449 -0.015078295571560955 0 -0.071594749582680445 0.0023104289570664272 0.013436822212047022
leaf_weight=443.75939682126045 256.10605718940496 6.6755465418100339 12.877770110964777 17.487293943762779 99.307838618755341 10.274155333638189 161.57447636127472 30.976685404777527 134.11508573591709 6.0562372505664852 22.232095092535019 5.812678411602973 7.6441401243209839
leaf_count=1947 1215 29 60 83 461 44 725 138 614 28 99 28 34
internal_value=0.00054683 -0.0040297 0.0100728 0.00761626 -0.0110841 0.0162191 -0.00208892 -0.0130418 0.0013752 -0.0365779 -0.054991 0.0546079 0
internal_weight=1214.9 813.034 401.866 383.175 116.795 266.38 770.426 192.551 577.874 42.608 28.2883 18.6904 14.3197
internal_count=5505 3614 1891 1803 544 1259 3424 863 2561 190 127 88 63
is_linear=0
shrinkage=0.079


Tree=38
num_leaves=12
num_cat=0
split_feature=20 19 19 73 8 70 26 86 40 40 70
split_gain=7.30793 7.70257 10.7871 6.60331 5.52584 6.42655 7.98144 6.6052 3.77716 2.02062 0.987577
threshold=1.5000000000000002 122.55000000000001 120.95000000000002 -4.9980162152837684 0.84698996655518399 217.87620564647418 715.50000000000011 -0.54999999999999705 0.20000000000000001 -1.0000000180025095e-35 219.80417252974988
decision_type=2 2 2 2 2 2 2 2 2 2 2
left_child=1 2 3 -1 5 7 -7 -2 10 -4 -3
right_child=4 8 9 -5 -6 6 -8 -9 -10 -11 -12
leaf_value=-0.028854486274846776 0.0028512779343844484 0.083435949371294421 -0.010841054273760394 -0.0013648089023385538 -0.054262195848784785 -0.0024389569701403963 0.051649086414437217 0.036186905908033452 0 -0.091580634245152129 0.015764027925668212
leaf_weight=60.223853513598442 72.514931298792362 9.4798195660114342 6.5192721188068417 712.32133630663157 7.7867069244384757 205.47210928797722 18.382725775241852 96.406738221645355 6.8905466645956031 10.706949919462202 7.1016555279493323
leaf_count=268 346 42 29 3160 40 950 88 467 34 49 32
internal_value=0.000480102 -0.0037281 -0.00517495 -0.00364781 0.00929167 0.0108289 0.00152871 0.0225153 0.0403307 -0.0673188 0.0609969
internal_weight=1213.81 813.243 789.771 772.545 400.563 392.777 223.855 168.922 23.472 17.2262 16.5815
internal_count=5505 3614 3506 3428 1891 1851 1038 813 108 78 74
is_linear=0
shrinkage=0.079


Tree=39
num_leaves=12
num_cat=0
split_feature=16 66 46 40 20 72 41 29 16 29 14
split_gain=6.9382 6.75664 6.50122 8.03979 7.52632 6.16385 4.86151 5.55558 4.80997 1.62774 1.61768
threshold=111.55000000000001 6.5000000000000009 -13.700000000000001 0.36666666666666675 -1.0000000180025095e-35 100.83000000000001 114.90000000000002 0.62898906811950306 110.21111111111112 0.57563800427920253 0.58578431372549034
decision_type=2 2 2 2 2 2 2 2 2 2 2
left_child=1 6 9 5 -5 -4 7 -1 -8 10 -2
right_child=2 -3 3 4 -6 -7 8 -9 -10 -11 -12
leaf_value=-0.0044017659439992913 0.049708679272967946 -0.067142387495691888 0.0020447593493163247 -0.053566062956877776 -0.0025442871610049486 0.021104782635253502 0.033473700903984757 -0.038185278548961511 -0.012667073596390514 0.087533136711825818 0
leaf_weight=485.9551499709487 6.4321525841951388 11.149447083473204 289.47733901441097 22.933617599308491 110.52751187980175 181.36119918525219 39.105523377656937 33.818229913711548 17.872401103377342 7.3752910792827597 6.4070960357785225
leaf_count=2171 30 51 1275 107 559 809 175 166 81 44 37
internal_value=0.000427164 -0.00563635 0.00630722 0.00463566 -0.012126 0.00961544 -0.00425787 -0.00680847 0.0171168 0.0508941 0.0213529
internal_weight=1212.41 587.901 624.514 604.3 133.461 470.839 576.751 519.773 56.9779 20.2145 12.8392
internal_count=5505 2644 2861 2750 666 2084 2593 2337 256 111 67
is_linear=0
shrinkage=0.079


Tree=40
num_leaves=15
num_cat=0
split_feature=72 64 64 85 5 24 24 73 44 79 72 22 63 16
split_gain=9.51633 7.76275 9.48509 8.04146 7.8982 7.15903 8.89532 6.13839 5.90926 5.50085 4.79893 3.55975 3.2773 3.15349
threshold=100.05500000000002 38.302141039796204 41.714500762370228 5.1000000000000023 0.79717551996002467 -4.0277777777777768 -4.9705882352941169 8.534303642812235 106.50000000000001 117.30000000000001 100.16017872550229 0.40588235294117653 -21.888521950445917 111.45000000000002
decision_type=2 2 2 2 2 2 2 2 2 2 2 2 2 2
left_child=1 3 -3 4 -1 6 9 10 -5 -2 -7 -4 -9 -8
right_child=5 2 11 8 -6 7 13 12 -10 -11 -12 -13 -14 -15
leaf_value=-0.019168289725751474 0.017517683352188718 0.093373651642810626 -0.052382014399429314 -0.014728075963840534 0.02704373909918301 0.021580550077298984 0.093412021209996157 -0.0067010217242391241 0.042560263011349214 -0.025139511845671765 -0.0055123582028087301 0.018355610884551517 0.033586104815891804 0.022363797955128387
leaf_weight=397.34312128275633 105.34843443334103 9.3375866860151309 6.1668348014354732 15.837164163589476 22.612727515399456 43.648270905017853 12.944719240069391 11.56786999106407 26.570910975337029 21.238885655999184 462.13393341004848 15.46066242456436 47.673481442034245 12.900737404823301
leaf_count=1745 491 41 27 70 128 210 56 54 122 96 2078 71 240 61
internal_value=-0.00174309 -0.0102503 0.0269191 -0.0129734 -0.0164225 0.00395696 0.0191505 0 0.0186387 0.00950811 -0.0029608 0 0.0239072 0.0621635
internal_weight=1210.79 493.329 30.9651 462.364 419.956 717.456 152.433 565.024 42.4081 126.587 505.782 21.6275 59.2414 25.8455
internal_count=5490 2204 139 2065 1873 3286 704 2582 192 587 2288 98 294 117
is_linear=0
shrinkage=0.079


Tree=41
num_leaves=12
num_cat=0
split_feature=82 32 86 43 82 63 23 63 28 26 23
split_gain=6.0226 7.54615 7.47445 8.06808 6.8767 8.0521 6.83833 6.06674 6.02296 5.86584 5.47583
threshold=-10.399999999999999 1.5000000000000002 -3.5499999999999967 110.90000000000002 3.8000000000000003 47.254565873521877 0.78759398496240618 -28.873481288099693 -3.9999999999999996 634.50000000000011 0.35147058823529415
decision_type=2 2 2 2 2 2 2 2 2 2 2
left_child=2 6 10 -4 9 -6 7 -2 -8 -3 -1
right_child=1 4 3 -5 5 -7 8 -9 -10 -11 -12
leaf_value=0 -0.017344157241588203 -0.012132262626933458 0.030816021162250944 -0.080246564691364625 0.0076276189090428671 -0.075378617231407583 -0.034776277413098362 0.023415124063272095 0.04748421336137084 0.013991880500491572 0.081980884436066354
leaf_weight=6.5185511410236385 23.658215776085854 640.14652702212334 9.7611647397279757 6.467970445752143 254.29662757366896 7.3127782344818106 31.199788808822632 153.07681859284639 5.7963383793830863 54.79531766474247 16.668145045638084
leaf_count=29 107 2881 47 28 1156 33 137 721 28 248 75
internal_value=-0.00157653 -0.00268387 0.0285558 -0.00690012 -0.0057556 0.00488888 0.01056 0.0173493 -0.0189601 -0.00991733 0.0579791
internal_weight=1209.7 1170.28 39.4158 16.2291 956.551 261.609 213.731 176.735 36.9961 694.942 23.1867
internal_count=5490 5311 179 75 4318 1189 993 828 165 3129 104
is_linear=0
shrinkage=0.079


Tree=42
num_leaves=13
num_cat=0
split_feature=72 21 75 3 6 27 3 18 18 18 74 86
split_gain=7.96519 6.04754 5.92176 6.72543 6.88417 6.03181 5.65446 6.35563 5.45426 7.4817 4.8625 4.02119
threshold=100.05500000000002 -8.4999999999999982 0.14496376811594205 -34.299660945460566 0.78158198241331645 103.50000000000001 18.579838876659895 120.85000000000001 100.15000000000002 104.05000000000001 0.27666265221463943 -0.24999999999999997
decision_type=2 2 2 2 2 2 2 2 2 2 2 2
left_child=2 -2 6 5 -5 -4 7 -1 10 -10 -3 -8
right_child=1 8 3 4 -6 -7 11 -9 9 -11 -12 -13
leaf_value=-0.031656702633774604 -0.054389776144926932 0 0.077764818640161784 -0.01962697462464634 0.022275959141134134 0.005413613274667042 -0.019735185035878428 0.041667976010596006 0.029507619556118588 0.0033578670387749794 -0.051468077951007114 0.033582788507614161
leaf_weight=139.31375083327293 10.665151983499525 22.136940032243729 8.06118595600128 151.05441185086966 26.939900353550911 127.67722526192665 15.105274453759192 6.5294765084981909 79.968953594565392 583.80763784050941 19.285265766084194 18.091477885842323
leaf_count=603 55 108 34 699 133 550 69 28 388 2642 93 88
internal_value=-0.00143904 0.00377585 -0.00923264 -0.00230059 -0.0126788 0.0105169 -0.0207775 -0.02763 0.00481 0.00667124 -0.0224082 0.00609198
internal_weight=1208.64 715.864 492.773 313.733 177.994 135.738 179.04 145.843 705.199 663.777 41.4222 33.1968
internal_count=5490 3286 2204 1416 832 584 788 631 3231 3030 201 157
is_linear=0
shrinkage=0.079


Tree=43
num_leaves=13
num_cat=0
split_feature=17 46 79 70 17 72 64 64 16 72 43 85
split_gain=7.35051 8.38529 8.00069 8.37446 6.39373 6.24536 7.73323 5.72937 4.46948 4.15883 4.03748 3.01866
threshold=101.85000000000001 -16.399999999999995 117.30000000000001 220.09096061597765 100.53571428571429 100.05500000000002 38.302141039796204 19.001706755840704 110.95000000000002 97.565000000000012 111.10000000000001 0.89999999999999869
decision_type=2 2 2 2 2 2 2 2 2 2 2 2
left_child=2 11 3 9 10 6 -3 -7 -5 -1 -4 -2
right_child=1 5 4 8 -6 7 -8 -9 -10 -11 -12 -13
leaf_value=-0.015925472979475306 0 -0.014191484008063818 -0.091116114090080205 -0.069757101310997882 0.029163047244743352 -0.00338229004173466 0.026623856711074693 0.014499157378447692 0.010968631103177183 0.040505812425574071 0 0.093314811457581831
leaf_weight=6.1180232465267173 5.859792694449423 428.33527698367834 8.6795634627342242 7.6967170089483243 6.7912549227476111 465.85891861468554 29.354015722870827 146.19159765541553 5.5234046876430511 84.124015621840954 6.158256232738494 7.3317829892039299
leaf_count=27 30 1908 41 35 33 2129 132 651 29 408 28 39
internal_value=-0.00129904 -0.00347591 0.0166843 0.0263345 -0.0244908 -0.00434217 -0.0113376 0.000713726 -0.0279679 0.0354861 -0.0562842 0.0585041
internal_weight=1208.02 1082.93 125.091 103.462 21.6291 1069.74 457.689 612.051 13.2201 90.242 14.8378 13.1916
internal_count=5490 4889 601 499 102 4820 2040 2780 64 435 69 69
is_linear=0
shrinkage=0.079


Tree=44
num_leaves=12
num_cat=0
split_feature=17 74 86 46 83 74 66 64 44 86 85
split_gain=6.19802 7.5285 7.55583 7.39702 6.46442 5.39951 5.07625 4.25119 5.37742 4.5433 2.65486
threshold=101.85000000000001 0.24871781383972016 -4.6000000000000005 -16.399999999999995 -7.700000000000002 0.34733690513709431 -3.4999999999999996 38.302141039796204 111.45000000000002 -10.249999999999998 0.89999999999999869
decision_type=2 2 2 2 2 2 2 2 2 2 2
left_child=1 2 -1 10 -3 -6 -4 9 -9 -5 -2
right_child=3 4 6 7 5 -7 -8 8 -10 -11 -12
leaf_value=-0.032991575755349042 0 -0.077367876156843055 0 0.044275159714628552 -0.0036867596504626702 0.04229189373928989 0.069839154474709342 0.028574457926219012 -0.015462571901362182 -0.0060860062165386331 0.089370393251811231
leaf_weight=5.434407338500022 5.859792694449423 5.9912821203470221 6.7028427571058264 10.805394157767294 54.848413906991482 20.807644858956337 30.580326989293098 51.900500044226646 22.470389895141125 984.59126831591129 7.0628568679094315
leaf_count=28 30 28 34 48 268 99 144 231 104 4437 39
internal_value=-0.00117744 0.0153777 0.042277 -0.00317866 0 0.00755011 0.0561443 -0.00399082 0.0138242 -0.00543015 0.0556215
internal_weight=1207.06 124.365 42.7176 1082.69 81.6473 75.6561 37.2832 1069.77 74.3709 995.397 12.9226
internal_count=5490 601 206 4889 395 367 178 4820 335 4485 69
is_linear=0
shrinkage=0.079


Tree=45
num_leaves=16
num_cat=0
split_feature=32 14 22 66 24 81 18 24 16 47 80 12 63 46 43
split_gain=5.75957 7.2365 5.5322 6.78886 4.73043 6.02144 7.16019 5.44567 7.62784 6.20019 5.17629 3.03379 3.66283 2.43302 2.37995
threshold=1.5000000000000002 0.71008403361344552 0.13961038961038963 1.0000000180025095e-35 -7.4772727272727257 -4.9499999999999993 104.72500000000001 -3.5916666666666663 120.05000000000001 0.45000000000000007 112.85000000000001 0.89444444444444449 8.5519529334122826 4.9000000000000066 104.90000000000002
decision_type=2 2 2 2 2 2 2 2 2 2 2 2 2 2 2
left_child=1 2 14 -4 5 10 -7 8 -6 -9 -2 13 -13 -3 -1
right_child=4 11 3 -5 7 6 -8 9 -10 -11 -12 12 -14 -15 -16
leaf_value=0 -0.033146436796991093 0.073964554422734932 -0.0055737442854500597 0.027090618731314568 0.019081888730126378 -0.07400735193905518 -0.013581958239394893 0.024214619240118248 -0.045880537292498191 -0.0055778063378989166 0.048648061979810496 0.045328536771084074 -0.032315158811658834 0.0052506689525672161 -0.045954210448903701
leaf_weight=7.1404880881309536 6.2281138598918941 19.266465738415722 74.944412894546986 75.431214928627014 132.95544293522835 18.72660581022501 55.059005483984947 45.519112169742584 11.481260463595389 686.34230260550976 12.887101307511328 7.9250896722078306 6.3598897010087967 8.1780506074428541 17.343039661645889
leaf_count=32 28 108 345 335 605 89 248 200 52 3104 57 45 33 38 78
internal_value=0 0.0116294 0.00388806 0.010099 -0.0026193 -0.0196137 -0.0303956 -0.000694457 0.0131664 -0.00357717 0.0163759 0.0414706 0.00325832 0.0574259 -0.0298434
internal_weight=1185.79 216.589 174.859 150.376 969.199 92.9008 73.7856 876.298 144.437 731.861 19.1152 41.7295 14.285 27.4445 24.4835
internal_count=5397 1014 790 680 4383 422 337 3961 657 3304 85 224 78 146 110
is_linear=0
shrinkage=0.079


Tree=46
num_leaves=14
num_cat=0
split_feature=16 68 29 63 20 81 70 80 32 32 44 30 1
split_gain=5.05876 7.10115 7.17282 8.20919 7.74476 6.10836 6.06543 7.80572 5.71474 5.2877 8.02934 7.50077 4.32523
threshold=110.41428571428573 0.67948717948717963 0.62578666138927386 -1.2333343260386298 4.5000000000000009 6.8000000000000016 211.14870099263115 116.35000000000001 1.5000000000000002 1.5000000000000002 106.30000000000003 0.71270481780386408 1550.7325808339385
decision_type=2 2 2 2 2 2 2 2 2 2 2 2 2
left_child=1 2 4 -4 -1 8 7 12 -3 10 -8 -11 -2
right_child=6 5 3 -5 -6 -7 9 -9 -10 11 -12 -13 -14
leaf_value=0.0017629475811599838 -0.10546166234554105 0 -0.078657475437696189 0 -0.062123078962852893 0.019767775614799116 -0.013364706379162121 0.02642989446357593 -0.067502909928847152 0.00081274424688488809 0.03442307805771172 0.059233763197606079 0
leaf_weight=415.209227822721 8.9667451977729815 8.3217856138944608 16.09538447111845 18.266261115670204 12.161983340978621 7.2511583268642417 26.090466901659966 5.8507079184055319 28.434212759137154 536.65242954343557 82.47023581713438 14.208090141415594 5.1740946248173705
leaf_count=1847 40 38 78 90 56 33 121 31 133 2438 404 60 28
internal_value=0 -0.00599654 -0.00285212 -0.0375625 0 -0.0365257 0.00443848 -0.0376898 -0.0505587 0.00588015 0.0219483 0.00251753 -0.0718017
internal_weight=1185.15 505.74 461.733 34.3616 427.371 44.0072 679.413 19.9915 36.756 659.421 108.561 550.861 14.1408
internal_count=5397 2275 2071 168 1903 204 3122 99 171 3023 525 2498 68
is_linear=0
shrinkage=0.079


Tree=47
num_leaves=15
num_cat=0
split_feature=32 5 74 83 1 77 74 21 66 42 70 45 46 3
split_gain=4.24464 7.70771 8.11083 5.98427 7.71961 5.61325 5.01421 4.98461 7.65393 5.13891 3.67098 3.02786 2.08415 1.20101
threshold=1.5000000000000002 0.64628006606181809 0.2414626020323172 2.3500000000000019 1508.2578326081366 113.90000000000002 0.26861407249466956 4.5000000000000009 5.5000000000000009 113.90000000000002 220.03414929480834 0.70000000000000295 6.6000000000000165 173.34032216997744
decision_type=2 2 2 2 2 2 2 2 2 2 2 2 2 2
left_child=1 3 13 4 -1 -4 -5 8 9 -2 12 -10 -9 -3
right_child=7 2 5 6 -6 -7 -8 10 11 -11 -12 -13 -14 -15
leaf_value=0.0046994764746784642 0.0016719665556433911 0.10022776583222398 0.048321290196024193 0 -0.038423223921500875 -0.0068531350857295639 0.049767335852138592 0 0.072326129270267409 -0.010805672250278172 0 0 -0.074307640070941386 0.018375679513616898
leaf_weight=70.670367851853371 616.40608815848827 11.805695466697218 17.534834377467632 21.734157577157021 38.0871891528368 26.189360700547695 23.787967279553413 6.3243925422430101 11.998094424605371 302.03060288727283 10.363739818334578 9.4458545893430692 12.777029305696486 5.2532373890280715
leaf_count=303 2818 63 94 95 171 146 106 28 53 1338 46 40 60 36
internal_value=0 0.0100323 0.0338678 0 -0.00942058 0.0128347 0.0246572 -0.00223508 -0.00111317 -0.00231457 -0.0343437 0.0452743 -0.0549196 0.081381
internal_weight=1184.41 215.063 60.7831 154.28 108.758 43.7242 45.5221 969.346 939.881 918.437 29.4652 21.4439 19.1014 17.0589
internal_count=5397 1014 339 675 474 240 201 4383 4249 4156 134 93 88 99
is_linear=0
shrinkage=0.079


Tree=48
num_leaves=14
num_cat=0
split_feature=24 19 13 4 24 21 77 42 73 16 5 13 83
split_gain=4.63144 6.49784 10.6783 11.1457 6.74078 6.74627 3.6993 6.80568 9.27619 5.75145 5.49359 5.12128 3.53905
threshold=-8.436507936507935 109.21111111111112 0.38750000000000007 0.49040667956308531 -9.0416666666666661 -1.4999999999999998 118.90000000000002 108.7 7.4369886467088344 114.95000000000002 0.83194218951666155 0.10555555555555557 2.3000000000000047
decision_type=2 2 2 2 2 2 2 2 2 2 2 2 2
left_child=1 2 -1 -4 5 -3 10 8 -8 -9 11 -2 -12
right_child=6 4 3 -5 -6 -7 7 9 -10 -11 12 -13 -14
leaf_value=0.022135119815518883 -0.023539291723304982 -0.024179693383605247 -0.020119863327580922 -0.12838754455875973 -0.064706912033574565 0.04092919005818188 -0.03820851268459307 0.063001079250802713 0.075175553007200455 0.002683753358736096 0.048627117113723028 0.00044092090334569005 0
leaf_weight=9.936294883489607 58.689391642808914 13.970977067947386 18.372503340244297 11.568464130163191 7.763808697462081 25.85785111784935 20.855853214859966 25.261799037456512 5.3680930733680716 22.722273036837578 23.495295725762844 931.18912594020367 8.8058094754815084
leaf_count=50 277 67 81 51 36 118 102 118 29 104 154 4160 50
internal_value=0 -0.0174761 -0.0410597 -0.0656178 4.05721e-05 0.015394 0.0014106 0.0184478 -0.0108505 0.0366945 6.81564e-05 -0.000872944 0.0322076
internal_weight=1183.86 87.4699 39.8773 29.941 47.5926 39.8288 1096.39 74.208 26.2239 47.9841 1022.18 989.879 32.3011
internal_count=5397 403 182 132 221 185 4994 353 131 222 4641 4437 204
is_linear=0
shrinkage=0.079


Tree=49
num_leaves=7
num_cat=0
split_feature=19 26 24 70 84 44
split_gain=4.09977 4.08828 4.01892 5.39396 3.87474 3.63211
threshold=126.05000000000001 763.50000000000011 -8.436507936507935 213.81440549563433 11.400000000000007 113.50000000000001
decision_type=2 2 2 2 2 2
left_child=1 2 3 -1 -4 -3
right_child=-2 5 4 -5 -6 -7
leaf_value=-0.041806031571764997 0.06212660418255609 0.071340718053028038 -3.9689406859626141e-05 0 0.056629059126639632 0
leaf_weight=34.154077395796776 6.5680141299962989 9.2544658407568914 1067.4318857192993 52.035448536276817 7.5347888171672812 6.2630124241113654
leaf_count=159 31 43 4860 238 35 31
internal_value=0 -0.000329754 -0.000958976 -0.0173915 0.00025904 0.0397599
internal_weight=1183.24 1176.67 1161.16 86.1895 1074.97 15.5175
internal_count=5397 5366 5292 397 4895 74
is_linear=0
shrinkage=0.079


Tree=50
num_leaves=13
num_cat=0
split_feature=33 20 21 29 33 43 27 72 22 41 41 65
split_gain=6.46559 5.98176 5.76613 5.84532 14.6112 7.04598 5.68788 5.43822 5.01737 5.34702 4.73676 4.52387
threshold=1.0000000180025095e-35 2.5000000000000004 -8.4999999999999982 0.54559793518784072 -5.4999999999999991 112.22500000000001 382.50000000000006 99.170000000000016 0.21825396825396828 118.7 120.90000000000002 -1.4999999999999998
decision_type=2 2 2 2 2 2 2 2 2 2 2 2
left_child=2 8 -1 5 -5 -4 10 -8 11 -10 -3 -2
right_child=1 6 3 4 -6 -7 7 -9 9 -11 -12 -13
leaf_value=-0.065752219317328164 0.0081922787864495764 0.046416891373539777 -0.01922557781785985 0.04411416570444484 -0.0032753009860423407 0.0003569244075427618 -0.041728715900421237 0.020997857740507487 0.002106854220397403 0.033798406021928191 -0.015221682018403279 -0.032175858082990928
leaf_weight=9.8072617650032026 22.420014426112175 56.669850744307041 230.0577482432127 48.952047325670719 221.67182394862175 207.75091244280338 12.861925050616263 26.04282458126545 272.9288157299161 39.559945851564407 6.1324631273746482 44.882482059299946
leaf_count=49 102 282 1022 235 1053 909 58 126 1228 179 30 197
internal_value=-0.000122629 0.00686757 -0.00495843 -0.00396261 0.0049035 -0.00968838 0.0239846 0 0.00199936 0.00646535 0.038684 -0.0171348
internal_weight=1199.74 481.498 718.24 708.433 270.624 437.809 101.707 38.9047 379.791 312.489 62.8023 67.3025
internal_count=5470 2202 3268 3219 1288 1931 496 184 1706 1407 312 299
is_linear=0
shrinkage=0.079


Tree=51
num_leaves=15
num_cat=0
split_feature=33 8 75 3 8 2 14 8 64 70 43 75 64 17
split_gain=5.51268 7.3342 12.5015 8.53514 6.51269 7.29998 6.02598 5.74291 8.49356 6.90533 5.22432 7.11801 5.37106 4.97428
threshold=1.0000000180025095e-35 0.44471026049973422 0.08597950268817206 -88.367619123968765 0.35434243176178665 1392.025354659846 0.45804195804195807 0.72240143369175636 -35.077233646716415 210.7703912466844 105.50000000000001 0.18979791835631254 29.017759686228377 108.13333333333334
decision_type=2 2 2 2 2 2 2 2 2 2 2 2 2 2
left_child=7 4 3 -3 13 -6 -4 10 -9 -10 11 -1 -12 -2
right_child=1 2 6 -5 5 -7 -8 8 9 -11 12 -13 -14 -15
leaf_value=-0.0086893700266379992 0.035122395047401514 0.0066380046906800621 -0.011870899823597153 -0.068904878568661829 -0.027124904228844605 0.052721034515993491 0.012020456044975975 0.087772466141774141 -0.060138164820866709 0.012819185408860389 -0.014768422602473271 0.027394889736662074 0.0084018435330484986 -0.033539651419928727
leaf_weight=78.482537448406219 10.896681398153307 11.111215725541113 82.350642681121826 24.770424321293831 6.3676193207502356 52.407602041959763 276.73987251520157 8.7587516680359823 8.7556353509426099 78.520985953509808 419.338154733181 57.21799698472023 67.089665323495865 15.627834379673002
leaf_count=353 46 48 361 111 31 231 1302 42 44 380 1875 277 297 72
internal_value=-9.58236e-05 0.00636337 0.00153604 -0.0425332 0.0274489 0.0422347 0.00624175 -0.00456509 0.0130116 0.00425249 -0.00745148 0.00573646 -0.0113515 -0.00127861
internal_weight=1198.44 480.272 394.972 35.8816 85.2997 58.7752 359.091 718.164 96.0354 87.2766 622.128 135.701 486.428 26.5245
internal_count=5470 2202 1822 159 380 262 1663 3268 466 424 2802 630 2172 118
is_linear=0
shrinkage=0.079


Tree=52
num_leaves=10
num_cat=0
split_feature=47 33 46 70 20 8 29 21 43
split_gain=4.69478 5.02855 6.32677 5.86809 5.84575 5.47588 3.07054 2.10926 1.8382
threshold=0.90000000000000013 1.0000000180025095e-35 14.099999999999996 221.36425578190855 2.5000000000000004 0.72240143369175636 0.45817430025445299 -1.4999999999999998 114.90000000000002
decision_type=2 2 2 2 2 2 2 2 2
left_child=1 3 4 5 -3 -1 -4 -5 -2
right_child=8 2 6 7 -6 -7 -8 -9 -10
leaf_value=-0.0079863204117290067 -0.077838213938647607 0.00377739294836787 0 0 0.026395809971011031 0.01203450686389617 -0.067896118350972229 0.057766042384803644 -0.0012020556421210638
leaf_weight=595.97569370269775 6.6732410341501218 361.80676481127739 6.405760049819949 6.6207592040300396 94.456099048256874 95.736759908497334 9.9105700701475126 12.54367273300886 7.2592521756887436
leaf_count=2685 30 1629 29 30 470 466 43 56 32
internal_value=-7.20452e-05 0.000375251 0.00677257 -0.00372655 0.00869668 -0.00505964 -0.0403817 0.0387285 -0.0456869
internal_weight=1197.39 1183.46 472.579 710.877 456.263 691.712 16.3163 19.1644 13.9325
internal_count=5470 5408 2171 3237 2099 3151 72 86 62
is_linear=0
shrinkage=0.079


Tree=53
num_leaves=12
num_cat=0
split_feature=70 1 45 64 1 33 14 73 2 78 16
split_gain=4.65577 5.84343 7.41951 8.58256 5.45511 5.42545 5.87662 5.35635 5.05873 3.76958 3.60666
threshold=211.14870099263115 1412.0732482089934 -2.9000000000000052 14.819989888812076 1405.935277166783 25.500000000000004 0.28991596638655465 3.9147547743721636 1449.3291347843794 116.60000000000001 106.21111111111112
decision_type=2 2 2 2 2 2 2 2 2 2 2
left_child=1 -1 9 -4 7 6 -6 8 -2 -3 -9
right_child=4 2 3 -5 5 -7 -8 10 -10 -11 -12
leaf_value=0.036674414724886695 0.018030554831486169 -0.078511131828071984 -0.025758514999768486 0.040919240069527629 0.077603913797508375 -0.062514976533547248 0.0040430438505815406 0 -0.012344457470045872 0 -0.050818693206197335
leaf_weight=9.8954560458660108 46.259891226887703 19.045990094542507 44.486012801527977 15.830185323953627 6.9915750920772544 7.3204960227012625 879.44883017241955 9.9508112967014295 119.80764023959637 8.141939237713812 29.140783220529556
leaf_count=42 192 83 212 73 29 32 4043 43 561 34 126
internal_value=-5.62136e-05 -0.0166913 -0.0239634 -0.0064674 0.00132081 0.0040738 0.00474687 -0.0101477 -0.0032347 -0.058784 -0.0367455
internal_weight=1196.32 97.3996 87.5041 60.3162 1098.92 893.761 886.44 205.159 166.068 27.1879 39.0916
internal_count=5470 444 402 285 5026 4104 4072 922 753 117 169
is_linear=0
shrinkage=0.079


Tree=54
num_leaves=10
num_cat=0
split_feature=47 70 27 18 2 15 8 21 43
split_gain=4.08416 4.26348 6.34776 6.02046 5.39202 8.34411 5.25028 4.93806 1.46269
threshold=0.90000000000000013 211.14870099263115 64.500000000000014 101.05000000000001 1518.7044093492257 0.67948717948717963 0.72240143369175636 -3.4999999999999996 114.90000000000002
decision_type=2 2 2 2 2 2 2 2 2
left_child=1 4 3 -3 7 -6 -4 -1 -2
right_child=8 2 6 -5 5 -7 -8 -9 -10
leaf_value=0.0052828143450110573 -0.071673741227005247 -0.019070446627031779 -0.0013892284041366434 0.046968524258756132 0.031249918482437956 -0.053807028475593835 0.016162161636085484 -0.0424048478335005 -0.0008631194135852744
leaf_weight=13.689522564411162 6.6799874603748304 8.7408375889062864 920.16604817658663 35.11369988322258 27.018847823143005 9.3514917045831663 119.72600305825472 47.545218124985695 7.2414952665567398
leaf_count=66 30 43 4175 161 117 42 585 219 32
internal_value=-4.88477e-05 0.000362858 0.00187586 0.0313539 -0.0153319 0.00640384 0.000528583 -0.0299926 -0.0426181
internal_weight=1195.27 1181.35 1083.75 43.8545 97.6051 36.3703 1039.89 61.2347 13.9215
internal_count=5470 5408 4964 204 444 159 4760 285 62
is_linear=0
shrinkage=0.079


Tree=55
num_leaves=13
num_cat=0
split_feature=32 67 40 80 45 45 15 42 30 80 8 19
split_gain=4.39361 6.55332 5.33384 6.23572 4.67967 4.37867 4.44029 5.26929 4.77067 3.73039 2.86309 3.73495
threshold=1.5000000000000002 0.71008403361344552 -0.20000000000000001 112.85000000000001 -2.0999999999999939 -16.699999999999999 0.67948717948717963 113.26666666666668 0.68819254140355068 114.95 0.62199923180334171 113.45000000000002
decision_type=2 2 2 2 2 2 2 2 2 2 2 2
left_child=1 2 3 -1 -4 9 8 -8 -7 -2 -3 -12
right_child=5 10 4 -5 -6 6 7 -9 -10 -11 11 -13
leaf_value=-0.0092715872609063742 -0.074747260600027038 0 -0.032073265082967151 0.03772477178741062 0.002803060971017284 0.0019266941016625879 0.0027012304038082692 -0.03519099405913053 -0.029574129995332044 0 0.070921549186808694 0
leaf_weight=23.145643174648285 9.3974306583404559 9.9772926419973356 32.86458882689476 47.11605466902256 73.067786991596222 837.06958300620317 33.951175004243851 48.960634157061577 30.919458106160164 7.4114012420177451 20.832532517611984 9.9420674070715886
leaf_count=101 43 55 145 205 352 3820 151 223 134 36 116 58
internal_value=0.000490038 0.0107197 0.00343953 0.0207172 -0.00700866 -0.00169252 -0.00086983 -0.0183836 0.000679879 -0.041773 0.0395374 0.0514747
internal_weight=1184.66 216.946 176.194 70.2617 105.932 967.71 950.901 82.9118 867.989 16.8088 40.7519 30.7746
internal_count=5439 1032 803 306 497 4407 4328 374 3954 79 229 174
is_linear=0
shrinkage=0.079


Tree=56
num_leaves=11
num_cat=0
split_feature=64 71 34 71 64 21 81 84 14 63
split_gain=5.23559 7.95415 6.13281 5.61482 4.1764 7.02712 5.59574 2.68654 2.05123 1.25726
threshold=-46.102110442137807 99.700000000000003 3.5000000000000004 102.31000000000002 -30.222370490665863 -8.4999999999999982 3.4000000000000004 -0.45000000000000279 0.58578431372549034 21.768298047641796
decision_type=2 2 2 2 2 2 2 2 2 2
left_child=1 8 4 9 6 -6 -2 -4 -1 -3
right_child=2 3 7 -5 5 -7 -8 -9 -10 -11
leaf_value=0.0078955871329554998 -0.025960911460215029 0.09529939478233633 -0.090069051037837008 0 -0.05754290359287937 0.0025644422570838396 0.011189429881035053 0 -0.042249871063783834 0.017650334369614794
leaf_weight=6.3270152807235709 79.908719971776009 13.263840749859815 6.7872705906629562 8.7513554692268354 12.150247938930987 1004.0461770892143 32.273217275738716 5.6781333461403829 8.4370009526610357 5.6833244264125815
leaf_count=27 368 61 32 41 61 4604 149 28 40 28
internal_value=0.000454097 0.0277286 -0.00046755 0.053583 4.68631e-05 0.00173847 -0.0143156 -0.0555281 -0.0135227 0.0777306
internal_weight=1183.31 42.4625 1140.84 27.6985 1128.38 1016.2 112.182 12.4654 14.764 18.9472
internal_count=5439 197 5242 130 5182 4665 517 60 67 89
is_linear=0
shrinkage=0.079


Tree=57
num_leaves=10
num_cat=0
split_feature=64 15 40 45 85 47 34 8 81
split_gain=4.5544 9.12561 4.78585 4.46323 6.85422 5.31579 4.42554 3.81794 1.70498
threshold=-47.517944801169271 0.54195804195804198 0.52500000000000013 -16.699999999999999 -0.30000000000000421 0.90000000000000013 3.5000000000000004 0.53350604490500875 4.3000000000000016
decision_type=2 2 2 2 2 2 2 2 2
left_child=1 2 -1 4 -2 6 -5 -3 -7
right_child=3 7 -4 5 -6 8 -8 -9 -10
leaf_value=0.098348025253431004 0.0092769743825847871 -0.052944684893382526 0.0020422533915830767 0.001511091222127081 -0.074191801552249692 -0.078975674864842152 -0.044816182602704036 0.016360920091117344 0
leaf_weight=11.777000308036806 8.0313844531774539 7.8580034673213985 7.751300334930419 1099.0353724211454 12.700901120901106 6.8669530749320966 12.898819483816622 10.390606701374052 6.1881217211484909
leaf_count=53 37 35 41 5046 61 31 62 45 28
internal_value=0.000414823 0.0274372 0.0656732 -0.00038304 -0.0367131 0.000191877 0.000875942 -0.00763949 -0.0497367
internal_weight=1183.5 37.7769 19.5283 1145.72 20.7323 1124.99 1111.93 18.2486 13.0551
internal_count=5439 174 94 5265 98 5167 5108 80 59
is_linear=0
shrinkage=0.079


Tree=58
num_leaves=16
num_cat=0
split_feature=13 70 85 15 5 16 29 45 73 19 25 25 70 66 64
split_gain=4.16492 5.80013 5.86345 6.75173 5.27306 7.2089 4.79568 6.65293 5.83391 4.58683 4.37905 5.32881 4.81588 3.34004 1.79936
threshold=0.29285714285714287 212.69256120527311 -0.74999999999999989 0.14642857142857144 0.81071862957071172 117.25000000000001 0.51984140870502449 13.600000000000003 4.0942870555578219 107.31666666666668 2.5000000000000004 1.0000000180025095e-35 215.60718018195075 1.5000000000000002 -2.5102511187265004
decision_type=2 2 2 2 2 2 2 2 2 2 2 2 2 2 2
left_child=1 2 9 -4 10 13 8 -8 -3 -1 11 -2 -12 -6 -7
right_child=4 6 3 -5 5 14 7 -9 -10 -11 12 -13 -14 -15 -16
leaf_value=0.052236343354821781 0.0032837665118058538 0.0017044728401366274 0 0.080140860544833395 0.077716492120224454 0 0.026783343724569364 -0.061809872919179137 -0.042880973809646075 -0.023567615300410343 0.017922050614895657 -0.024099246259688869 -0.0024013404211598081 0 -0.053830577822808749
leaf_weight=7.6010498553514507 61.547694280743599 64.93265738338232 7.1136149093508747 21.363199658691883 14.925470508635049 4.1454792842268944 63.562546961009502 5.1184128001332274 23.522786445915699 14.032181963324545 81.256423875689507 116.25174188613892 686.08075359463692 6.3217028453946105 5.0902386307716352
leaf_count=37 273 297 35 105 91 28 348 31 112 67 371 523 3060 33 28
internal_value=0.000374532 0.0106178 0.0342033 0.0578057 -0.00169152 0.0303381 0.00240812 0.0185948 -0.00894763 0 -0.00283909 -0.014017 -0.000108628 0.0571435 -0.0197172
internal_weight=1182.87 207.246 50.11 28.4768 975.62 30.4829 157.136 68.681 88.4554 21.6332 945.137 177.799 767.337 21.2472 9.23572
internal_count=5439 1032 244 140 4407 180 788 379 409 104 4227 796 3431 124 56
is_linear=0
shrinkage=0.079


Tree=59
num_leaves=15
num_cat=0
split_feature=86 63 86 43 86 19 46 41 85 30 42 30 12 43
split_gain=3.98673 6.01982 7.89125 5.8767 7.56631 5.96208 5.69915 5.62588 4.54926 6.15756 4.94995 4.79786 4.10442 0.988382
threshold=3.0499999999999976 19.842164887653556 3.8499999999999948 105.10000000000001 5.049999999999998 109.73888888888889 -6.1999999999999948 110.90000000000002 7.3499999999999952 0.68819254140355068 120.50000000000001 0.6406602254428343 0.58571428571428574 104.90000000000002
decision_type=2 2 2 2 2 2 2 2 2 2 2 2 2 2
left_child=8 2 6 5 -5 -3 -2 -4 9 11 -11 -1 -10 -14
right_child=1 3 7 4 -6 -7 -8 -9 12 10 -12 -13 13 -15
leaf_value=0.0022929202991965048 0.015904519268744043 -0.035835878566691397 -0.0027815554403478352 -0.08004704252217508 -0.0057573219936016369 0.044407690131529967 -0.040194884020349556 0.026499597733606647 -0.0030915106236874155 -0.011614589505453014 -0.088462029246423074 0.031323883428406731 0.001431367956968421 0.0718711325095438
leaf_weight=775.90900115668774 11.840839624404905 11.772884264588358 110.05980691313744 21.383721590042114 19.960880145430565 11.155581519007681 45.589919656515121 60.658900052309036 6.2606369554996517 44.330345928668976 7.0146086215972892 38.250049367547035 5.0671230480074909 12.562088951468466
leaf_count=3565 60 56 508 98 89 55 207 283 28 199 33 167 28 63
internal_value=0.000355077 -0.00754179 -0.00103181 -0.0289688 -0.0468056 0 -0.0267566 0.00699588 0.00307243 0.0020017 -0.0242471 0.00378982 0.0373242 0.0577439
internal_weight=1181.82 292.423 228.149 64.2731 41.3446 22.9285 57.4308 170.719 889.394 865.504 51.345 814.159 23.8898 17.6292
internal_count=5439 1356 1058 298 187 111 267 791 4083 3964 232 3732 119 91
is_linear=0
shrinkage=0.079


Tree=60
num_leaves=16
num_cat=0
split_feature=72 17 3 3 24 17 24 79 70 70 71 35 30 24 73
split_gain=4.58119 6.01739 8.28388 9.18145 5.84685 5.98984 5.55949 5.52709 5.11411 6.48128 6.46883 4.67945 7.95311 4.42279 2.02338
threshold=100.60000000000001 107.82857142857144 199.98921547340936 160.03527198554255 1.693979933110368 106.73888888888889 -4.0277777777777768 113.75000000000001 217.69534865413661 220.15167305291746 98.330000000000027 1.0000000180025095e-35 0.50693811534857469 -4.9705882352941169 5.7049318008295424
decision_type=2 2 2 2 2 2 2 2 2 2 2 2 2 2 2
left_child=1 4 3 -3 5 -1 11 -6 10 -10 -8 12 -2 -13 -4
right_child=6 2 14 -5 7 -7 8 -9 9 -11 -12 13 -14 -15 -16
leaf_value=-0.013513418138051457 0.030004164659983248 -0.011541483290665329 0.075284822211642885 -0.08526013900809519 -0.0013017427859855456 0.024504347710790603 -0.019621402441405453 0.037166627296541271 -0.018020744727229809 0.0073203053129562148 0.020278310069432249 0.017842002922504593 -0.064375115856224283 0.06969564644097391 0
leaf_weight=122.20756407827139 10.997452028095724 419.24032267183065 7.66644289344549 11.356389105319975 33.629498049616814 31.504813604056835 30.048242695629597 50.745660543441772 150.59904948621988 100.90303799510002 113.99897979944944 70.321932807564735 10.066171824932097 15.151769824326037 5.0009425729513168
leaf_count=581 52 1854 49 56 162 148 141 245 682 462 534 331 45 69 31
internal_value=-0.00191193 -0.00619083 -0.0116908 -0.0137406 0.00359785 -0.00501943 0.00368074 0.020566 -0.000369054 -0.00742705 0.0112073 0.0197211 -0.0100307 0.0283104 0.0494011
internal_weight=1183.44 681.352 443.264 430.597 238.088 153.712 502.087 84.3752 395.549 251.502 144.047 106.537 21.0636 85.4737 12.6674
internal_count=5442 3126 1990 1910 1136 729 2316 407 1819 1144 675 497 97 400 80
is_linear=0
shrinkage=0.079


Tree=61
num_leaves=16
num_cat=0
split_feature=72 42 42 8 83 84 24 30 14 75 15 79 23 84 46
split_gain=3.90117 6.60952 6.11263 8.6598 6.44814 5.13342 4.78246 4.59744 6.67131 4.59123 4.44927 4.16625 5.70639 5.1242 3.58128
