tree
version=v4
num_class=1
num_tree_per_iteration=1
label_index=0
max_feature_idx=43
objective=binary sigmoid:1
feature_names=is_home_favorite home_elo away_elo elo_diff elo_expected elo_surprise handicap_normalized handicap_direction handi_team_past_accuracy handicap_deviation home_wr_5 away_wr_5 home_wr_10 away_wr_10 home_wr_20 away_wr_20 home_score_avg away_score_avg home_concede_avg away_concede_avg home_streak away_streak h2h_home_wr h2h_away_wr h2h_score_diff h2h_count home_points away_points points_diff home_season_wr away_season_wr home_rest_days away_rest_days rest_diff home_games_7d away_games_7d home_back_to_back away_back_to_back total_points_avg home_pace away_pace pace_diff home_close_game_rate home_blowout_rate
feature_infos=[0:1] [1109.8011703173638:1887.4754675430481] [1062.4451920771348:1883.3361169109774] [-639.35910565693325:617.14601761411245] [0.03438784494609045:0.98012009748072249] [0.12263435948950951:0.98012009748072249] [-1.6180081944277016:4.007749656623635] [0:1] [0:1] [-6.614964500273075:16.385035499726925] [0:1] [0:1] [0:1] [0:1] [0:1] [0:1] [91:146] [83:157] [15:140] [94:152] [-17:15] [-15:8] [0:1] [0:1] [-53:62] [0:11] [0:249] [0:246] [-162:182] [0:1] [0:1] [1:30] [1:30] [-29:29] [0:4] [0:5] [0:1] [0:1] [218:233.66666666666666] [91:146] [83:157] [-48:43] [0:1] [0:1]
tree_sizes=2244 2075 1813 1937 2126 2001 1875

Tree=0
num_leaves=20
num_cat=0
split_feature=16 40 11 26 30 3 19 18 33 16 16 31 6 13 18 40 15 19 4
split_gain=12.5307 8.16322 7.11538 6.4298 5.07324 4.34892 4.29357 5.99272 3.99168 3.81529 3.73526 2.68951 2.61001 4.23982 2.43415 1.73611 1.72551 0.968229 0.0912948
threshold=114.70714285714287 116.92916666666669 0.45000000000000007 15.500000000000002 0.59622541201488577 -249.64744432967811 111.78888888888891 117.45000000000002 1.0000000180025095e-35 106.85000000000001 105.36666666666669 8.5000000000000018 -1.312260485131433 0.73214285714285732 111.55000000000001 115.98863636363639 0.2817460317460318 107.15000000000002 0.46940274023627027
decision_type=2 2 2 2 2 2 2 2 2 2 2 2 2 2 2 2 2 2 2
left_child=1 4 6 -3 5 -1 11 8 -8 -6 -7 -2 -4 17 -5 -15 -9 -14 -11
right_child=2 3 12 14 9 10 7 16 -10 18 -12 -13 13 15 -16 -17 -18 -19 -20
leaf_value=-0.077486704305058648 -0.087679416863888179 -0.084295421562386869 -0.082013151660835129 -0.081534540888140869 -0.082013151660835129 -0.0875389807317139 -0.0750703152472465 -0.086963432049411871 -0.082013151660835129 -0.09036689009077481 -0.082120679403260413 -0.081104733430318307 -0.081602971334087004 -0.078600449817515447 -0.07191116818893234 -0.084295421562386869 -0.082013151660835129 -0.073703096074078753 -0.083057632931215541
leaf_weight=8.7353029847145063 8.7353029847145063 5.9899220466613796 7.2378224730491629 6.9882423877716047 7.4874025583267239 12.978164434432982 20.465566992759705 5.2411817908287075 15.723545372486113 13.976484775543215 58.651320040225983 5.2411817908287039 4.9916017055511466 4.9916017055511457 7.4874025583267212 5.989922046661377 11.480683922767637 39.184073388576508 5.2411817908287039
leaf_count=35 35 24 29 28 30 52 82 21 63 56 235 21 20 20 30 24 46 157 21
internal_value=-0.0806922 -0.0828453 -0.0785418 -0.0778191 -0.0840395 -0.0825288 -0.0811101 -0.0797089 -0.0775286 -0.087472 -0.0835294 -0.0850972 -0.0762081 -0.0755254 -0.0747279 -0.0820132 -0.0839131 -0.0742599 -0.0894136
internal_weight=256.818 127.535 129.282 20.4656 107.07 80.3648 66.8875 52.911 36.1891 26.7051 71.6295 13.9765 62.395 55.1572 14.4756 10.9815 16.7219 44.1757 19.2177
internal_count=1029 511 518 82 429 322 268 212 145 107 287 56 250 221 58 44 67 177 77
is_linear=0
shrinkage=1


Tree=1
num_leaves=19
num_cat=0
split_feature=14 19 40 3 43 2 40 43 18 42 2 2 40 34 3 6 18 38
split_gain=8.26175 7.90239 7.61224 6.53214 6.46937 6.07336 4.01316 3.09916 5.11721 3.59892 3.09467 2.21058 4.7071 1.91346 2.97693 1.49863 1.4264 0.128931
threshold=0.45227272727272733 109.15000000000002 116.79285714285716 -45.103867833271231 0.19399641577060936 1443.3923077272573 109.50641025641026 0.12973352033660593 121.75000000000001 0.26975051975051983 1615.91550416019 1614.728308134107 115.3726851851852 1.0000000180025095e-35 41.231599223193491 -0.45616689910188191 106.95000000000002 229.76212511715093
decision_type=2 2 2 2 2 2 2 2 2 2 2 2 2 2 2 2 2 2
left_child=5 11 3 4 -3 13 -5 8 10 -9 -7 15 -13 -1 -15 -2 -4 -10
right_child=1 2 16 6 -6 7 -8 9 17 -11 -12 12 -14 14 -16 -17 -18 -19
leaf_value=-0.0072404837309778319 -0.0069013240475940801 -0.0065187601296821471 0.0004198592797074495 0 0.001872483003216829 0.0058996426775103777 0.0044509837972576891 0.00089070271250261956 -0.0035921296938790921 -0.0064953968717608567 0 0.0046627937538974784 -0.0041050757098684198 0.0027736551425961565 -0.0044344997999215758 0 0.008860796610627681 0
leaf_weight=12.228511974215509 5.24107502400875 11.231126561760904 5.4911623299121883 25.207649171352386 14.725748151540754 20.716209113597873 69.140466913580894 8.7349926680326444 4.9915280044078809 6.4888458698987952 10.232780456542967 8.2362766712903959 5.9900102615356436 5.7399983704090101 6.2393384873867035 8.2365268766880053 22.965446084737778 4.991170734167099
leaf_count=49 21 45 22 101 59 83 277 35 20 26 41 33 24 23 25 33 92 20
internal_value=0.00130921 0.00251605 0.00344032 0.00204931 -0.0019017 -0.00121583 0.00327796 0.000507021 0.00203341 -0.00259055 0.00403608 -0.00190844 0.000343447 -0.00495739 -0.000592001 -0.00427634 0.00783704 -0.00278287
internal_weight=256.829 176.465 148.762 120.305 25.9569 80.3634 94.3481 56.1555 40.9317 15.2238 30.949 27.7039 14.2263 24.2078 11.9793 13.4776 28.4566 9.9827
internal_count=1029 707 596 482 104 322 378 225 164 61 124 111 57 97 48 54 114 40
is_linear=0
shrinkage=0.01


Tree=2
num_leaves=16
num_cat=0
split_feature=16 18 1 19 6 19 41 5 27 18 18 13 42 8 13
split_gain=12.2157 6.96272 7.12166 6.96717 4.95524 4.80239 4.34338 5.31583 4.63131 5.39591 6.88508 2.4015 2.36974 2.0725 1.46927
threshold=114.70714285714287 117.45000000000002 1702.5061212817266 107.05000000000001 -1.312260485131433 113.53571428571429 5.5587301587301576 0.76621376163838339 149.00000000000003 121.63333333333334 111.55000000000001 0.38750000000000007 0.29893617021276603 0.47646733111849399 0.43650793650793657
decision_type=2 2 2 2 2 2 2 2 2 2 2 2 2 2 2
left_child=6 2 3 -2 -5 -4 8 -8 9 10 -1 12 -3 14 -13
right_child=1 11 5 4 -6 -7 7 -9 -10 -11 -12 13 -14 -15 -16
leaf_value=-0.00088509000109490742 -0.0017622307740991115 0.00042955981091163665 0.0031030960623261469 -4.3925214339081803e-06 0.0078579116391528109 -0.0051630304731175468 -0.0082969558338914506 0.0008986412417934217 -0.0050476739504786818 -0.0051328678988919966 0.0042434004696110337 0.0061258396482803488 -0.0059064263416140827 -0.0014061425130943031 0
leaf_weight=47.169905215501785 6.2391275912523261 5.4907100200653058 10.484442189335825 6.2401531040668479 61.914856910705566 7.4897943288087836 10.231814756989481 6.2395564019680014 10.980052307248114 8.2348291873931867 44.677489131689072 5.4916617274284425 6.7380321621894836 8.2375472038984281 10.983333095908163
leaf_count=189 25 22 42 25 248 30 41 25 44 33 179 22 27 33 44
internal_value=0.00129328 0.00341659 0.0048221 0.0061208 0.00705026 -0.000280117 -0.000831832 -0.00494972 0 0.000729846 0.0015966 -1.52273e-05 -0.00318209 0.00148708 0.00338993
internal_weight=256.843 129.31 92.3684 74.3941 68.155 17.9742 127.534 16.4714 111.062 100.082 91.8474 36.9413 12.2287 24.7125 16.475
internal_count=1029 518 370 298 273 72 511 66 445 401 368 148 49 99 66
is_linear=0
shrinkage=0.01


Tree=3
num_leaves=18
num_cat=0
split_feature=16 40 11 30 28 19 4 43 29 20 16 16 6 19 15 2 4
split_gain=12.0098 8.00292 7.02636 4.9748 4.49156 5.70351 4.25775 4.16227 3.7673 3.81625 3.74886 3.69154 2.54228 3.23251 1.91753 0.314306 0.0772787
threshold=114.70714285714287 116.92916666666669 0.45000000000000007 0.59622541201488577 -27.499999999999996 111.31666666666668 0.25129913019886746 0.19782608695652179 0.27931982995748944 1.5000000000000002 106.85000000000001 105.36666666666669 -1.312260485131433 106.42222222222223 0.74342105263157909 1477.4912456834734 0.46940274023627027
decision_type=2 2 2 2 2 2 2 2 2 2 2 2 2 2 2 2 2
left_child=1 3 4 6 -2 15 -1 -7 -3 -10 -5 -8 -4 -14 -15 -6 -12
right_child=2 8 12 10 5 7 11 -9 9 -11 16 -13 13 14 -16 -17 -18
leaf_value=0.0044713989518139104 -0.0047656548980546144 -0.00096768094227758956 0 0 0 0 -0.0054920707305513286 0.005468788605877432 0.0089708038601751978 0 -0.0082795017545435681 -0.00010457997782053438 0 0.0079134874315845323 0.00043652691434390562 -0.0045948078313318855 -0.0010345185046367544
leaf_weight=8.7380805611610395 6.4892655909061423 5.7405127137899425 7.238712638616561 7.4876054674387005 4.9917532801628095 20.469761282205582 12.975446015596388 29.962099403142929 9.736471474170683 4.9927363544702521 13.969998076558115 58.649928852915764 5.4908293783664694 42.201267555356026 7.4899041354656211 4.991542860865593 5.240721881389617
leaf_count=35 26 23 29 30 20 82 52 120 39 20 56 235 22 169 30 20 21
internal_value=0.00127698 -0.000829649 0.0033824 -0.00201255 0.00083681 0.00190971 -0.000514863 0.00336966 0.00414514 0.00638489 -0.00541289 -0.00150575 0.00569811 0.00637166 0.00711228 -0.00346134 -0.00733792
internal_weight=256.857 127.532 129.325 107.062 66.9044 60.4152 80.3635 50.4319 20.4697 14.7292 26.6983 71.6254 62.4207 55.182 49.6912 9.9833 19.2107
internal_count=1029 511 518 429 268 242 322 202 82 59 107 287 250 221 199 40 77
is_linear=0
shrinkage=0.01


Tree=4
num_leaves=19
num_cat=0
split_feature=14 19 2 30 1 17 39 24 31 21 19 3 2 2 2 6 12 17
split_gain=7.95608 7.70067 5.96276 8.17113 5.22376 6.217 6.1139 4.1372 3.54157 3.38572 3.34452 2.70188 2.25917 2.19507 3.16699 1.44895 1.17145 0.616682
threshold=0.45227272727272733 109.15000000000002 1443.3923077272573 0.60797562268150507 1714.0894103832645 105.85000000000001 108.3397129186603 -9.1666666666666661 6.5000000000000009 -1.4999999999999998 113.53571428571429 71.689374229736941 1693.2765396173625 1614.728308134107 1705.7993148017667 -0.45616689910188191 0.73214285714285732 116.53571428571429
decision_type=2 2 2 2 2 2 2 2 2 2 2 2 2 2 2 2 2 2
left_child=2 13 8 7 5 16 -7 -4 11 -9 -6 -1 17 15 -15 -2 -3 -5
right_child=1 4 3 12 10 6 -8 9 -10 -11 -12 -13 -14 14 -16 -17 -18 -19
leaf_value=0.003170659590552371 -0.0068638341362121857 -0.0038954946387675035 -0.0014024551808122965 -0.0067796850673470686 0.0022698978297197633 -0.0029759582596963407 0.0051501498245928434 -1.3617828657043513e-05 -0.0076845345082261563 0.0067739044489768599 -0.005160085346208554 -0.0039491750790915789 2.9200282758215396e-05 0.0036590630725494254 -0.0035816454637010199 0 0.00036901136576213058 -9.1276294660930081e-05
leaf_weight=5.9901069551706332 5.2392734587192527 6.489290699362753 8.2372810095548612 9.2299823164939898 5.4932079166173917 5.2401691228151313 119.09641200304031 6.2403965443372753 12.972684949636458 20.969168409705162 7.4896239340305328 5.2400247156620026 6.2383163273334494 9.2360171079635602 4.9908923208713523 8.237777456641199 4.9930804371833801 5.2419276833534232
leaf_count=24 21 26 33 37 22 21 477 25 52 84 30 21 25 37 20 33 20 21
internal_value=0.00126282 0.00244775 -0.00121359 0.000492395 0.0033611 0.00395949 0.00462855 0.00339198 -0.00492095 0.00514628 -0.00170324 0 -0.00377599 -0.00191603 0.000328012 -0.00427386 -0.00188498 -0.00551613
internal_weight=256.866 176.506 80.3599 56.1571 148.802 135.819 124.337 35.4468 24.2028 27.2096 12.9828 11.2301 20.7102 27.704 14.2269 13.4771 11.4824 14.4719
internal_count=1029 707 322 225 596 544 498 142 97 109 52 45 83 111 57 54 46 58
is_linear=0
shrinkage=0.01


Tree=5
num_leaves=18
num_cat=0
split_feature=39 32 39 17 40 32 9 43 26 24 43 32 5 12 28 33 20
split_gain=14.4989 7.34379 6.81355 6.73477 6.15808 5.2645 4.78342 4.15843 4.04831 4.03631 3.64373 3.41816 2.81762 2.24566 1.95503 1.26234 0.00524705
threshold=111.74038461538463 7.5000000000000009 120.31009615384617 115.41428571428573 115.50714285714288 4.5000000000000009 -4.3649645002730741 0.14119601328903655 105.50000000000001 8.7500000000000018 0.42724867724867727 13.500000000000002 0.53274785955923043 0.5277777777777779 43.500000000000007 4.5000000000000009 -4.4999999999999991
decision_type=2 2 2 2 2 2 2 2 2 2 2 2 2 2 2 2 2
left_child=1 9 3 4 6 8 -2 11 -5 16 12 -3 -4 -14 -12 -7 -1
right_child=2 7 10 5 -6 15 -8 -9 -10 -11 14 -13 13 -15 -16 -17 -18
leaf_value=-0.001069840807255199 -0.0024049869665244924 0.0064141463305934709 0.00080899076830005681 0.0036490504457864993 -0.0052236328243789 0.0095827139022817819 0.0029946149403713689 -0.0037529533619913413 -0.00402042504108319 0 0.0043810173477770937 -0.00073771347829745815 0 -0.0056515471188128951 -0.00088396875427410873 0.00084054771409455636 -0.0079924040118074611
leaf_weight=5.2419103533029547 14.97520789504051 8.4872493296861666 8.7387732118368131 13.983805239200594 8.9860777109861356 18.728701144456867 68.900769785046577 8.9838556647300702 5.2427917420864096 8.2350870519876462 8.7419762313365919 7.2373743355274192 6.990199193358424 23.22295406460762 6.741796448826789 5.7425526082515708 29.446822270750999
leaf_count=21 60 34 35 56 36 75 276 36 21 33 35 29 28 93 27 23 118
internal_value=0 -0.00384615 0.00138405 0.00257639 0.000819583 0.00563695 0.00183699 0.000168328 0.000746803 -0.00614216 -0.00140398 0.0032561 -0.0030322 -0.00438431 0.0019442 0.0083612 -0.00746484
internal_weight=258.628 67.6323 190.996 136.56 92.8621 43.6979 83.876 24.7085 19.2266 42.9238 54.4357 15.7246 38.9519 30.2132 15.4838 24.4713 34.6887
internal_count=1036 271 765 547 372 175 336 99 77 172 218 63 156 121 62 98 139
is_linear=0
shrinkage=0.01


Tree=6
num_leaves=17
num_cat=0
split_feature=39 35 39 17 40 8 24 35 26 39 33 12 40 30 40 17
split_gain=14.2597 7.21348 6.68197 6.64588 6.06735 4.30329 4.09929 3.60874 3.64949 3.24669 2.88168 3.05558 2.65995 3.65821 2.42978 1.38031
threshold=111.74038461538463 1.0000000180025095e-35 120.31009615384617 115.41428571428573 115.50714285714288 0.4649014778325124 8.7500000000000018 1.0000000180025095e-35 104.00000000000001 121.13392857142858 -9.4999999999999982 0.31666666666666671 119.25357142857145 0.43503836317135552 113.50490196078432 113.32422173675589
decision_type=2 2 2 2 2 2 2 2 2 2 2 2 2 2 2 2
left_child=1 10 3 4 5 -2 -3 -5 -9 14 -1 -12 13 -11 -4 -13
right_child=2 6 9 7 -6 -7 -8 8 -10 12 11 15 -14 -15 -16 -17
leaf_value=-0.0036740406109286791 0.0042437363218561621 -0.0075463795284195102 0 0.0084761091671496126 -0.005190768763924665 0 0 0.0042904371157026716 -0.0023085603273155912 -0.0018733730867021431 0.0054968082790508559 -0.0035792623172293467 -0.0041982096674381009 0.0037678032645554198 -0.007247485310874751 0.0013931492547324324
leaf_weight=6.9870455414056805 35.201357439160347 33.430899128317833 5.4923808574676496 19.981598228216171 8.9842066764831525 48.680679067969322 8.2350870519876462 15.983335465192797 7.7394388914108267 13.731337651610373 8.9863056093454379 4.9907446354627591 5.9934145063161841 21.226421922445297 7.9887229204177856 4.9920222759246826
leaf_count=28 141 134 22 80 36 195 33 64 31 55 36 20 24 85 32 20
internal_value=0 -0.00381564 0.00137145 0.00255234 0.00080694 0.0018177 -0.00617365 0.0055922 0.00176229 -0.00138861 3.23048e-05 0.00229633 0 0.00134455 -0.0048753 -0.000790182
internal_weight=258.625 67.6221 191.003 136.571 92.8662 83.882 41.666 43.7044 23.7228 54.4323 25.9561 18.9691 40.9512 34.9578 13.4811 9.98277
internal_count=1036 271 765 547 372 336 167 175 95 218 104 76 164 140 54 40
is_linear=0
shrinkage=0.01


end of trees

feature_importances:
away_pace=10
away_concede_avg=9
away_elo=8
home_score_avg=7
home_concede_avg=7
home_pace=6
handicap_normalized=5
away_score_avg=5
home_blowout_rate=5
elo_diff=4
away_season_wr=4
elo_expected=3
home_wr_10=3
away_wr_10=3
h2h_score_diff=3
home_points=3
away_rest_days=3
rest_diff=3
home_elo=2
elo_surprise=2
handi_team_past_accuracy=2
away_wr_5=2
home_wr_20=2
away_wr_20=2
home_streak=2
points_diff=2
home_rest_days=2
away_games_7d=2
home_close_game_rate=2
handicap_deviation=1
away_streak=1
away_points=1
home_season_wr=1
home_games_7d=1
total_points_avg=1
pace_diff=1

parameters:
[boosting: gbdt]
[objective: binary]
[metric: binary_logloss]
[tree_learner: serial]
[device_type: cpu]
[data_sample_strategy: bagging]
[data: ]
[valid: ]
[num_iterations: 3000]
[learning_rate: 0.01]
[num_leaves: 31]
[num_threads: 0]
[seed: 0]
[deterministic: 0]
[force_col_wise: 0]
[force_row_wise: 0]
[histogram_pool_size: -1]
[max_depth: 5]
[min_data_in_leaf: 20]
[min_sum_hessian_in_leaf: 0.001]
[bagging_fraction: 0.7]
[pos_bagging_fraction: 1]
[neg_bagging_fraction: 1]
[bagging_freq: 5]
[bagging_seed: 3]
[bagging_by_query: 0]
[feature_fraction: 0.6]
[feature_fraction_bynode: 1]
[feature_fraction_seed: 2]
[extra_trees: 0]
[extra_seed: 6]
[early_stopping_round: 0]
[early_stopping_min_delta: 0]
[first_metric_only: 0]
[max_delta_step: 0]
[lambda_l1: 1]
[lambda_l2: 5]
[linear_lambda: 0]
[min_gain_to_split: 0]
[drop_rate: 0.1]
[max_drop: 50]
[skip_drop: 0.5]
[xgboost_dart_mode: 0]
[uniform_drop: 0]
[drop_seed: 4]
[top_rate: 0.2]
[other_rate: 0.1]
[min_data_per_group: 100]
[max_cat_threshold: 32]
[cat_l2: 10]
[cat_smooth: 10]
[max_cat_to_onehot: 4]
[top_k: 20]
[monotone_constraints: ]
[monotone_constraints_method: basic]
[monotone_penalty: 0]
[feature_contri: ]
[forcedsplits_filename: ]
[refit_decay_rate: 0.9]
[cegb_tradeoff: 1]
[cegb_penalty_split: 0]
[cegb_penalty_feature_lazy: ]
[cegb_penalty_feature_coupled: ]
[path_smooth: 0]
[interaction_constraints: ]
[verbosity: -1]
[saved_feature_importance_type: 0]
[use_quantized_grad: 0]
[num_grad_quant_bins: 4]
[quant_train_renew_leaf: 0]
[stochastic_rounding: 1]
[linear_tree: 0]
[max_bin: 255]
[max_bin_by_feature: ]
[min_data_in_bin: 3]
[bin_construct_sample_cnt: 200000]
[data_random_seed: 1]
[is_enable_sparse: 1]
[enable_bundle: 1]
[use_missing: 1]
[zero_as_missing: 0]
[feature_pre_filter: 1]
[pre_partition: 0]
[two_round: 0]
[header: 0]
[label_column: ]
[weight_column: ]
[group_column: ]
[ignore_column: ]
[categorical_feature: ]
[forcedbins_filename: ]
[precise_float_parser: 0]
[parser_config_file: ]
[objective_seed: 5]
[num_class: 1]
[is_unbalance: 0]
[scale_pos_weight: 1]
[sigmoid: 1]
[boost_from_average: 1]
[reg_sqrt: 0]
[alpha: 0.9]
[fair_c: 1]
[poisson_max_delta_step: 0.7]
[tweedie_variance_power: 1.5]
[lambdarank_truncation_level: 30]
[lambdarank_norm: 1]
[label_gain: ]
[lambdarank_position_bias_regularization: 0]
[eval_at: ]
[multi_error_top_k: 1]
[auc_mu_weights: ]
[num_machines: 1]
[local_listen_port: 12400]
[time_out: 120]
[machine_list_filename: ]
[machines: ]
[gpu_platform_id: -1]
[gpu_device_id: -1]
[gpu_use_dp: 0]
[num_gpu: 1]

end of parameters

pandas_categorical:[]
