tree
version=v4
num_class=1
num_tree_per_iteration=1
label_index=0
max_feature_idx=74
objective=binary sigmoid:1
feature_names=is_home_favorite home_elo away_elo elo_diff elo_expected elo_surprise handicap_normalized handicap_direction handi_team_past_accuracy handicap_deviation home_wr_5 away_wr_5 home_wr_10 away_wr_10 home_wr_20 away_wr_20 home_score_avg away_score_avg home_concede_avg away_concede_avg home_streak away_streak h2h_home_wr h2h_away_wr h2h_score_diff h2h_count home_points away_points points_diff home_season_wr away_season_wr home_rest_days away_rest_days rest_diff home_games_7d away_games_7d home_back_to_back away_back_to_back home_recent_form away_recent_form form_diff home_scored_trend away_scored_trend home_conceded_trend away_conceded_trend home_net_trend away_net_trend home_recent_cover away_recent_cover line_movement line_movement_abs has_line_movement line_movement_midday consensus_home_prob consensus_away_prob sharp_home_prob odds_dispersion sharp_soft_gap implied_overround odds_count best_home_odds best_away_odds odds_vs_handicap home_elo_velocity away_elo_velocity home_win_streak away_win_streak home_home_win_rate away_away_win_rate h2h_cover_rate home_clean_sheet_rate away_clean_sheet_rate home_draw_rate away_draw_rate league_avg_goals
feature_infos=[0:1] [1253.6611318038745:1860.0372331508638] [1255.8117707178894:1867.0932429740742] [-474.53574435929113:468.75877253964836] [0.084226492371224676:0.95451323778539865] [0.21668339075536136:0.95451323778539865] [-1.0220648812166013:4.8237677567199224] [0:1] [0:1] [-0.81305084745762712:3.4869491525423726] [0:1] [0:1] [0:1] [0:1] [0:1] [0:1] [0:6] [0:6.5] [0:6] [0:6.5] [-16:16] [-25:11] [0:1] [0:1] [-9:8] [0:6] [0:232] [0:235] [-206:195] [0:1] [0:1] [1:686] [0:883] [-27:27] [0:2] [0:2] none none [0:1] [0:1] [-1:1] [0:6] [0:5.5] [0:5] [0:6] [-5:5] [-5:4.25] [0:1] [0:1] none none none none none none none none none none none none none none [-148.24908550963346:134.81389848660979] [-181.15784875713211:124.76368064622989] [-12:16] [-13:17] [0:1] [0:1] [0:1] [0:1] [0:1] [0:1] [0:1] [0.5:2.8515576323987539]
tree_sizes=1813 1831 1848 1839 1833 1842 1838 1837 1630 1730 1849 1735 1846 1846 1829 1726 1840 1844 1819 1832 1736 1517 1843 1730 1837 1514 1842 1606 1828 1730 1736

Tree=0
num_leaves=16
num_cat=0
split_feature=0 9 9 1 9 9 33 1 32 24 70 16 74 1 74
split_gain=517.842 205.994 67.6029 18.7619 15.0552 14.9567 13.7299 8.4931 6.38706 6.38553 5.5389 5.53433 4.2156 11.3848 2.40768
threshold=1.0000000180025095e-35 0.62108144702855994 -0.19938208887373565 1556.4985341441313 1.3929972493022131 0.080460413230872538 2.5000000000000004 1499.9802070392091 26.500000000000004 -3.0999999999999996 0.33012820512820518 3.4222222222222229 2.7838755983001855 1414.9180307128265 2.8467563829261917
decision_type=2 2 2 2 2 2 2 2 2 2 2 2 2 2 2
left_child=5 2 3 -2 7 6 9 -3 -4 -1 -8 -6 13 -7 -14
right_child=1 4 8 -5 11 12 10 -9 -10 -11 -12 -13 14 -15 -16
leaf_value=-0.22060527045340556 -0.28021064226005682 -0.23254153850394099 -0.21641282221733804 -0.23449651901309068 -0.094161119366294732 -0.27143064060805316 -0.37934247476072014 -0.15639534634732644 -0.28436387395811241 -0.32456734141998728 -0.33050824645641946 -0.20515890456078756 -0.38752301560319058 -0.37609195710533522 -0.3304313561170904
leaf_weight=4.4233274459838858 347.23120450973511 11.795539855957029 298.82034301757812 82.077298164367676 38.08976411819458 10.812578201293944 53.571410179138184 139.82629537582397 10.566837787628172 269.08575296401978 25.557003021240234 3.6861062049865714 60.206401348114014 26.785705089569092 6.1435103416442862
leaf_count=18 1413 48 1216 334 155 44 218 569 43 1095 104 15 245 109 25
internal_value=-0.26545 -0.228695 -0.249384 -0.271468 -0.149683 -0.340485 -0.332022 -0.16231 -0.218738 -0.322881 -0.363594 -0.103914 -0.369177 -0.346031 -0.382263
internal_weight=1388.68 932.093 738.696 429.309 193.398 456.586 352.637 151.622 309.387 273.509 79.1284 41.7759 103.948 37.5983 66.3499
internal_count=5651 3793 3006 1747 787 1858 1435 617 1259 1113 322 170 423 153 270
is_linear=0
shrinkage=1


Tree=1
num_leaves=16
num_cat=0
split_feature=7 29 4 28 5 28 28 32 27 30 21 29 43 33 74
split_gain=436.164 101.308 41.988 12.232 11.6135 10.0531 8.85527 8.26113 8.03228 7.47812 6.17719 3.27199 2.49747 2.4228 0.152156
threshold=1.0000000180025095e-35 0.41213235294117651 0.68427350548378718 60.500000000000007 0.84228727057422559 -84.499999999999986 21.500000000000004 25.500000000000004 34.500000000000007 0.54915769124551239 -4.4999999999999991 0.23420877659574471 2.1000000000000005 2.5000000000000004 2.8225247632849579
decision_type=2 2 2 2 2 2 2 2 2 2 2 2 2 2 2
left_child=5 3 6 7 -4 12 -3 -2 -5 10 -7 -11 13 -1 -14
right_child=1 2 4 8 -6 9 -8 -9 -10 11 -12 -13 14 -15 -16
leaf_value=-0.083532452701890428 0.0017685799526374561 0.03807098285998424 0.071660431249098253 0.028588934876011041 0.11420152375253657 -0.096794042536012356 -0.007775006528118163 -0.060794629336129606 0.12981219205801295 -0.10495239738619608 -0.053294746201765539 -0.075197614638083859 -0.12137716456007258 -0.12992907533759804 -0.1461122728643294
leaf_weight=31.290177255868912 430.73780274391174 150.66255511343479 208.52653400599957 20.220919668674473 61.653601095080376 27.2171481102705 39.235636070370674 16.186500489711761 8.146343842148779 36.662829920649529 219.77214197814465 111.59885665774345 3.6268377453088751 11.582116261124609 9.4467575103044492
leaf_count=129 1752 611 842 82 248 112 159 66 33 151 904 460 15 48 39
internal_value=-0.00267273 0.0308264 0.059593 0.00297781 0.0813758 -0.0721208 0.0285932 -0.000496306 0.0577295 -0.0672806 -0.0580961 -0.0825691 -0.10628 -0.0961181 -0.139427
internal_weight=1386.57 935.37 460.078 475.292 270.18 451.197 189.898 446.924 28.3673 395.251 246.989 148.262 55.9459 42.8723 13.0736
internal_count=5651 3793 1860 1933 1090 1858 770 1818 115 1627 1016 611 231 177 54
is_linear=0
shrinkage=0.086


Tree=2
num_leaves=16
num_cat=0
split_feature=28 5 3 29 5 29 5 10 1 41 14 15 28 71 45
split_gain=279.226 73.6353 36.8063 32.0316 27.4076 14.4801 13.3059 13.0195 11.8712 10.0794 10.0013 8.58523 6.40219 6.01954 4.27471
threshold=-2.4999999999999996 0.69092415003849783 -116.92906410022486 0.51298920377867752 0.55168591348924279 0.084523809523809543 0.5896765362222538 1.0000000180025095e-35 1552.5098562718224 0.90000000000000013 0.13809523809523813 0.52786377708978338 -72.499999999999986 0.070598006644518277 -1.8999999999999997
decision_type=2 2 2 2 2 2 2 2 2 2 2 2 2 2 2
left_child=2 4 11 9 7 -6 10 -2 -8 -3 -4 12 -1 -5 -13
right_child=1 3 6 13 5 -7 8 -9 -10 -11 -12 14 -14 -15 -16
leaf_value=-0.094375664855022301 0.038666161364635333 -0.024191685056202141 -0.074592746184367481 0.12276365907420957 -0.062389654217994285 0.026244196349520021 -0.020742614200222012 -0.039585887858760396 0.051521051877929963 0.042887350366487019 -0.031168279958763593 -0.015996826045375525 -0.050098744845856476 0.080939208892232384 -0.10012371786884355
leaf_weight=31.370302364230156 18.764357298612595 18.797035053372383 45.676292717456818 31.188991695642471 14.26771432161331 299.02936787903309 52.33084762096405 96.518779963254929 24.757999047636986 138.19570708274841 279.85942609608173 4.7742044478654853 106.42036899924278 142.63256205618382 78.014356911182404
leaf_count=132 77 76 189 125 58 1212 213 397 100 557 1154 20 442 572 327
internal_value=-0.0024707 0.0325398 -0.0451336 0.0630208 0.00900858 0.0222026 -0.0296586 -0.0268378 0.00245601 0.0348482 -0.0372665 -0.0733729 -0.0601927 0.0884564 -0.0952873
internal_weight=1382.6 759.395 623.204 330.814 428.58 313.297 402.625 115.283 77.0888 156.993 325.536 220.579 137.791 173.822 82.7886
internal_count=5651 3074 2577 1330 1744 1270 1656 474 313 633 1343 921 574 697 347
is_linear=0
shrinkage=0.086


Tree=3
num_leaves=16
num_cat=0
split_feature=7 9 9 1 9 33 9 21 8 70 72 73 20 5 71
split_gain=323.278 136.092 44.6279 11.6506 11.5427 12.0368 10.4665 7.05769 5.63657 4.90269 4.57633 3.61662 3.36936 10.2964 3.96028
threshold=1.0000000180025095e-35 0.62108144702855994 -0.19938208887373565 1556.4985341441313 0.080460413230872538 2.5000000000000004 1.3744123164710331 -10.499999999999998 0.47332859174964442 0.34118625277161868 0.26253132832080206 0.29099462365591405 -2.4999999999999996 0.67566211349884309 0.54653679653679665
decision_type=2 2 2 2 2 2 2 2 2 2 2 2 2 2 2
left_child=4 2 3 -2 5 10 7 -3 -4 -7 -1 -8 13 -6 -14
right_child=1 6 8 -5 12 9 11 -9 -10 -11 -12 -13 14 -15 -16
leaf_value=-0.059099158442907647 -0.015567435706980852 0.002894483250612789 0.024802501346531062 0.020338031826096128 0.0056898107008567633 -0.099231185142546474 0.14506027548010078 0.083746082429016211 0.048475211140125096 -0.050012883116019792 -0.036411686014723943 0.092521696958628385 -0.10488047089818185 -0.10109812085264257 -0.02055824656977254
leaf_weight=123.17110005021095 345.90351632237434 8.4819041639566404 189.85666283965111 82.81538437306881 10.115668997168543 55.190231755375862 28.684526935219765 144.23450174927711 122.69860450923443 20.722946777939796 142.11400733888149 14.974523946642874 64.606226876378059 19.532786414027214 4.4387965053319922
leaf_count=517 1413 34 765 334 43 235 115 578 494 87 596 60 277 84 19
internal_value=-0.00228273 0.0262521 0.00938647 -0.00862888 -0.0631075 -0.0556038 0.0899069 0.0792628 0.0341002 -0.0858174 -0.0469511 0.127089 -0.0890303 -0.064639 -0.0994782
internal_weight=1377.54 937.65 741.274 428.719 439.892 341.198 196.375 152.716 312.555 75.9132 265.285 43.6591 98.6935 29.6485 69.045
internal_count=5651 3793 3006 1747 1858 1435 787 612 1259 322 1113 175 423 127 296
is_linear=0
shrinkage=0.086


Tree=4
num_leaves=16
num_cat=0
split_feature=0 6 6 9 1 9 29 69 9 28 21 2 1 2 30
split_gain=273.627 119.721 28.0472 18.079 10.8149 10.3532 9.01035 8.79456 8.38949 5.12725 5.96676 4.66287 4.79911 4.46148 2.58685
threshold=1.0000000180025095e-35 0.81201734360055611 -0.41072238011470436 0.44206122256320085 1586.8889422240898 0.080460413230872538 0.075498575498575513 0.45000000000000007 1.3744123164710331 -88.499999999999986 -4.4999999999999991 1648.2072482014 1414.9180307128265 1800.7619145260408 0.50233644859813087
decision_type=2 2 2 2 2 2 2 2 2 2 2 2 2 2 2
left_child=5 2 4 7 -2 9 -4 -3 -5 14 -11 12 -7 -13 -1
right_child=1 3 6 8 -6 11 -8 -9 -10 10 -12 13 -14 -15 -16
leaf_value=-0.1119838207149913 -0.013989377258581386 -0.056461747076036295 -0.057040470533673983 0.074856119574158123 0.030656954765705183 -0.026490300935706142 0.030113444078831268 0.041512214509447511 0.11720308175400755 -0.087665323323624561 -0.044831728573486676 -0.11329902178833967 -0.083196321994255223 -0.015113822109689128 -0.056638134729967829
leaf_weight=14.797268971800806 370.06013271212578 8.2018649280071241 9.0789300799369794 175.63267704844475 44.98721843957901 15.734863087534903 247.46538990736008 38.600408971309662 43.288092896342278 26.344336971640587 284.5146304666996 39.179299801588058 37.55432191491127 3.7809590995311728 11.049666121602057
leaf_count=64 1513 33 37 704 181 68 995 155 175 113 1210 174 164 17 48
internal_value=-0.0021145 0.0240035 0.00466838 0.0728655 -0.00914703 -0.0586596 0.027023 0.0243123 0.0832392 -0.0515383 -0.0484678 -0.0835534 -0.06648 -0.104687 -0.0883943
internal_weight=1370.27 937.315 671.592 265.723 415.047 432.955 256.544 46.8023 218.921 336.706 310.859 96.2494 53.2892 42.9603 25.8469
internal_count=5651 3793 2726 1067 1694 1858 1032 188 879 1435 1323 423 232 191 112
is_linear=0
shrinkage=0.086


Tree=5
num_leaves=16
num_cat=0
split_feature=0 6 6 6 32 5 72 6 16 3 71 3 27 16 14
split_gain=231.801 100.583 23.4056 10.3327 10.1643 8.63942 7.99342 7.89803 5.72826 5.52852 6.68403 6.35738 4.464 6.06195 3.49315
threshold=1.0000000180025095e-35 0.81201734360055611 -0.41072238011470436 1.4387617241189294 6.5000000000000009 0.75781898433714801 0.4431524547803618 -0.25258938712395546 3.7250000000000005 -19.991610167470409 0.075961538461538483 -27.001044361680098 86.500000000000014 0.89444444444444449 0.42481203007518803
decision_type=2 2 2 2 2 2 2 2 2 2 2 2 2 2 2
left_child=7 2 4 6 -2 -4 -3 9 -5 11 -11 -1 13 -9 -14
right_child=1 3 5 8 -6 -7 -8 12 -10 10 -12 -13 14 -15 -16
leaf_value=-0.041062801331972383 0.010528922835802307 0.044806127124351183 0.031926250250222325 0.086824365224254518 -0.017970555200204644 -0.0095706192575473383 0.1466149871069011 -0.012698430912086967 -0.011973014112958993 0.0021496036554628402 -0.083523989696770148 0.040941951457203848 -0.071299251470131011 -0.066622618730823938 -0.10944149066122637
leaf_weight=189.21380579471588 139.47765383124352 123.82629650831223 211.9459383636713 130.44805270433426 274.89530919492245 44.93307726085186 5.9825503826141349 19.768266513943672 4.4685191363096228 7.9737685024738303 42.525060564279556 7.2399326413869849 63.209518328309059 70.962819367647171 25.001287996768951
leaf_count=817 570 497 852 528 1124 180 24 86 18 34 183 31 284 311 112
internal_value=-0.00195928 0.0219734 0.00426696 0.0668651 -0.00837514 0.0246635 0.0495171 -0.0545573 0.0835438 -0.0445725 -0.0699779 -0.0380335 -0.068328 -0.0548878 -0.0821327
internal_weight=1361.87 935.977 671.252 264.725 414.373 256.879 129.809 425.894 134.917 246.953 50.4988 196.454 178.942 90.7311 88.2108
internal_count=5651 3793 2726 1067 1694 1032 521 1858 546 1065 217 848 793 397 396
is_linear=0
shrinkage=0.086


Tree=6
num_leaves=16
num_cat=0
split_feature=7 9 9 17 30 9 9 29 64 28 2 20 2 64 15
split_gain=196.431 82.355 25.4443 9.16003 9.00768 8.94584 8.03985 5.73316 4.93277 4.93763 4.21334 5.49541 4.2182 4.17883 2.15745
threshold=1.0000000180025095e-35 0.62108144702855994 -0.19938208887373565 0.88194444444444453 0.45961478720099419 0.080460413230872538 1.3744123164710331 0.26344707923655297 -54.408898924195562 -88.499999999999986 1648.2072482014 -2.4999999999999996 1800.7619145260408 -64.64527700773759 0.31009615384615391
decision_type=2 2 2 2 2 2 2 2 2 2 2 2 2 2 2
left_child=5 2 4 -4 -2 8 7 -3 13 -10 11 -7 -12 -1 -8
right_child=1 6 3 -5 -6 10 14 -9 9 -11 12 -13 -14 -15 -16
leaf_value=-0.053904112241606399 -0.013821231126060688 -0.016540173310579335 0.047426921107716631 0.015735916680617169 0.014992315803118725 -0.017145985072417356 0.11321677426498536 0.064437969612993168 -0.080789674523715632 -0.038268001672194699 -0.10422355623291753 -0.077540792721581417 -0.0069391972026123516 -0.13239302541096121 0.064134365308957039
leaf_weight=13.172703668475153 319.85769641399384 6.7440000027418128 98.254835367202759 215.74738089740276 107.07877412438393 16.490504175424576 33.59595713019371 144.67737019062042 21.797668173909187 284.26952385902405 36.58229286968708 34.710908651351929 3.6495178788900366 8.1929463446140272 8.4465756118297559
leaf_count=58 1311 27 394 865 436 73 140 585 99 1242 174 159 17 36 35
internal_value=-0.00181477 0.0201217 0.00707352 0.0256569 -0.00659198 -0.0507521 0.0700859 0.0608237 -0.0441004 -0.0413022 -0.0745542 -0.0581167 -0.0954282 -0.0840979 0.103398
internal_weight=1353.27 934.403 740.939 314.002 426.936 418.866 193.464 151.421 327.433 306.067 91.4332 51.2014 40.2318 21.3657 42.0425
internal_count=5651 3793 3006 1259 1747 1858 787 612 1435 1341 423 232 191 94 175
is_linear=0
shrinkage=0.086


Tree=7
num_leaves=16
num_cat=0
split_feature=0 9 9 9 18 38 18 70 18 24 9 20 63 8 21
split_gain=158.201 73.9014 23.6346 11.737 9.15666 7.34936 9.01473 6.11585 6.08774 6.0144 6.28193 5.88164 2.95728 6.28186 2.9335
threshold=1.0000000180025095e-35 0.65923783516660805 -0.19938208887373565 0.23046041323087255 1.2608256829996682 0.29166666666666669 1.2928571428571431 0.32583417593528824 1.0500000000000003 -0.63333333333333319 -0.22217723200221209 -4.4999999999999991 -33.173361215190418 0.51099033816425132 -1.4999999999999998
decision_type=2 2 2 2 2 2 2 2 2 2 2 2 2 2 2
left_child=3 2 4 9 -2 6 -3 -7 -4 11 -11 -1 13 -5 -14
right_child=1 5 8 12 -6 7 -8 -9 -10 10 -12 -13 14 -15 -16
leaf_value=0.0012552632027146191 0.0067933488920428817 -0.011654281328980718 0.011404623750657523 -0.013839979431491751 -0.018493119436252769 0.052694895847858865 0.10222554107482687 0.087092464873165867 0.035328145595173902 -0.018599694156827194 -0.047352685929706602 -0.066106929342443693 -0.11721211249251831 -0.11224602882137151 -0.072187135911994216
leaf_weight=11.038845062255858 207.2471669614315 16.746491178870205 140.28280520439148 15.275299519300463 216.51912669837475 61.634098708629608 7.3997716456651679 101.86465436220169 179.607930123806 141.48333808779716 93.452601060271263 71.366042017936707 13.473322212696074 7.0074069797992697 54.69765841960907
leaf_count=49 846 68 562 71 890 253 30 421 720 626 418 317 64 33 263
internal_value=-0.000193876 0.0193655 0.00719443 -0.0448646 -0.00612421 0.0675924 0.02323 0.0741359 0.0248408 -0.0370664 -0.030043 -0.0570716 -0.0722049 -0.0448692 -0.0811169
internal_weight=1339.1 931.302 743.657 407.795 423.766 187.645 24.1463 163.499 319.891 317.341 234.936 82.4049 90.4537 22.2827 68.171
internal_count=5631 3790 3018 1841 1736 772 98 674 1282 1410 1044 366 431 104 327
is_linear=0
shrinkage=0.086


Tree=8
num_leaves=14
num_cat=0
split_feature=0 9 9 9 9 33 73 1 28 16 9 2 27
split_gain=134.006 64.1393 24.4854 10.5811 8.00109 7.79858 5.40163 7.40056 6.17419 3.9927 4.36499 3.68745 2.60449
threshold=1.0000000180025095e-35 0.92108144702855987 -0.19938208887373565 0.23046041323087255 -0.29276429613237437 9.5000000000000018 0.31180555555555561 1522.7688710916807 -88.499999999999986 3.4222222222222229 1.3929972493022131 1800.7619145260408 63.500000000000007
decision_type=2 2 2 2 2 2 2 2 2 2 2 2 2
left_child=3 2 4 6 -2 -4 8 -8 -1 10 -3 12 -5
right_child=1 9 5 11 -6 -7 7 -9 -10 -11 -12 -13 -14
leaf_value=-0.08786542974494993 -0.00048180302476456621 0.066232518865405696 0.020693244956414992 -0.053612012925548166 -0.032908018698161304 0.064144104148539841 -0.025825175442891278 0.048344850822595375 -0.036903098505411062 0.0088556641163868421 0.10144081859908519 0.015059128104586031 -0.084535532576374611
leaf_weight=19.231063947081566 356.45506127178669 87.957860291004181 339.7141120582819 34.558946922421455 66.837472379207611 33.595454812049866 73.455236196517944 11.490836367011068 209.365773037076 6.7926696240901938 37.340151235461235 3.7501292377710334 49.481453910470009
leaf_count=91 1462 363 1365 165 274 135 329 51 939 28 163 18 248
internal_value=-0.000186836 0.0177576 0.00855246 -0.0417125 -0.00560496 0.0246079 -0.0343148 -0.0157754 -0.0411986 0.0732583 0.0767405 -0.0681143 -0.0718394
internal_weight=1330.03 928.693 796.602 401.333 423.293 373.31 313.543 84.9461 228.597 132.091 125.298 87.7905 84.0404
internal_count=5631 3790 3236 1841 1736 1500 1410 380 1030 554 526 431 413
is_linear=0
shrinkage=0.086


Tree=9
num_leaves=15
num_cat=0
split_feature=0 16 1 46 18 3 63 3 69 29 1 2 46 63
split_gain=113.519 35.3781 14.3541 11.2121 15.6883 12.0863 10.9722 8.47444 5.03572 7.28158 8.79198 5.40039 5.11166 3.56408
threshold=1.0000000180025095e-35 1.7638888888888891 1524.5464958499304 -1.0999999999999994 2.183333333333334 -59.897350826739846 20.603772917396785 239.4769402796467 0.90000000000000013 0.32772752967778412 1432.4848477640146 1655.4314531910047 -1.0999999999999994 -10.528157744919779
decision_type=2 2 2 2 2 2 2 2 2 2 2 2 2 2
left_child=8 3 6 5 -5 -2 -3 -4 11 10 -10 12 -1 -13
right_child=1 2 7 4 -6 -7 -8 -9 9 -11 -12 13 -14 -15
leaf_value=-0.0878005056958098 0.1818800920561767 0.017530943548420112 0.038082694692334822 -0.00086494281489308373 -0.093886898139950492 0.022328405299535815 -0.068997298822318295 0.077853402722193932 -0.020443495052851621 -0.066504508683812955 0.18146631393594145 -0.084866399079400676 -0.033201187591813244 -0.045662436543100419
leaf_weight=13.263522192835806 3.6381663233041754 55.445219978690147 270.08930602669716 427.27799361944199 13.834544181823729 95.585554629564285 13.461406499147413 46.524687349796295 3.2549652904272062 4.3210583329200745 3.0991323888301849 29.264243245124817 299.77835913002491 42.037637054920197
leaf_count=61 15 226 1102 1744 57 389 55 202 15 20 15 146 1377 207
internal_value=-0.000178277 0.0162889 0.0361909 0.0020868 -0.00378678 0.0282067 0.000604494 0.0439323 -0.0387765 0.019406 0.0780038 -0.0403957 -0.0355206 -0.0617769
internal_weight=1320.88 925.857 385.521 540.336 441.113 99.2237 68.9066 316.614 395.019 10.6752 6.3541 384.344 313.042 71.3019
internal_count=5631 3790 1585 2205 1801 404 281 1304 1841 50 30 1791 1438 353
is_linear=0
shrinkage=0.086


Tree=10
num_leaves=16
num_cat=0
split_feature=4 16 4 74 5 74 46 29 29 74 29 68 74 10 30
split_gain=71.9166 23.7099 19.3482 10.7715 10.577 9.79556 7.42182 14.9897 7.20173 6.9216 6.60729 6.07726 5.96688 5.45816 3.60434
threshold=0.59041860576255689 1.7638888888888891 0.4210632954689707 2.7231501370601721 0.85018281984127075 2.8021591721380923 -1.4499999999999997 0.29321839080459772 0.51298920377867752 2.7632886375311561 0.063508064516129045 0.52786377708978338 2.8431844706249745 0.36666666666666675 0.75147058823529422
decision_type=2 2 2 2 2 2 2 2 2 2 2 2 2 2 2
left_child=2 6 11 10 5 -3 7 -2 -8 -5 -4 13 -6 -1 -13
right_child=1 4 3 9 12 -7 8 -9 -10 -11 -12 14 -14 -15 -16
leaf_value=-0.044863500800463064 -0.017767884173641387 0.042662509548572987 -0.09654731550982136 0.014843130740279547 0.085729844861446178 0.0096463589452498305 -0.0075022938239299878 0.080202952347156395 0.028014732615751787 -0.011978889058384616 -0.028308545565080008 -0.071409698348900194 -0.018294290458176335 -0.0085985820515471038 -0.019394309616696807
leaf_weight=84.016607642173767 21.153418660163879 174.11228865385056 14.383255720138548 93.619670391082764 40.054601833224297 107.6515274643898 242.06356540322304 25.387934491038322 51.132105320692062 296.19767355918884 39.079965874552727 59.484382078051567 4.519157111644744 48.494031473994255 11.888107940554617
leaf_count=390 87 717 63 402 178 440 993 104 209 1274 170 299 20 226 59
internal_value=-0.000173095 0.0196635 -0.0205909 -0.0105026 0.0362189 0.0300527 0.00375736 0.035658 -0.00130401 -0.00553437 -0.0467008 -0.042518 0.0751584 -0.0316013 -0.0627642
internal_weight=1313.24 666.075 647.164 443.281 326.338 281.764 339.737 46.5414 293.196 389.817 53.4632 203.883 44.5738 132.511 71.3725
internal_count=5631 2748 2883 1909 1355 1157 1393 191 1202 1676 233 974 198 616 358
is_linear=0
shrinkage=0.086


Tree=11
num_leaves=15
num_cat=0
split_feature=0 6 6 9 9 9 33 46 33 15 13 69 31 71
split_gain=86.0607 48.6871 13.0647 9.93265 8.86159 8.81014 8.01727 5.87514 6.09797 5.7345 4.09676 3.73316 3.33266 2.20621
threshold=1.0000000180025095e-35 0.81201734360055611 -0.41072238011470436 -0.44126758299407004 0.23046041323087255 0.92108144702855987 7.5000000000000009 -1.0999999999999994 2.5000000000000004 0.55277777777777792 0.38750000000000007 0.70833333333333337 4.5000000000000009 0.22540322580645164
decision_type=2 2 2 2 2 2 2 2 2 2 2 2 2 2
left_child=4 2 3 -2 7 9 -4 13 -9 -3 -7 12 -6 -1
right_child=1 5 6 -5 11 10 -8 8 -10 -11 -12 -13 -14 -15
leaf_value=-0.1230578047691497 0.0012658247269357397 0.026897147666419756 0.01167938898704248 -0.027851364353374233 -0.026101984900144336 0.070721326723968594 0.059561119541384155 -0.018665616727615998 -0.049157830122019887 0.1356153642860301 0.033676174265457284 0.016827528529460518 -0.072344059136554575 -0.048134429264783125
leaf_weight=6.1002141982316953 284.44430482387543 121.19974400103092 231.54599906504154 124.55869852006435 14.214983075857161 98.02666437625885 29.126315087080002 230.11550383269787 61.552720695734024 3.6941657066345206 28.690069869160652 4.4624189138412467 63.075027465820312 5.7019716203212738
leaf_count=29 1168 494 929 513 74 431 117 1060 294 15 123 23 334 27
internal_value=-0.000163461 0.0141084 0.00198827 -0.00759953 -0.0342976 0.0463612 0.0170355 -0.0275196 -0.0251056 0.0301317 0.0623454 -0.0594389 -0.0638572 -0.087019
internal_weight=1306.51 921.286 669.675 409.003 385.223 251.611 260.672 303.47 291.668 124.894 126.717 81.7524 77.29 11.8022
internal_count=5631 3790 2727 1681 1841 1063 1046 1410 1354 509 554 431 408 56
is_linear=0
shrinkage=0.086


Tree=12
num_leaves=16
num_cat=0
split_feature=0 1 27 2 63 29 43 70 71 27 21 43 24 29 74
split_gain=72.8619 21.3642 11.3922 8.3762 8.45263 7.30362 6.51632 6.05482 4.98427 6.40367 5.67402 5.03954 4.76815 4.0278 2.35721
threshold=1.0000000180025095e-35 1570.2936153501817 78.500000000000014 1462.5489219840181 57.604929764711422 0.063508064516129045 1.5500000000000003 0.26253132832080206 0.34178433889602061 91.500000000000014 -1.4999999999999998 2.9000000000000004 0.70833333333333337 0.25384979862591811 2.8328306391063873
decision_type=2 2 2 2 2 2 2 2 2 2 2 2 2 2 2
left_child=8 3 7 4 -2 -5 -4 -3 11 10 -10 12 -1 -11 -13
right_child=1 2 6 5 -6 -7 -8 -9 9 13 -12 14 -14 -15 -16
leaf_value=-0.027676814890589124 0.011762415338175274 0.011988244147239181 0.00049774161164254152 -0.057712660617340324 0.084259814417562959 -0.0021662548266979773 0.055800490140594142 0.051311395699550462 -0.074863739808363763 -0.030892147465505952 -0.015913224353075208 -0.049999332964856022 0.0033601952112952394 -0.085451833712724662 -0.12045535714523607
leaf_weight=198.83334931731224 251.24459505081177 35.537897035479546 94.236704543232918 18.48635321855545 12.482556968927382 328.687200948596 18.921895354986191 158.36600717902184 15.679607361555098 14.03571482002735 52.794499978423119 13.050674423575403 44.796783864498138 35.596510425209999 4.8659448921680442
leaf_count=956 1027 150 387 77 51 1348 77 673 74 74 253 63 216 181 24
internal_value=-0.000155023 0.0129498 0.0314553 0.00364609 0.0152008 -0.00512855 0.00975846 0.0441107 -0.0318433 -0.0465178 -0.0294361 -0.0252113 -0.0219658 -0.0700528 -0.0692485
internal_weight=1297.62 917.963 307.063 610.901 263.727 347.174 113.159 193.904 379.653 118.106 68.4741 261.547 243.63 49.6322 17.9166
internal_count=5631 3790 1287 2503 1078 1425 464 823 1841 582 327 1259 1172 255 87
is_linear=0
shrinkage=0.086


Tree=13
num_leaves=16
num_cat=0
split_feature=0 9 9 9 33 17 46 33 33 15 31 33 71 11 72
split_gain=61.5986 37.7198 12.7078 8.03779 5.73184 5.5488 5.33746 5.36991 4.08385 4.00638 3.04345 4.78553 2.11241 1.88444 0.22815
threshold=1.0000000180025095e-35 0.92108144702855987 -0.19938208887373565 0.23046041323087255 9.5000000000000018 0.61250000000000016 -1.0999999999999994 2.5000000000000004 7.5000000000000009 0.26491228070175443 14.500000000000002 -1.4999999999999998 0.22540322580645164 1.0000000180025095e-35 0.30495169082125612
decision_type=2 2 2 2 2 2 2 2 2 2 2 2 2 2 2
left_child=3 2 5 6 -4 -2 12 -8 9 -3 11 -5 -1 -10 -12
right_child=1 8 4 10 -6 -7 7 -9 13 -11 14 -13 -14 -15 -16
leaf_value=-0.11787421268788031 -0.033781195276975033 0.061867232063389087 0.013241192955583573 -0.081656073285050049 0.050698392754120275 -0.0018122441574045145 -0.014703800003357003 -0.043759281843591943 0.05464449456458681 0.026547890212010494 -0.11256401002584739 -0.032844296991763132 -0.042825121379169349 0.12266238378783779 -0.079543023653880482
leaf_weight=5.7236428856849653 44.941968724131584 74.214826136827469 337.57191681861877 21.657911241054535 33.206880301237106 377.22770057618618 225.85966093838215 59.499716877937317 4.6022317856550208 35.147742211818695 5.9152577370405179 47.760359987616539 5.5210527777671814 9.2511028647422773 2.6538637429475784
leaf_count=29 185 337 1365 120 135 1551 1060 294 21 155 33 263 27 41 15
internal_value=-0.000149445 0.0118628 0.00498238 -0.029531 0.0165999 -0.00521866 -0.0230638 -0.020767 0.0561292 0.0505289 -0.0541077 -0.0480976 -0.0811882 0.100196 -0.102562
internal_weight=1290.76 916.164 792.948 374.591 370.779 422.17 296.604 285.359 123.216 109.363 77.9874 69.4183 11.2447 13.8533 8.56912
internal_count=5631 3790 3236 1841 1500 1736 1410 1354 554 492 431 383 56 62 48
is_linear=0
shrinkage=0.086


Tree=14
num_leaves=16
num_cat=0
split_feature=28 9 16 6 32 3 24 10 32 9 63 3 63 33 32
split_gain=41.4358 31.7472 12.1926 10.2554 10.4744 8.81965 6.80396 6.48425 6.46212 6.69631 6.16506 6.16909 5.73895 5.11654 2.31017
threshold=-3.4999999999999996 1.0210814470285601 2.3875000000000006 -0.29384289014923676 6.5000000000000009 -116.92906410022486 2.5833333333333335 0.36666666666666675 12.500000000000002 -0.51437958560111763 -16.342438758361023 119.0320650245849 46.234194147928413 -12.499999999999998 19.500000000000004
decision_type=2 2 2 2 2 2 2 2 2 2 2 2 2 2 2
left_child=2 3 5 4 -2 12 -5 -7 9 -4 11 -3 -1 -12 -10
right_child=1 10 8 6 -6 7 -8 -9 14 -11 13 -13 -14 -15 -16
leaf_value=-0.032385057678532461 0.018626631894754844 -0.057675349854989864 0.15462731551084896 0.014586777377248533 -0.016709785637284001 0.0015457933671499226 0.10325037945277121 -0.022906307067243954 -0.068884422873530624 0.03511184498853602 -0.019452590161671526 0.049090788263112153 -0.095979994232081742 0.079681706870263186 0.020666218558855733
leaf_weight=163.62334561347961 91.201711893081665 5.5247511267662075 5.1120081394910803 381.51846240460873 193.9007388651371 138.90239369869232 6.5052400827407828 189.56518273055553 3.8034984171390516 10.861246943473818 4.0719470977783194 14.408486768603323 11.229311540722845 64.950737506151199 4.7953841388225555
leaf_count=836 381 24 22 1568 813 616 27 833 17 49 19 67 59 303 20
internal_value=0.000533112 0.0133621 -0.0179851 0.00697892 -0.00540211 -0.0208746 0.0160785 -0.0125631 0.0411422 0.0734984 0.0616454 0.0194334 -0.0364804 0.0738164 -0.0188584
internal_weight=1289.97 762.082 527.892 673.126 285.102 503.32 388.024 328.468 24.5721 15.9733 88.9559 19.9332 174.853 69.0227 8.59888
internal_count=5654 3202 2452 2789 1194 2344 1595 1449 108 71 413 91 895 322 37
is_linear=0
shrinkage=0.086


Tree=15
num_leaves=15
num_cat=0
split_feature=28 9 16 30 30 32 64 44 31 5 46 33 71 38
split_gain=34.8682 27.4379 10.2043 9.10078 9.91645 8.06656 7.58974 9.05055 7.56133 7.32752 7.29412 4.73796 4.75404 3.75749
threshold=-3.4999999999999996 1.0210814470285601 2.3875000000000006 0.65733855185909984 0.73746867167919816 21.500000000000004 -52.474216717361394 2.5500000000000003 12.500000000000002 0.45538986420560207 0.54999999999999993 -12.499999999999998 0.32650501672240811 0.55000000000000016
decision_type=2 2 2 2 2 2 2 2 2 2 2 2 2 2
left_child=2 6 3 5 -5 -1 7 -2 10 -8 -4 -3 -13 -10
right_child=1 11 8 4 -6 -7 9 -9 13 -11 -12 12 -14 -15
leaf_value=-0.011998750167964308 0.016259544484706862 -0.023105837996624232 0.13790547268342498 -0.075419910829936945 0.00032214276972629657 -0.060073670970617048 -0.030363894602756618 0.094337613809632362 -0.084736290201855385 0.006177865927817835 0.022260598637669885 0.056331996871241567 0.13054595524374171 0.032811198292638802
leaf_weight=413.33117014169693 43.24207791686058 5.029035195708274 6.9226381778717103 39.770844534039497 18.798462897539139 27.539389282464981 43.677120164036751 14.732092797756193 4.3770763725042325 570.64891442656517 9.7208522260189039 74.908195465803146 7.0052246600389472 3.6905359625816345
leaf_count=1900 179 23 29 217 100 127 202 61 19 2347 44 357 33 16
internal_value=0.000489502 0.0122682 -0.0165701 -0.0192408 -0.0510961 -0.0150054 0.00638689 0.036131 0.0373515 0.0035777 0.0704774 0.0577289 0.0627065 -0.0308623
internal_weight=1283.39 759.243 524.151 499.44 58.5693 440.871 672.3 57.9742 24.7111 614.326 16.6435 86.9425 81.9134 8.06761
internal_count=5654 3202 2452 2344 317 2027 2789 240 108 2549 73 413 390 35
is_linear=0
shrinkage=0.086


Tree=16
num_leaves=16
num_cat=0
split_feature=7 9 21 6 32 40 42 9 26 63 72 9 33 19 15
split_gain=39.7975 26.5327 7.80688 7.65633 11.0144 7.95748 7.48545 6.79439 6.97448 8.46655 7.52744 6.28709 5.30617 7.91695 4.24758
threshold=1.0000000180025095e-35 0.65609477177284548 -8.4999999999999982 -0.41072238011470436 7.5000000000000009 -0.3166666666666666 1.5500000000000003 -0.19938208887373565 115.50000000000001 -69.522226270424071 0.26598639455782319 1.5006179111262645 -1.0000000180025095e-35 1.1833333333333336 0.75735294117647067
decision_type=2 2 2 2 2 2 2 2 2 2 2 2 2 2 2
left_child=7 3 11 4 -2 -5 -4 8 9 -1 -10 -3 13 -9 -14
right_child=1 2 6 5 -6 -7 -8 12 10 -11 -12 -13 14 -15 -16
leaf_value=0.10271583300256955 0.007287504793246133 -0.054046015721226311 0.058155969467062231 0.060165418802519098 -0.020962663006845197 0.0090869912159814489 0.014237214567588483 -0.051664496304640546 -0.012023675065824857 -0.020926943340163526 0.10323113122589021 0.071720306491460911 -0.054249810199786246 0.012329997433102074 0.010037228599062266
leaf_weight=4.1787207424640647 241.46960280835629 10.519822135567663 112.39269471168518 24.337784543633461 176.7675538957119 308.83769299089909 38.645795479416847 25.836492836475372 9.3377614319324511 180.69512847065926 7.5710622221231452 4.0641372203826895 92.653380319476128 31.951325550675392 8.2485054582357389
leaf_count=20 994 47 515 98 732 1245 175 142 45 868 36 22 500 170 45
internal_value=0.00044805 0.00996558 0.0411234 0.0030961 -0.00465015 0.012823 0.0469271 -0.0237611 -0.0132815 -0.0181212 0.0395521 -0.0189027 -0.0370783 -0.0162676 -0.0489838
internal_weight=1277.51 917.035 165.622 751.413 418.237 333.175 151.038 360.472 201.783 184.874 16.9088 14.584 158.69 57.7878 100.902
internal_count=5654 3828 759 3069 1726 1343 690 1826 969 888 81 69 857 312 545
is_linear=0
shrinkage=0.086


Tree=17
num_leaves=16
num_cat=0
split_feature=0 6 74 74 41 6 22 70 6 71 21 74 45 26 44
split_gain=33.6204 22.0471 9.86773 10.7445 7.63314 6.90389 6.53413 6.38766 8.3103 8.0624 5.51974 4.76012 4.75533 4.21159 1.32295
threshold=1.0000000180025095e-35 0.81201734360055611 2.6912463275636265 2.7580998576971187 0.90000000000000013 0.8717262571348473 0.36666666666666675 0.31311274509803927 -0.41072238011470436 0.19803921568627456 1.5000000000000002 2.3584523036988974 -0.45000000000000001 6.5000000000000009 1.5500000000000003
decision_type=2 2 2 2 2 2 2 2 2 2 2 2 2 2 2
left_child=7 2 4 -4 -2 14 -7 10 9 -9 11 -1 -12 -10 -3
right_child=1 5 3 -5 -6 6 -8 8 13 -11 12 -13 -14 -15 -16
leaf_value=0.073273885230500366 0.0043971938911020227 0.14175138153770497 0.025474622649459933 -0.0019323950765203766 -0.076513453726351044 -0.0047747896364937828 0.035263775486512099 -0.042996924424651299 -0.11516658565672411 0.028117635573518186 -0.026842828910313157 -0.026103944423739034 -0.087513500095628222 -0.025490808707278566 0.075547695288840366
leaf_weight=3.6158264577388755 14.729365959763525 4.0249617993831617 133.37384559214115 511.20770628750324 20.711297273635864 35.815149486064911 188.88632389903069 14.94019655883312 4.2670933306217185 55.672889858484268 17.670265302062035 197.07526516914368 20.98599673807621 42.189007923007011 5.3721842020750046
leaf_count=19 61 17 544 2092 85 156 850 71 23 266 98 1005 113 231 23
internal_value=0.000408129 0.00914434 0.00130634 0.00373725 -0.0428656 0.0319072 0.0288775 -0.0219948 -0.00552138 0.0130528 -0.0300474 -0.0243048 -0.059821 -0.0337729 0.104134
internal_weight=1270.54 914.121 680.022 644.582 35.4407 234.099 224.701 356.417 117.069 70.6131 239.347 200.691 38.6563 46.4561 9.39715
internal_count=5654 3828 2782 2636 146 1046 1006 1826 591 337 1235 1024 211 254 40
is_linear=0
shrinkage=0.086


Tree=18
num_leaves=16
num_cat=0
split_feature=0 24 24 1 31 31 4 4 24 29 26 27 64 64 31
split_gain=28.378 10.9197 8.01204 7.57915 7.04609 6.51136 6.34664 10.2594 5.56066 6.31887 5.51705 5.34586 5.30764 12.2139 7.64658
threshold=1.0000000180025095e-35 2.1250000000000004 -0.63333333333333319 1639.5257666933464 6.5000000000000009 12.500000000000002 0.63974982236022515 0.75883589868381773 -3.8333333333333326 0.44392033542976944 49.500000000000007 45.500000000000007 27.135862239920133 24.964173528030646 3.5000000000000004
decision_type=2 2 2 2 2 2 2 2 2 2 2 2 2 2 2
left_child=2 3 8 4 -2 -5 10 -8 11 -10 -3 -1 13 -4 -14
right_child=1 6 12 5 -6 -7 7 -9 9 -11 -12 -13 14 -15 -16
leaf_value=0.1107706014212957 0.015333522805397244 0.051046046089125524 -0.0086303512321395867 0.016919051297246378 -0.0018700052179160885 0.067726796188008656 -0.062451803136578908 0.099277797150397168 -0.056283770844542051 0.018881989824676954 0.18111157240732348 -0.035411089451760983 0.050417147500744539 0.1180009381206408 -0.0405675906943005
leaf_weight=3.3000473827123633 267.01024827361107 4.5839294344186801 176.96212942898273 82.628483816981316 516.7632846981287 24.12813925743103 5.2800886482000333 6.40448959171772 76.547553166747093 9.2467533499002439 5.1722526103258133 4.1729534566402435 7.5633782595396033 5.8079936355352393 69.057410106062889
leaf_count=16 1106 19 907 372 2145 112 22 31 404 46 21 22 38 30 363
internal_value=0.000369322 0.00838127 -0.0203462 0.00691938 0.00398957 0.0284171 0.0690204 0.0261154 -0.0419673 -0.0481693 0.120221 0.029066 -0.0125668 -0.00459443 -0.0315674
internal_weight=1264.63 911.971 352.658 890.53 783.774 106.757 21.4408 11.6846 93.2673 85.7943 9.75618 7.473 259.391 182.77 76.6208
internal_count=5654 3828 1826 3735 3251 484 93 53 488 450 40 38 1338 937 401
is_linear=0
shrinkage=0.086


Tree=19
num_leaves=16
num_cat=0
split_feature=7 9 24 3 24 9 45 21 63 63 5 68 33 16 43
split_gain=23.9362 19.9012 7.35869 7.72228 6.96948 7.79077 6.28977 6.06816 5.48695 5.53686 5.00667 4.81768 4.98067 4.31343 1.04359
threshold=1.0000000180025095e-35 1.0210814470285601 2.1250000000000004 39.762388132506665 -0.63333333333333319 -0.29276429613237437 2.2250000000000005 -3.4999999999999996 -16.342438758361023 -34.702994333338431 0.82203080293883601 0.6132478632478634 -11.499999999999998 3.7250000000000005 2.1000000000000005
decision_type=2 2 2 2 2 2 2 2 2 2 2 2 2 2 2
left_child=4 2 6 -4 11 7 -2 -6 9 -3 -7 12 -1 -10 -13
right_child=1 8 3 -5 5 10 -8 -9 13 -11 -12 14 -14 -15 -16
leaf_value=0.050866266328942492 0.0033028826822095181 0.046128451740418311 0.10963645469131818 -0.004295646638850098 -0.041676088115612672 -0.029413722567991914 -0.069036929116904386 0.011485345885520866 0.065649623301307095 -0.049649181622890531 0.062632082016438842 -0.10174301342744618 -0.037060238232916307 -0.038771462223976989 -0.038012284844209356
leaf_weight=5.0748111158609381 803.22680349647999 10.95748455822468 9.7794362008571643 7.9601766318082801 18.607262015342712 126.84648349881172 8.9779764711856824 107.89185753464699 59.480051100254059 7.513921692967414 4.510537013411521 9.8897974118590337 73.945804670453072 3.0581712275743476 2.4419507980346671
leaf_count=26 3307 53 40 34 92 697 38 521 305 37 28 60 387 14 15
internal_value=0.000333232 0.00767253 0.00369961 0.0584807 -0.018809 -0.011571 0.00250114 0.00365478 0.048357 0.00710576 -0.0262407 -0.0392245 -0.0313947 0.0605215 -0.0892476
internal_weight=1260.16 910.954 829.944 17.7396 349.209 257.856 812.205 126.499 81.0096 18.4714 131.357 91.3524 79.0206 62.5382 12.3317
internal_count=5654 3828 3419 74 1826 1338 3345 613 409 90 725 488 413 319 75
is_linear=0
shrinkage=0.086


Tree=20
num_leaves=15
num_cat=0
split_feature=0 24 22 64 16 24 71 28 70 20 64 18 3 64
split_gain=20.1946 7.92203 8.88983 9.58684 8.80875 6.04882 5.58595 7.37485 4.82617 9.52248 5.87304 4.75531 5.59456 0.192814
threshold=1.0000000180025095e-35 2.1250000000000004 0.45000000000000007 50.881483579416006 1.9500000000000002 -0.63333333333333319 0.12158167036215818 -3.4999999999999996 0.31180555555555561 -3.4999999999999996 27.135862239920133 0.70714285714285718 39.762388132506665 -1.9164879953931402
decision_type=2 2 2 2 2 2 2 2 2 2 2 2 2 2
left_child=5 2 3 -2 -4 6 13 -8 10 -10 -7 -3 -13 -1
right_child=1 11 4 -5 -6 8 7 -9 9 -11 -12 12 -14 -15
leaf_value=-0.087271976131523391 -0.0034351219309708444 0.14239076450115473 0.0041268572805227754 -0.069248712395141646 0.0256186578652771 -0.0095092945580209226 -0.036978492239167389 0.065908090815742074 0.10700004041725203 -0.0020978080024877141 -0.045807067892028513 0.089414333770989105 -0.0089897253191360202 -0.11849754526040294
leaf_weight=2.8993705809116364 225.55961714684963 4.0848198980093029 436.51142424345016 17.64536426961422 208.48189340531826 126.97292183339596 76.397315993905067 5.509526625275611 6.3891868442296973 78.365083336830139 44.578978076577187 8.3175434768199938 8.738019645214079 4.7490706741809836
leaf_count=15 935 19 1807 73 920 660 422 27 32 402 244 34 40 24
internal_value=0.000303509 0.00703173 0.00579171 -0.00821702 0.0110756 -0.017383 -0.0366272 -0.0300379 -0.0106538 0.00612599 -0.0189497 0.0590544 0.0389631 -0.106925
internal_weight=1255.2 909.339 888.198 243.205 644.993 345.861 89.5553 81.9068 256.306 84.7543 171.552 21.1404 17.0556 7.64844
internal_count=5654 3828 3735 1008 2727 1826 488 449 1338 434 904 93 74 39
is_linear=0
shrinkage=0.086


Tree=21
num_leaves=13
num_cat=0
split_feature=16 45 46 72 32 5 1 21 9 43 15 6
split_gain=14.6248 8.9416 8.38123 11.2194 8.66852 9.34375 7.91156 6.69406 6.36781 6.04597 5.99489 3.52898
threshold=1.7638888888888891 -1.6333333333333331 -1.4499999999999997 0.14142857142857146 21.500000000000004 0.75781898433714801 1530.5702609011221 1.5000000000000002 -0.63514363430832266 0.55000000000000016 0.55277777777777792 -0.81848990811164124
decision_type=2 2 2 2 2 2 2 2 2 2 2 2
left_child=2 -2 3 11 5 -4 -5 10 -6 -9 -3 -1
right_child=1 7 4 6 8 -7 -8 9 -10 -11 -12 -13
leaf_value=0.036744561475315483 -0.11861020725127176 0.016420002084381258 -0.0028106874902379566 -0.0063965418023985646 0.031039695420674043 -0.039339556461564701 0.09370704908219836 0.063125255698145963 -0.059880628420305032 -0.024783024875242518 0.05855724621237135 0.14163753410585339
leaf_weight=3.6460324674844742 3.7019784599542609 336.68851892650127 674.47986487299204 40.276856571435928 6.74732382595539 56.097813434898853 6.8169206529855719 6.6231235414743415 35.949651703238487 45.109655819833279 26.990990787744522 6.9947048425674421
leaf_count=15 17 1495 3054 169 30 289 30 29 167 205 124 30
internal_value=0.00114536 0.0142438 -0.00545961 0.0261416 -0.00782068 -0.00561749 0.00808857 0.0154331 -0.0454846 -0.0134985 0.0195516 0.105861
internal_weight=1250.12 419.114 831.009 57.7345 773.275 730.578 47.0938 415.412 42.697 51.7328 363.68 10.6407
internal_count=5654 1870 3784 244 3540 3343 199 1853 197 234 1619 45
is_linear=0
shrinkage=0.086


Tree=22
num_leaves=16
num_cat=0
split_feature=0 6 26 26 1 6 17 14 63 31 5 16 43 69 69
split_gain=12.4609 13.7269 10.3625 10.0195 7.32618 6.13261 7.62461 8.13872 5.15803 5.09111 5.07118 4.72387 4.54556 7.11029 5.20479
threshold=1.0000000180025095e-35 -0.41072238011470436 23.500000000000004 1.5000000000000002 1389.2173974823866 -0.33922553390840221 1.2608256829996682 0.14642857142857144 -62.049591281315877 14.500000000000002 0.64112791691699389 1.3541666666666667 1.5500000000000003 0.70833333333333337 0.63333333333333341
decision_type=2 2 2 2 2 2 2 2 2 2 2 2 2 2 2
left_child=5 9 3 -3 -4 6 8 -8 -1 10 -2 -11 13 -7 -14
right_child=1 2 4 -5 -6 12 7 -9 -10 11 -12 -13 14 -15 -16
leaf_value=0.079623594224013078 0.0042074040276775804 -0.015766971601076433 0.16552700421559099 0.053403599222482445 0.0087563594013968047 -0.049791302551064676 -0.057926907702156798 0.019468585441653922 -0.028080486089822335 -0.0014817019127219876 -0.019572056876570734 -0.052346846782697201 -0.0061648906904385624 0.072773743464101509 -0.0852186203780287
leaf_weight=3.4256384521722785 278.93865264952183 19.01581272482872 2.2082287371158591 82.881950750946999 385.15118533372879 62.486058875918388 11.157044112682341 99.979653596878052 74.88896419107914 24.508024364709854 87.001606091856956 30.183504059910774 75.579485222697258 3.6931464225053778 6.7013499662280074
leaf_count=17 1154 78 9 350 1672 366 56 495 374 103 354 125 440 21 40
internal_value=0.00104757 0.00628564 0.0160803 0.0404848 0.00965698 -0.0130536 -0.0027912 0.011685 -0.0233466 -0.00510468 -0.00144368 -0.0295768 -0.0261415 -0.042926 -0.0126255
internal_weight=1247.8 909.889 489.257 101.898 387.359 337.911 189.451 111.137 78.3146 420.632 365.94 54.6915 148.46 66.1792 82.2808
internal_count=5654 3845 2109 428 1681 1809 942 551 391 1736 1508 228 867 387 480
is_linear=0
shrinkage=0.086


Tree=23
num_leaves=15
num_cat=0
split_feature=0 9 21 9 71 64 6 30 26 31 27 26 27 1
split_gain=10.4937 13.6793 7.22621 8.34683 6.38907 5.16877 5.18939 4.7903 3.85612 5.26832 3.7055 3.48043 4.32411 3.44001
threshold=1.0000000180025095e-35 0.92108144702855987 -3.4999999999999996 -0.19938208887373565 0.19478319783197837 85.536966361402293 -0.41072238011470436 0.75147058823529422 10.500000000000002 7.5000000000000009 143.50000000000003 154.50000000000003 32.500000000000007 1718.5355396954442
decision_type=2 2 2 2 2 2 2 2 2 2 2 2 2 2
left_child=2 5 8 4 -4 6 -2 -5 9 -1 -10 12 -3 -13
right_child=1 11 3 7 -6 -7 -8 -9 10 -11 -12 13 -14 -15
leaf_value=0.090570985096262852 -0.0053884472717840928 0.04401247144346819 -0.025598716968442719 -0.028746146875884303 0.01500193136912838 0.079045932619708562 0.0085446932102947459 0.025885069800489598 -0.068449894581581322 -0.062536264416983095 0.021898136710368762 0.11906658955304374 0.0066451397194494232 0.036872597907652509
leaf_weight=3.2936843335628501 415.97303161025047 53.626595214009285 37.161998972296715 120.06662820279598 125.13263519108295 6.3547952473163596 376.71488644182682 13.145390540361403 29.626949623227119 3.3307795524597168 3.7629214674234381 6.6163575053215018 40.10692135989666 8.8752124309539777
leaf_count=17 1718 270 184 715 617 26 1544 77 160 18 21 34 204 49
internal_value=0.000954721 0.0057566 -0.0120409 -0.00739165 0.00569789 0.00185295 0.00123182 -0.0233458 -0.0463392 0.0134549 -0.0582336 0.0343018 0.0280371 0.0720979
internal_weight=1243.79 908.268 335.521 295.507 162.295 799.043 792.688 133.212 40.0143 6.62446 33.3899 109.225 93.7335 15.4916
internal_count=5654 3845 1809 1593 801 3288 3262 792 216 35 181 557 474 83
is_linear=0
shrinkage=0.086


Tree=24
num_leaves=16
num_cat=0
split_feature=16 30 33 48 73 70 28 10 69 33 44 15 21 27 70
split_gain=10.1194 7.58651 10.6949 9.10184 8.67312 8.44551 6.75876 6.51059 14.8012 6.38372 6.96885 6.78449 5.96992 5.6923 1.13552
threshold=1.7638888888888891 0.32772752967778412 -9.4999999999999982 0.90000000000000013 0.38956639566395673 0.43826219512195125 7.5000000000000009 0.29166666666666669 0.45000000000000007 7.5000000000000009 0.45000000000000007 0.06458333333333334 -6.4999999999999991 27.500000000000004 0.26975051975051983
decision_type=2 2 2 2 2 2 2 2 2 2 2 2 2 2 2
left_child=1 3 5 12 -4 -3 -5 8 14 10 -9 -11 -1 -10 -2
right_child=7 2 4 6 -6 -7 -8 9 13 11 -12 -13 -14 -15 -16
leaf_value=-0.020277958306594752 -0.17146889930824888 0.046535432524073952 -0.02015784785547994 0.17600941743640452 0.023132494822423754 -0.070421645884626086 0.02948592182947634 -0.040264351537852128 -0.05260098508629734 -0.072157192010308374 0.013957233220529228 0.054547925919444767 0.0076468173123228544 0.030830966923419668 -0.099828853948815965
leaf_weight=70.235878586769104 3.5003824681043616 33.924638442695141 375.13599038869143 3.7853742688894254 37.635395459830761 5.2610839381813994 6.0925237238407135 18.541716836392879 8.8783628195524233 3.3589916527271262 316.32382705062628 42.390309348702431 291.78634455800056 18.905387952923775 3.3911607414484024
leaf_count=298 15 163 1835 16 176 25 25 82 39 16 1427 191 1246 85 15
internal_value=0.000873635 -0.00464324 -0.0121299 0.00445232 -0.0162078 0.0307925 0.0858617 0.0118204 -0.0238385 0.0150723 0.0109508 0.0452087 0.00222587 0.00412363 -0.136562
internal_weight=1239.15 823.857 451.957 371.9 412.771 39.1857 9.8779 415.29 34.6753 380.615 334.866 45.7493 362.022 27.7838 6.89154
internal_count=5654 3784 2199 1585 2011 188 41 1870 154 1716 1509 207 1544 124 30
is_linear=0
shrinkage=0.086


Tree=25
num_leaves=13
num_cat=0
split_feature=16 45 11 46 72 29 32 5 69 26 66 15
split_gain=8.47478 7.32637 6.15689 6.11808 9.43691 13.7381 7.26683 7.95491 6.39085 5.79238 4.0079 2.41855
threshold=1.7638888888888891 -1.6333333333333331 0.90000000000000013 -1.4499999999999997 0.14142857142857146 0.26172161172161179 21.500000000000004 0.75781898433714801 0.36666666666666675 23.500000000000004 1.0000000180025095e-35 0.095454545454545472
decision_type=2 2 2 2 2 2 2 2 2 2 2 2
left_child=3 -2 9 4 11 -6 7 -5 -8 -3 -4 -1
right_child=1 2 10 6 5 -7 8 -9 -10 -11 -12 -13
leaf_value=0.049915231719126402 -0.11178757893977519 0.03715834395565859 -0.11831218916364228 -0.0016853440350791064 -0.04936796199438985 0.045390509142385876 -0.1213313686898712 -0.035772905034800455 -0.026993992633653954 0.0091084599275370551 -0.012202353433764815 0.13378653901309145
leaf_weight=4.6393609344959241 3.5617057234048835 65.086939975619316 4.091390520334242 668.5584579706192 19.23654268682003 27.44343376159668 6.2502097785472861 54.781818963587284 35.527094542980194 334.31321338564157 7.4314367920160294 5.8094501793384552
leaf_count=20 17 290 19 3054 82 117 29 289 168 1510 34 25
internal_value=0.000796884 0.0108245 0.0118924 -0.00425671 0.0228852 0.00631679 -0.00628493 -0.00426883 -0.041158 0.0136829 -0.050038 0.096729
internal_weight=1236.73 414.485 410.923 822.246 57.1288 46.68 765.118 723.34 41.7773 399.4 11.5228 10.4488
internal_count=5654 1870 1853 3784 244 199 3540 3343 197 1800 53 45
is_linear=0
shrinkage=0.086


Tree=26
num_leaves=16
num_cat=0
split_feature=0 6 70 39 26 18 33 73 40 33 21 43 24 73 21
split_gain=7.45033 8.77503 8.68224 9.66156 8.66808 7.84444 7.84431 9.63175 11.1883 7.7381 7.46795 5.52399 5.25911 6.97872 4.61811
threshold=1.0000000180025095e-35 -0.41072238011470436 0.46470099667774095 0.70833333333333337 23.500000000000004 1.2111111111111115 -10.499999999999998 0.22611077297626295 -0.11666666666666663 7.5000000000000009 1.5000000000000002 0.90000000000000013 -3.8333333333333326 0.23466833541927412 -3.4999999999999996
decision_type=2 2 2 2 2 2 2 2 2 2 2 2 2 2 2
left_child=6 2 5 -4 9 -2 7 11 -9 -3 -6 -1 13 -8 -14
right_child=1 4 3 -5 10 -7 12 8 -10 -11 -12 -13 14 -15 -16
leaf_value=0.062518819248002108 0.013217664030236316 0.026261222464001682 -0.062569084083102175 0.056933334860030473 0.010026966051646971 -0.0115601783708637 -0.032004693757393926 0.12392604611122546 -0.021678824306655551 0.099363385965030915 -0.037512853243036777 -0.069416518645473296 -0.044823236561019462 0.14286794676308734 -0.012046076510267414
leaf_weight=3.3518593385815638 171.40165367722511 88.185526147484779 31.719482809305191 5.92348489165306 357.23588907718658 210.59299132227898 3.1677174121141425 11.214866727590563 5.9629607051610938 12.200319081544874 26.216713339090347 7.732850156724453 36.254426509141922 3.5767751783132553 259.98223152756691
leaf_count=18 705 375 130 24 1570 877 19 56 29 53 111 44 202 18 1423
internal_value=0.000727128 0.0047729 -0.00432598 -0.0437267 0.0126665 -0.000439561 -0.0103045 0.0330084 0.0733388 0.0351649 0.00677308 -0.0294077 -0.0143492 0.0606561 -0.0160623
internal_weight=1234.72 903.476 419.638 37.643 483.838 381.995 331.244 28.2625 17.1778 100.386 383.453 11.0847 302.981 6.74449 296.237
internal_count=5654 3845 1736 154 2109 1582 1809 147 85 428 1681 62 1662 37 1625
is_linear=0
shrinkage=0.086


Tree=27
num_leaves=14
num_cat=0
split_feature=9 11 73 2 74 72 64 64 2 11 74 64 43
split_gain=6.75393 8.63235 5.55198 6.67016 5.58387 6.56574 5.41583 5.04456 4.71465 5.29333 4.70582 4.22989 2.5189
threshold=1.0560947717728457 0.77500000000000013 0.36266924564796915 1347.753591821016 2.840566275096061 0.28281378178835115 85.536966361402293 -33.196620074144327 1585.2260186210788 0.45000000000000007 2.7935828814082284 14.005741854590157 1.5500000000000003
decision_type=2 2 2 2 2 2 2 2 2 2 2 2 2
left_child=2 8 3 7 10 -6 -5 -1 9 -2 -4 -10 -3
right_child=1 12 4 6 5 -7 -8 -9 11 -11 -12 -13 -14
leaf_value=0.096790690288877421 0.03224466251844859 -0.11639599963735595 0.018628333541252949 -0.0053582436745701432 0.023434150968547052 0.15172548276763223 0.063277374781176191 -0.00079398360532878466 -0.10064697106504311 0.10653223140863524 -0.0088904482518420251 0.027118609404562226 -0.011054726852029961
leaf_weight=8.4677522927522642 54.923643171787262 3.6096233874559394 119.24656236171722 921.9485794827342 9.0974095165729505 4.3778735846281043 8.5699112266302091 7.2453397065401068 3.4124315902590743 8.1608419716358167 74.711382493376732 4.3289495334029198 3.1792246475815773
leaf_count=36 308 23 527 4188 41 19 38 30 23 43 330 27 21
internal_value=0.0006607 0.025216 -0.000990609 -0.00378479 0.01175 0.0652718 -0.00472434 0.0517567 0.0341072 0.0418865 0.00802304 -0.029125 -0.0673052
internal_weight=1231.28 77.6147 1153.66 946.232 207.433 13.4753 930.518 15.7131 70.8259 63.0845 193.958 7.74138 6.78885
internal_count=5654 445 5209 4292 917 60 4226 66 401 351 857 50 44
is_linear=0
shrinkage=0.086


Tree=28
num_leaves=16
num_cat=0
split_feature=46 6 6 26 47 26 9 46 6 45 33 72 9 19 20
split_gain=11.2482 12.5802 8.69245 7.74882 7.66876 6.26251 6.54039 5.17707 5.00866 6.00076 5.13817 5.00106 5.50505 5.24702 2.68948
threshold=0.54999999999999993 0.81201734360055611 0.26689724391189423 2.5000000000000004 0.63333333333333341 155.50000000000003 0.058732417005929939 1.1000000000000003 1.0885241200635898 1.1000000000000003 10.500000000000002 0.30839160839160845 0.3006179111262644 1.4722222222222225 1.5000000000000002
decision_type=2 2 2 2 2 2 2 2 2 2 2 2 2 2 2
left_child=1 2 3 -1 -4 8 7 -7 10 -10 -2 12 -3 -13 -8
right_child=5 11 4 -5 -6 6 14 -9 9 -11 -12 13 -14 -15 -16
leaf_value=-0.035209032792793908 -0.0077822463422170789 -0.023803496755975886 -0.059662029348684045 0.0056574616289192491 0.043218001513670577 -0.057356747191047677 0.15000360234091523 0.06460047460633421 -0.066346789286330615 0.028954413404200706 -0.051351810828042688 0.10109376243369249 0.02436224938498549 0.032934433421041798 0.049497271527919877
leaf_weight=36.398160219192505 269.24358180910349 19.947089567780495 28.777555637061596 595.97295748442411 6.5647764652967444 6.2974801659584063 3.6325314193963987 4.3367045223712921 24.708741895854477 6.0677351057529441 21.631499893963337 11.57792219519615 144.48523755371571 30.28844441473484 4.4129940420389175
leaf_count=165 1292 83 124 2594 29 26 15 19 155 31 108 52 723 141 21
internal_value=0.00155276 0.00671839 0.000981615 0.00330311 -0.0405162 -0.01171 0.0366712 -0.00751071 -0.0145239 -0.0475209 -0.0110276 0.0252803 0.018512 0.0518278 0.0951336
internal_weight=1214.34 874.012 667.713 632.371 35.3423 340.331 18.6797 10.6342 321.652 30.7765 290.875 206.299 164.432 41.8664 8.04553
internal_count=5578 3911 2912 2759 153 1667 81 45 1586 186 1400 999 806 193 36
is_linear=0
shrinkage=0.086


Tree=29
num_leaves=15
num_cat=0
split_feature=28 13 15 67 5 32 5 10 1 42 32 28 1 1
split_gain=9.81871 8.16095 13.2511 8.14209 7.84352 6.67427 5.85105 5.53921 5.52858 5.19186 4.94643 4.47766 3.43438 5.13531
threshold=-4.4999999999999991 0.68333333333333346 0.58114035087719318 0.12132352941176472 0.37627174192201551 25.500000000000004 0.53460882317370684 1.0000000180025095e-35 1456.134364848727 1.7750000000000001 14.500000000000002 -45.499999999999993 1498.6867543358874 1627.0847794598153
decision_type=2 2 2 2 2 2 2 2 2 2 2 2 2 2
left_child=3 2 5 6 8 -2 11 -8 -5 -6 -4 -1 -3 -14
right_child=1 12 10 4 9 -7 7 -9 -10 -11 -12 -13 13 -15
leaf_value=-0.003399136119616101 0.0091046824986465921 0.032261093864862152 0.061057538343460706 -0.012404185014333201 0.0052766884434906156 -0.033085199104024875 0.00076404954251231344 -0.11487187934694332 -0.12584846587420068 -0.014563670375397754 0.17768058384167568 -0.10388087821648417 -0.089250886291235593 0.016342182057023025
leaf_weight=4.2925302684307125 686.9244371727109 3.474880218505862 10.059955805540083 6.1691617965698224 242.34589915722609 28.879885166883469 20.645293794572357 3.5841858685016623 6.5951706916093826 163.21232385933399 3.6980936229228965 14.206122174859045 12.766303971409799 4.6199464648962012
leaf_count=21 2997 16 44 27 1137 129 114 21 32 880 16 69 55 20
internal_value=0.00142243 0.00749174 0.0090097 -0.00845392 -0.00479812 0.00740061 -0.0442118 -0.0163393 -0.0711528 -0.00270546 0.0925865 -0.0806347 -0.0455243 -0.0611397
internal_weight=1211.47 750.424 729.562 461.051 418.323 715.804 42.7281 24.2295 12.7643 405.558 13.758 18.4987 20.8611 17.3863
internal_count=5578 3277 3186 2301 2076 3126 225 135 59 2017 60 90 91 75
is_linear=0
shrinkage=0.086


Tree=30
num_leaves=15
num_cat=0
split_feature=46 70 14 73 69 33 9 2 73 24 33 3 64 48
split_gain=8.69068 8.52128 9.86509 9.1246 7.61004 7.28894 7.03812 9.77909 7.84523 7.13297 6.59561 6.57746 5.02106 5.08588
threshold=0.54999999999999993 0.31180555555555561 0.44097222222222227 0.56696428571428581 0.55000000000000016 -1.4999999999999998 -0.19938208887373565 1544.8051854714786 0.36055555555555557 1.3666666666666669 8.5000000000000018 -65.434017043548906 64.577481987250522 0.90000000000000013
decision_type=2 2 2 2 2 2 2 2 2 2 2 2 2 2
left_child=6 4 11 -4 10 -6 7 8 -1 -9 -2 -3 13 -8
right_child=1 2 3 -5 5 -7 12 9 -10 -11 -12 -13 -14 -15
leaf_value=-0.014267762890408106 -0.024864164158848859 0.010018760737295006 -0.0041836343561551257 -0.13775090263570453 0.11123835376923442 -0.0041144866435887332 0.012582575454529642 0.018224321131240818 0.017490337260392758 0.11280350540791163 -0.089673749452935173 0.079538400554838296 -0.087905464313343049 0.064321575814201781
leaf_weight=285.27602003514767 142.16212328523397 23.165437832474709 115.69115388393402 3.9017334282398215 5.3350927382707622 16.673224575817585 422.71601349115372 67.152903139591217 72.027282312512398 6.4636415392160407 12.657017841935156 17.848249301314354 3.5711869895458213 14.537403225898741
leaf_count=1246 735 131 527 17 27 84 1936 305 313 29 68 78 15 67
internal_value=0.00129711 -0.0104203 0.00391415 -0.00856107 -0.0234452 0.0238394 0.00583394 -0.00197966 -0.00786258 0.0265567 -0.0301747 0.0403093 0.0134742 0.0143065
internal_weight=1209.18 337.434 160.607 119.593 176.827 22.0083 871.744 430.92 357.303 73.6165 154.819 41.0137 440.825 437.253
internal_count=5578 1667 753 544 914 111 3911 1893 1559 334 803 209 2018 2003
is_linear=0
shrinkage=0.086


end of trees

feature_importances:
handicap_deviation=45
handicap_normalized=21
rest_diff=21
home_elo=18
is_home_favorite=15
elo_surprise=14
home_score_avg=14
points_diff=14
home_season_wr=14
away_streak=13
h2h_score_diff=13
away_elo_velocity=13
league_avg_goals=13
away_rest_days=12
home_points=11
away_net_trend=11
away_elo=10
elo_diff=10
home_elo_velocity=10
home_clean_sheet_rate=10
away_clean_sheet_rate=10
away_wr_20=9
away_points=9
away_season_wr=8
home_rest_days=8
home_conceded_trend=8
h2h_cover_rate=8
home_draw_rate=8
away_draw_rate=8
home_concede_avg=6
home_net_trend=6
elo_expected=5
handicap_direction=5
home_wr_5=5
home_streak=5
away_wr_5=4
home_wr_20=4
away_score_avg=3
away_conceded_trend=3
handi_team_past_accuracy=2
away_wr_10=2
away_concede_avg=2
h2h_home_wr=2
home_recent_form=2
form_diff=2
home_scored_trend=2
away_scored_trend=2
away_recent_cover=2
away_away_win_rate=2
away_recent_form=1
home_recent_cover=1
away_win_streak=1
home_home_win_rate=1

parameters:
[boosting: gbdt]
[objective: binary]
[metric: binary_logloss]
[tree_learner: serial]
[device_type: cpu]
[data_sample_strategy: bagging]
[data: ]
[valid: ]
[num_iterations: 3000]
[learning_rate: 0.086]
[num_leaves: 39]
[num_threads: 0]
[seed: 0]
[deterministic: 0]
[force_col_wise: 0]
[force_row_wise: 0]
[histogram_pool_size: -1]
[max_depth: 4]
[min_data_in_leaf: 15]
[min_sum_hessian_in_leaf: 0.001]
[bagging_fraction: 0.78]
[pos_bagging_fraction: 1]
[neg_bagging_fraction: 1]
[bagging_freq: 7]
[bagging_seed: 3]
[bagging_by_query: 0]
[feature_fraction: 0.6]
[feature_fraction_bynode: 1]
[feature_fraction_seed: 2]
[extra_trees: 0]
[extra_seed: 6]
[early_stopping_round: 0]
[early_stopping_min_delta: 0]
[first_metric_only: 0]
[max_delta_step: 0]
[lambda_l1: 0.012]
[lambda_l2: 0.01]
[linear_lambda: 0]
[min_gain_to_split: 0]
[drop_rate: 0.1]
[max_drop: 50]
[skip_drop: 0.5]
[xgboost_dart_mode: 0]
[uniform_drop: 0]
[drop_seed: 4]
[top_rate: 0.2]
[other_rate: 0.1]
[min_data_per_group: 100]
[max_cat_threshold: 32]
[cat_l2: 10]
[cat_smooth: 10]
[max_cat_to_onehot: 4]
[top_k: 20]
[monotone_constraints: ]
[monotone_constraints_method: basic]
[monotone_penalty: 0]
[feature_contri: ]
[forcedsplits_filename: ]
[refit_decay_rate: 0.9]
[cegb_tradeoff: 1]
[cegb_penalty_split: 0]
[cegb_penalty_feature_lazy: ]
[cegb_penalty_feature_coupled: ]
[path_smooth: 0]
[interaction_constraints: ]
[verbosity: -1]
[saved_feature_importance_type: 0]
[use_quantized_grad: 0]
[num_grad_quant_bins: 4]
[quant_train_renew_leaf: 0]
[stochastic_rounding: 1]
[linear_tree: 0]
[max_bin: 255]
[max_bin_by_feature: ]
[min_data_in_bin: 3]
[bin_construct_sample_cnt: 200000]
[data_random_seed: 1]
[is_enable_sparse: 1]
[enable_bundle: 1]
[use_missing: 1]
[zero_as_missing: 0]
[feature_pre_filter: 1]
[pre_partition: 0]
[two_round: 0]
[header: 0]
[label_column: ]
[weight_column: ]
[group_column: ]
[ignore_column: ]
[categorical_feature: ]
[forcedbins_filename: ]
[precise_float_parser: 0]
[parser_config_file: ]
[objective_seed: 5]
[num_class: 1]
[is_unbalance: 0]
[scale_pos_weight: 1]
[sigmoid: 1]
[boost_from_average: 1]
[reg_sqrt: 0]
[alpha: 0.9]
[fair_c: 1]
[poisson_max_delta_step: 0.7]
[tweedie_variance_power: 1.5]
[lambdarank_truncation_level: 30]
[lambdarank_norm: 1]
[label_gain: ]
[lambdarank_position_bias_regularization: 0]
[eval_at: ]
[multi_error_top_k: 1]
[auc_mu_weights: ]
[num_machines: 1]
[local_listen_port: 12400]
[time_out: 120]
[machine_list_filename: ]
[machines: ]
[gpu_platform_id: -1]
[gpu_device_id: -1]
[gpu_use_dp: 0]
[num_gpu: 1]

end of parameters

pandas_categorical:[]
