tree
version=v4
num_class=1
num_tree_per_iteration=1
label_index=0
max_feature_idx=74
objective=binary sigmoid:1
feature_names=is_home_favorite home_elo away_elo elo_diff elo_expected elo_surprise handicap_normalized handicap_direction handi_team_past_accuracy handicap_deviation home_wr_5 away_wr_5 home_wr_10 away_wr_10 home_wr_20 away_wr_20 home_score_avg away_score_avg home_concede_avg away_concede_avg home_streak away_streak h2h_home_wr h2h_away_wr h2h_score_diff h2h_count home_points away_points points_diff home_season_wr away_season_wr home_rest_days away_rest_days rest_diff home_games_7d away_games_7d home_back_to_back away_back_to_back home_recent_form away_recent_form form_diff home_scored_trend away_scored_trend home_conceded_trend away_conceded_trend home_net_trend away_net_trend home_recent_cover away_recent_cover line_movement line_movement_abs has_line_movement line_movement_midday consensus_home_prob consensus_away_prob sharp_home_prob odds_dispersion sharp_soft_gap implied_overround odds_count best_home_odds best_away_odds odds_vs_handicap home_elo_velocity away_elo_velocity home_win_streak away_win_streak home_home_win_rate away_away_win_rate h2h_cover_rate home_clean_sheet_rate away_clean_sheet_rate home_draw_rate away_draw_rate league_avg_goals
feature_infos=[0:1] [1253.6611318038745:1860.0372331508638] [1255.8117707178894:1867.0932429740742] [-461.05543986785733:468.75877253964836] [0.090408221622370735:0.95451323778539865] [0.21668339075536136:0.95451323778539865] [-1.0220648812166018:4.8386406105182695] [0:1] [0:1] [-0.81305084745762712:3.4869491525423726] [0:1] [0:1] [0:1] [0:1] [0:1] [0:1] [0:6] [0:6.5] [0:6] [0:6.5] [-16:16] [-25:11] [0:1] [0:1] [-9:8] [0:6] [0:210] [0:211] [-190:189] [0:1] [0:1] [1:686] [0:694] [-27:27] [0:2] [0:2] none none [0:1] [0:1] [-1:1] [0:6] [0:5.5] [0:5] [0:6] [-5:5] [-5:4.25] [0:1] [0:1] none none none none none none none none none none none none none none [-132.54183069843907:134.81389848660979] [-140.55062877090654:119.18568877682333] [-12:16] [-13:17] [0:1] [0:1] [0:1] [0:1] [0:1] [0:1] [0:1] [0.5:2.8497800125707102]
tree_sizes=1699 1644 1735 1754 1749 1537 1529 1321 1530 1748 1417 1648 1648 1746 1535 1741 1744 1745 1531 1542 1505 1746 1758 1765 1540

Tree=0
num_leaves=15
num_cat=0
split_feature=9 6 30 0 32 5 33 28 26 64 65 1 63 45
split_gain=13.198 38.8958 17.1138 13.589 14.8102 9.82272 8.66878 7.75174 6.757 5.91638 6.37451 5.20286 4.7495 4.57953
threshold=0.30063774778219249 -0.41076298184164189 0.075498575498575513 1.0000000180025095e-35 6.5000000000000009 0.52910067704418873 2.5000000000000004 1.5000000000000002 150.50000000000003 47.142443042704379 2.5000000000000004 1701.1531511093756 25.677799203333965 0.77500000000000013
decision_type=2 2 2 2 2 2 2 2 2 2 2 2 2 2
left_child=1 3 7 6 -5 -4 -1 -3 9 10 -2 -10 -13 -11
right_child=8 2 5 4 -6 -7 -8 -9 11 13 -12 12 -14 -15
leaf_value=-0.16573772859914054 -0.16798460792181316 -0.19780158285276842 -0.16636845451823326 -0.16415735096017739 -0.17328741411386189 -0.15627704419659597 -0.15509301156944455 -0.16885266197967144 -0.17247622157915241 -0.18505514464257991 -0.17762894832026571 -0.14415749479642578 -0.1674867368130481 -0.16598498329251396
leaf_weight=140.28963528573513 200.8748937100172 5.4626052677631405 45.190643578767776 105.52760176360607 216.2695085555315 256.24584710597992 38.983137592673302 11.421811014413832 7.4490071833133724 17.629317000508312 31.782430648803711 9.9320095777511579 5.2143050283193579 7.2007069438695899
leaf_count=565 809 22 182 425 871 1032 157 46 30 71 128 40 21 29
internal_value=-0.165641 -0.164361 -0.158894 -0.167832 -0.170291 -0.157793 -0.163424 -0.178414 -0.169389 -0.170311 -0.169311 -0.158942 -0.152216 -0.17959
internal_weight=1099.47 819.391 318.321 501.07 321.797 301.436 179.273 16.8844 280.083 257.487 232.657 22.5953 15.1463 24.83
internal_count=4428 3300 1282 2018 1296 1214 722 68 1128 1037 937 91 61 100
is_linear=0
shrinkage=1


Tree=1
num_leaves=14
num_cat=0
split_feature=33 66 29 64 10 73 74 74 71 71 39 29 72
split_gain=9.87229 13.6125 8.19958 10.0862 9.3573 8.06295 8.04337 8.50837 13.9474 8.08693 5.38895 5.32889 2.52079
threshold=4.5000000000000009 2.5000000000000004 0.22756041426927506 -21.331389429623751 0.22500000000000003 0.22086720867208673 2.6778851988188186 2.7449163989206444 0.30583900226757377 0.68990384615384626 0.45000000000000007 0.060661764705882359 0.28416149068322988
decision_type=2 2 2 2 2 2 2 2 2 2 2 2 2
left_child=6 2 3 -2 -4 -3 10 8 -8 -9 11 -1 -12
right_child=1 5 4 -5 -6 -7 7 9 -10 -11 12 -13 -14
leaf_value=-0.026001602146551277 0.027434326689618017 0.008417789699230422 -0.0089316779667973859 0.0042548657516651425 0.0027974923853511646 0.039507918756886806 -0.00091346390710870975 -0.0014131986554832634 0.012536667971212346 -0.022586768399518179 -0.0053038302207031708 -0.0084435039187740132 0.0083953424803317588
leaf_weight=9.6713806390762311 10.182971641421316 7.4496039003133756 35.013488724827766 28.561750307679176 120.67961134016514 6.2088525146245956 86.647517070174217 688.99559900164604 47.666595414280891 7.1997294872999182 18.37412449717522 25.325372233986855 7.4503702074289313
leaf_count=39 41 30 141 115 486 25 349 2775 192 29 74 102 30
internal_value=-0.000345915 0.00357411 0.00220685 0.0104276 0.000149286 0.0228078 -0.00126253 -0.000746576 0.00385818 -0.00163681 -0.00827866 -0.0133845 -0.0012959
internal_weight=1099.43 208.096 194.438 38.7447 155.693 13.6585 891.331 830.509 134.314 696.195 60.8212 34.9968 25.8245
internal_count=4428 838 783 156 627 55 3590 3345 541 2804 245 141 104
is_linear=0
shrinkage=0.02


Tree=2
num_leaves=15
num_cat=0
split_feature=9 9 18 63 27 33 44 73 26 63 41 29 63 9
split_gain=12.658 34.2253 12.0655 12.669 8.87844 9.11788 8.07619 7.4847 8.60466 8.56211 7.54163 6.31241 5.49072 4.95801
threshold=0.30063774778219249 -0.19936225221780757 2.7071428571428577 51.740695885326552 3.5000000000000004 11.500000000000002 1.9000000000000001 0.36626016260162603 150.50000000000003 -41.238056533272349 2.2916666666666674 0.65933268858800786 -15.987367081004093 -0.51468615445879673
decision_type=2 2 2 2 2 2 2 2 2 2 2 2 2 2
left_child=1 2 3 -1 6 -6 -3 8 10 -9 -2 -10 -11 -4
right_child=7 4 13 -5 5 -7 -8 9 11 12 -12 -13 -14 -15
leaf_value=-0.0036038248126930932 -0.0047164852730275496 0.0033472706454576702 0.030047256521946793 0.007853395030160127 0.0063052758641812005 0.02125759572996436 -0.021541898303795538 0.024537882025125756 -0.0078387083950248321 -0.014619982269371124 -0.014084804129164472 0.015777317745656265 0.0036941383058093904 0.003020547764203007
leaf_weight=465.44777074456215 171.74682219326496 13.896953716874124 6.2076672911643982 41.954062134027481 261.3613995462656 17.399143368005753 8.1775333881378156 6.4540035277605048 6.9495421051979092 8.1913978010416013 43.17877085506916 12.4250011742115 31.024905279278755 4.966641351580618
leaf_count=1875 692 56 25 169 1052 70 33 26 28 33 174 50 125 20
internal_value=-0.000338972 0.000914521 -0.00219723 -0.00265316 0.0062808 0.00724942 -0.00588344 -0.00401025 -0.00545535 0.00337732 -0.00660892 0.00725828 -0.000133288 0.0182567
internal_weight=1099.38 819.411 518.576 507.402 300.835 278.761 22.0745 279.97 234.3 45.6703 214.926 19.3745 39.2163 11.1743
internal_count=4428 3300 2089 2044 1211 1122 89 1128 944 184 866 78 158 45
is_linear=0
shrinkage=0.02


Tree=3
num_leaves=15
num_cat=0
split_feature=9 9 7 32 72 27 42 33 73 26 63 41 63 9
split_gain=12.1616 32.8567 12.1951 11.6446 8.53971 8.52399 8.81094 8.73758 7.19379 8.26804 8.21071 7.26013 5.2807 5.11122
threshold=0.30063774778219249 -0.19936225221780757 1.0000000180025095e-35 6.5000000000000009 0.12347560975609757 3.5000000000000004 0.77500000000000013 11.500000000000002 0.36626016260162603 150.50000000000003 -41.238056533272349 2.2916666666666674 -15.987367081004093 0.79359296616858199
decision_type=2 2 2 2 2 2 2 2 2 2 2 2 2 2
left_child=1 2 4 -4 -1 6 -3 -7 9 11 -10 -2 -12 -11
right_child=8 5 3 -5 -6 7 -8 -9 10 13 12 -13 -14 -15
leaf_value=0.012073749032329035 -0.0046241080663323702 0.0034160105766345679 0.00093243425179700284 -0.0070628583501923612 0.00011939436160087345 0.0061761781662266558 -0.022948066704286535 0.020803568042825363 0.024008942443881007 -0.0068495894889158996 -0.014349478580516229 -0.013821279697617704 0.0036193634138577025 0.014561357768015478
leaf_weight=28.065025269985199 171.67700317502022 14.388528376817705 107.74474355578423 223.51577818393707 159.15061591565609 261.4887992143631 7.6725977957248679 17.425204366445541 6.4663408249616614 6.7028149515390423 8.1808891445398313 43.124453991651535 31.034518554806709 12.681381687521933
leaf_count=113 692 58 434 901 641 1052 31 70 26 27 33 174 125 51
internal_value=-0.000332092 0.000896338 -0.00215347 -0.00445982 0.00192227 0.00615239 -0.00577015 0.00710074 -0.00393154 -0.00534909 0.00330943 -0.0064808 -0.00013072 0.00710924
internal_weight=1099.32 819.451 518.476 331.261 187.216 300.975 22.0611 278.914 279.867 234.186 45.6817 214.801 39.2154 19.3842
internal_count=4428 3300 2089 1335 754 1211 89 1122 1128 944 184 866 158 78
is_linear=0
shrinkage=0.02


Tree=4
num_leaves=15
num_cat=0
split_feature=9 6 30 0 29 17 29 5 73 26 63 64 6 63
split_gain=11.6847 34.6752 15.4259 12.494 11.2571 10.7228 10.0899 9.24142 6.91431 7.94475 7.87666 7.07276 6.14711 5.07907
threshold=0.30063774778219249 -0.41076298184164189 0.075498575498575513 1.0000000180025095e-35 0.1438923395445135 0.68333333333333346 0.43847632780581597 0.52910067704418873 0.36626016260162603 150.50000000000003 -41.238056533272349 47.142443042704379 1.4582912955735892 -15.987367081004093
decision_type=2 2 2 2 2 2 2 2 2 2 2 2 2 2
left_child=1 3 5 4 -1 -3 -5 -4 9 11 -10 -2 -11 -12
right_child=8 2 7 6 -6 -7 -8 -9 10 12 13 -13 -14 -15
leaf_value=0.014983484615049281 -0.0051216184263360807 0.0063729835427670679 -0.0012383958590587718 -0.006656443920063003 -7.7813765319864782e-05 -0.025819284926500496 0.0018537021381592393 0.0085456560375816188 0.02349913034328056 -0.0079334646304434799 -0.014085099291481096 -0.017150102794052609 0.015363398201538751 0.0035461472715581643
leaf_weight=22.60832604765892 192.8721464574337 6.9391775876283672 45.218099802732468 250.00905941426754 156.68762384355068 9.8912666440010053 71.439042821526527 256.68129217624664 6.4765573590993872 6.9514073729515102 8.1697458624839765 21.801696494221687 12.441677078604696 31.043736413121223
leaf_count=91 778 28 182 1008 631 40 288 1032 26 28 33 88 50 125
internal_value=-0.000325417 0.000878457 0.00603499 -0.0024023 0.00182306 -0.0125281 -0.00476204 0.00707698 -0.00385448 -0.005245 0.00324314 -0.00635527 0.00696353 -0.000128198
internal_weight=1099.23 819.474 318.73 500.744 179.296 16.8304 321.448 301.899 279.757 234.067 45.69 214.674 19.3931 39.2135
internal_count=4428 3300 1282 2018 722 68 1296 1214 1128 944 184 866 78 158
is_linear=0
shrinkage=0.02


Tree=5
num_leaves=13
num_cat=0
split_feature=6 6 28 30 24 63 6 64 6 6 6 28
split_gain=13.1617 38.6431 16.4364 14.6639 11.2574 10.7649 8.40788 8.28633 7.07916 10.9245 9.90239 6.23115
threshold=-0.41076298184164189 0.17193685268625361 -86.499999999999986 0.059714795008912663 -0.63333333333333319 44.287067154141489 -0.68774326441732259 -29.437538618510867 2.1645145762292732 2.2517517760267629 1.8671054088891261 1.5000000000000002
decision_type=2 2 2 2 2 2 2 2 2 2 2 2
left_child=2 3 -1 11 -5 6 -4 -7 10 -10 -3 -2
right_child=1 8 5 4 -6 7 -8 -9 9 -11 -12 -13
leaf_value=0.02474252071462546 -0.03055155214815428 -0.0026987686922923821 -0.0024997284054586199 0.016544653579485757 0.0064274019053363997 0.0249762275705252 -0.0095783038615331519 0.0024416978946755785 -0.033040744547355762 -0.0057342827665342903 0.0086849887304421922 -0.0020588300044681639
leaf_weight=8.6915476918220502 4.9161293804645529 248.78303718566895 361.69015534222126 56.238583073019981 205.74137027561665 7.6962555050849906 82.583001911640167 41.195174738764763 6.6929455399513236 44.624509960412979 34.720169141888618 8.1709354221820814
leaf_count=35 20 1003 1458 226 827 31 333 166 27 180 140 33
internal_value=4.44424e-05 0.00201918 -0.00235332 0.00757303 0.00860855 -0.0028378 -0.00381963 0.00605313 -0.00254141 -0.00937244 -0.00129852 -0.0129884
internal_weight=1111.74 609.888 501.856 275.067 261.98 493.165 444.273 48.8914 334.821 51.3175 283.503 13.0871
internal_count=4479 2456 2023 1106 1053 1988 1791 197 1350 207 1143 53
is_linear=0
shrinkage=0.02


Tree=6
num_leaves=13
num_cat=0
split_feature=28 19 9 9 30 14 63 73 45 30 32 12
split_gain=11.414 12.7589 11.0809 36.5635 13.4707 11.5011 10.4036 8.90366 7.87917 4.57333 5.3835 4.31978
threshold=-84.499999999999986 1.0500000000000003 0.30063774778219249 -0.19936225221780757 0.059714795008912663 0.44097222222222227 44.287067154141489 0.47913043478260875 -1.2916666666666663 0.57229965156794427 7.5000000000000009 0.31666666666666671
decision_type=2 2 2 2 2 2 2 2 2 2 2 2
left_child=1 11 3 6 -5 8 -2 -7 -4 10 -3 -1
right_child=2 9 5 4 -6 7 -8 -9 -10 -11 -12 -13
leaf_value=0.0063893220001268796 -0.0033076011764901492 0.035898628620376377 0.0036164555741770993 -0.012662353703075899 0.0074880484707947649 -0.0026551690623187515 0.0062063325008758661 0.013979949881565555 -0.014668911742229054 0.0069035633057322587 0.012215591686878855 -0.017203509448950088
leaf_weight=5.9574788957834226 461.50116874277592 8.9516724199056679 11.399666517972944 13.815080910921095 276.55841332674026 196.03716991841793 50.903953194618225 13.661816343665121 51.285276412963867 8.1878012567758542 7.2136045992374411 6.206560030579567
leaf_count=24 1861 36 46 56 1111 791 205 55 207 33 29 25
internal_value=4.34701e-05 0.0110251 -0.000329573 0.00085217 0.00652188 -0.00381515 -0.00235948 -0.00156048 -0.0113272 0.0193635 0.0255319 -0.00560923
internal_weight=1111.68 36.5171 1075.16 802.779 290.373 272.384 512.405 209.699 62.6849 24.3531 16.1653 12.164
internal_count=4479 147 4332 3233 1167 1099 2066 846 253 98 65 49
is_linear=0
shrinkage=0.02


Tree=7
num_leaves=11
num_cat=0
split_feature=6 9 28 40 24 48 6 6 32 28
split_gain=12.2194 37.0496 15.2571 10.3505 9.23182 9.37722 8.49856 8.48997 7.31479 7.19303
threshold=-0.41076298184164189 0.30063774778219249 -86.499999999999986 0.57500000000000018 -0.36666666666666664 0.90000000000000013 -0.68774326441732259 -0.089709427526877772 49.000000000000007 -120.49999999999999
decision_type=2 2 2 2 2 2 2 2 2 2
left_child=2 4 -1 6 7 -6 -4 -2 9 -3
right_child=1 8 3 -5 5 -7 -8 -9 -10 -11
leaf_value=0.023796767330441421 0.022858927239192438 0.020314883103458529 -0.0018465052932621732 0.017887688668479469 0.0037401221089150482 0.022052658597632193 -0.0085802071804540539 0.0083680179525049189 -0.022722378634387422 -0.0031720899545670447
leaf_weight=8.7181074321269971 22.675437405705452 5.20731596648693 390.57497395575047 9.4333494156599027 228.89178515970707 11.697111070156096 92.921492993831635 58.043051570653915 7.4332097321748725 276.00347900390625
leaf_count=35 91 21 1575 38 920 47 375 233 30 1114
internal_value=4.2677e-05 0.00194508 -0.00226838 -0.00273614 0.00661708 0.0046434 -0.00314421 0.0124744 -0.00325264 -0.00272655
internal_weight=1111.6 609.951 501.648 492.93 321.307 240.589 483.496 80.7185 288.644 281.211
internal_count=4479 2456 2023 1988 1291 967 1950 324 1165 1135
is_linear=0
shrinkage=0.02


Tree=8
num_leaves=13
num_cat=0
split_feature=28 19 9 9 30 14 40 38 45 30 26 20
split_gain=10.6083 12.0483 10.2343 33.681 12.8662 11.0771 10.22 9.89806 7.58218 4.31961 3.8758 2.66005
threshold=-84.499999999999986 1.0500000000000003 0.30063774778219249 -0.19936225221780757 0.059714795008912663 0.44097222222222227 0.57500000000000018 0.55000000000000016 -1.2916666666666663 0.57229965156794427 35.500000000000007 -1.0000000180025095e-35
decision_type=2 2 2 2 2 2 2 2 2 2 2 2
left_child=1 10 3 6 -5 8 -2 -7 -4 11 -1 -3
right_child=2 9 5 4 -6 7 -8 -9 -10 -11 -12 -13
leaf_value=0.0045099435950211745 -0.0026725098756507741 0.018814157834163087 0.0036074981853507562 -0.012502593178516333 0.0071989813133911552 0.0037583273482546171 0.017451108611638649 -0.0050742612257813858 -0.014331297696473341 0.0066049604485239818 -0.017946659439828327 0.037101405801812835
leaf_weight=6.7029166817665082 501.98562318086624 11.21568585932255 11.400134935975073 13.801320642232893 276.79423616826534 85.727596893906593 10.191591709852217 123.8661063015461 51.193022534251213 8.1972171515226346 5.455977663397789 4.9874103516340282
leaf_count=27 2025 45 46 56 1111 346 41 500 207 33 22 20
internal_value=4.19795e-05 0.0106226 -0.000317891 0.00081747 0.00625587 -0.00366921 -0.0022668 -0.00145674 -0.0110476 0.0187119 -0.00554948 0.0246975
internal_weight=1111.52 36.5592 1074.96 802.773 290.596 272.187 512.177 209.594 62.5932 24.4003 12.1589 16.2031
internal_count=4479 147 4332 3233 1167 1099 2066 846 253 98 49 65
is_linear=0
shrinkage=0.02


Tree=9
num_leaves=15
num_cat=0
split_feature=6 6 30 63 24 1 6 48 64 17 45 40 31 17
split_gain=11.3553 33.4086 13.102 11.1107 10.3642 8.64839 11.634 7.91458 7.74781 7.29436 6.47489 5.94099 5.06013 4.85918
threshold=-0.41076298184164189 0.17193685268625361 0.059714795008912663 44.287067154141489 -0.63333333333333319 1406.3578052906348 -0.68774326441732259 1.0000000180025095e-35 -29.437538618510867 1.2771936982174243 -1.2916666666666663 0.31666666666666671 13.500000000000002 0.84523809523809534
decision_type=2 2 2 2 2 2 2 2 2 2 2 2 2 2
left_child=3 2 11 5 -4 9 -7 12 -5 -1 -9 -2 -3 -10
right_child=1 7 4 8 -6 6 -8 10 13 -11 -12 -13 -14 -15
leaf_value=-0.00060115183190565056 -0.025595289119676318 0.0085512830931752954 0.015612055897394075 0.024674270526908803 0.0059158743801858132 -0.0025746940764540338 -0.011328222880939383 0.0076654306968279799 -0.011584556379974029 0.014802241219129495 -0.0044165154997160084 0.0011512396578028303 -0.0075768544882749032 0.0063043197820831795
leaf_weight=41.138349890708923 6.6180045753717405 37.44628056883812 56.379330232739449 7.9673270583152762 206.0602982789278 317.02329164743423 75.225423336029053 18.850818082690239 7.1979221701622 17.368296802043915 268.53466552495956 6.4198656678199768 9.6684253364801389 35.511721760034561
leaf_count=166 27 151 226 32 827 1279 304 76 29 70 1084 26 39 143
internal_value=4.12288e-05 0.00187488 0.00703226 -0.0021873 0.00800785 -0.00318732 -0.00425845 -0.00237032 0.00667665 0.00397189 -0.00361814 -0.0124406 0.0052114 0.0032461
internal_weight=1111.41 609.978 275.477 501.432 262.44 450.755 392.249 334.5 50.677 58.5066 287.385 13.0379 47.1147 42.7096
internal_count=4479 2456 1106 2023 1053 1819 1583 1350 204 236 1160 53 190 172
is_linear=0
shrinkage=0.02


Tree=10
num_leaves=12
num_cat=0
split_feature=28 33 26 4 8 26 42 8 20 8 26
split_gain=12.098 9.65894 10.2754 8.57737 10.4434 9.99294 9.26319 8.9225 8.48926 6.80792 5.45218
threshold=-84.499999999999986 5.5000000000000009 39.500000000000007 0.59881414765996854 0.60208333333333341 37.500000000000007 0.36666666666666675 0.56465997770345611 -1.0000000180025095e-35 0.38935969868173265 1.5000000000000002
decision_type=2 2 2 2 2 2 2 2 2 2 2
left_child=1 2 9 6 7 -6 10 -5 -8 -1 -2
right_child=3 -3 -4 4 5 -7 8 -9 -10 -11 -12
leaf_value=0.032987899856467058 0.0043817750761964295 0.034279090866164812 -0.016725824456262809 0.001194860566437945 0.0030672086271800176 0.022465759369074783 -0.00091767695034344595 -0.011230525006016104 -0.0062070741974003512 0.0068582893019310514 0.026186263647023426
leaf_weight=4.9876642972230973 19.843232512474064 5.9864802062511435 5.9616338163614264 435.8856758326292 27.530059069395065 17.385157093405724 361.43475292623043 24.30354243516922 183.10606850683689 19.66996231675148 5.9571328312158576
leaf_count=20 80 24 24 1757 111 70 1457 98 738 79 24
internal_value=-7.44779e-05 0.0112155 0.00657677 -0.0004607 0.00143594 0.0106312 -0.00214211 0.00053418 -0.00269893 0.012296 0.00953656
internal_weight=1112.05 36.6057 30.6193 1075.45 505.104 44.9152 570.341 460.189 544.541 24.6576 25.8004
internal_count=4482 147 123 4335 2036 181 2299 1855 2195 99 104
is_linear=0
shrinkage=0.02


Tree=11
num_leaves=14
num_cat=0
split_feature=6 9 28 32 29 70 27 6 30 42 30 3 45
split_gain=15.3603 26.1413 12.8181 9.70433 11.4165 9.21819 7.24673 7.10728 6.45887 6.12528 6.10798 5.87712 5.73499
threshold=-0.41076298184164189 0.081034420431746593 -84.499999999999986 13.500000000000002 0.37057844361215153 0.27386363636363642 2.5000000000000004 2.1645145762292732 0.059714795008912663 0.45000000000000007 0.22961896322552064 48.010542647639575 -0.45000000000000001
decision_type=2 2 2 2 2 2 2 2 2 2 2 2 2
left_child=2 8 12 5 -5 -4 11 -8 9 -2 -10 -3 -1
right_child=1 6 3 4 -6 -7 7 -9 10 -11 -12 -13 -14
leaf_value=0.0010806929147458826 0.0099700305852665743 -0.00010920418494570272 0.0015358170319864156 -0.01353037557008685 0.00017093133518054777 -0.0045639745633908177 -0.0012287136152427272 -0.0096710594327911823 0.014635332904417866 -0.017605659663669417 0.0061081603321555735 0.018304762576984979 0.029301532168358891
leaf_weight=4.9917224645614624 5.1796675473451605 15.363485321402552 188.10783024132252 66.362067371606827 38.139933794736862 208.84751492738724 256.00667548179626 47.259027123451233 40.147230163216591 8.0903611779212934 214.1499250382185 12.374990046024321 6.990864083170889
leaf_count=20 21 62 759 268 154 843 1033 191 161 33 859 50 28
internal_value=-7.27511e-05 0.00210318 -0.00261133 -0.00310293 -0.00852489 -0.00167125 -0.00165214 -0.00255037 0.00675147 -0.00677323 0.00746354 0.00810616 0.0177343
internal_weight=1112.01 598.571 513.44 501.457 104.502 396.955 331.004 303.266 267.567 13.27 254.297 27.7385 11.9826
internal_count=4482 2410 2072 2024 422 1602 1336 1224 1074 54 1020 112 48
is_linear=0
shrinkage=0.02


Tree=12
num_leaves=14
num_cat=0
split_feature=9 9 63 4 19 63 26 16 1 1 72 74 30
split_gain=11.7219 23.8513 9.20561 7.70753 8.85745 7.58136 9.10524 8.51824 6.96656 9.95474 8.34447 6.61104 6.6498
threshold=-0.19936225221780757 0.081034420431746593 44.994572408975166 0.41360152169686742 2.0500000000000003 23.243736539697583 51.500000000000007 1.9500000000000002 1475.1783307035628 1449.6006787952981 0.55050505050505061 2.8451446320807938 0.059714795008912663
decision_type=2 2 2 2 2 2 2 2 2 2 2 2 2
left_child=2 11 5 -4 -5 7 -7 -1 9 -3 -10 12 -2
right_child=1 8 3 4 -6 6 -8 -9 10 -11 -12 -13 -14
leaf_value=-0.0031672323685960164 -0.0075045089295148254 -0.0021820702172866187 -0.017306103840162845 0.011372833764906861 -0.013145365648520773 -0.0020854981481759241 -0.016513791548242247 0.0054679512435720189 -0.00067175576213319846 -0.018941807520444661 0.024698231462350621 -0.009913210152644408 0.0079696603288214405
leaf_weight=354.90491662919521 11.534598082303999 45.830946862697601 5.2144715189933768 42.743490442633629 6.7123778313398352 35.929966390132904 34.397543832659721 52.280210837721825 259.37230077385902 20.555779784917831 5.1910683512687674 9.2307818830013257 227.98789793252945
leaf_count=1433 47 185 21 172 27 145 139 211 1047 83 21 37 914
internal_value=-7.12235e-05 0.00189524 -0.00221512 0.00554548 0.00800512 -0.00310669 -0.00917008 -0.002055 -0.00161941 -0.00740723 -0.000161042 0.00657405 0.00721748
internal_weight=1111.89 579.703 532.183 54.6703 49.4559 477.513 70.3275 407.185 330.95 66.3867 264.563 248.753 239.522
internal_count=4482 2334 2148 220 199 1928 284 1644 1336 268 1068 998 961
is_linear=0
shrinkage=0.02


Tree=13
num_leaves=15
num_cat=0
split_feature=9 9 63 3 41 63 8 16 1 1 72 30 30 42
split_gain=11.2594 22.8997 8.83879 7.40925 7.7153 7.2937 8.98173 8.18141 6.69889 9.58909 8.00149 5.83085 7.28712 4.48038
threshold=-0.19936225221780757 0.081034420431746593 44.994572408975166 -120.64428815511131 1.7750000000000001 23.243736539697583 0.31643132220795894 1.9500000000000002 1475.1783307035628 1449.6006787952981 0.55050505050505061 0.059714795008912663 0.21778656126482215 0.55000000000000016
decision_type=2 2 2 2 2 2 2 2 2 2 2 2 2 2
left_child=2 11 5 -4 -5 7 -7 -1 9 -3 -10 13 -13 -2
right_child=1 8 3 4 -6 6 -8 -9 10 -11 -12 12 -14 -15
leaf_value=-0.0031048586186680134 0.0062410765042013958 -0.0021389550631291756 -0.016991347248481285 0.0158334603181105 1.3581879835844689e-05 0.01162132049955652 -0.011463577973409198 0.0053560779763199796 -0.00065836739492609116 -0.018599564132534267 0.024156147319023661 0.015594311790845052 0.0056544826589139579 -0.018545987891058709
leaf_weight=354.79705573618412 5.1783616542816144 45.821781486272812 5.206775337457656 24.366904333233833 25.117192029953003 7.4271383285522452 62.834230035543442 52.30656835436821 259.35606583952904 20.51756164431572 5.2035232484340659 34.695662319660187 202.59834176301956 6.3447488844394684
leaf_count=1433 21 185 21 98 101 30 254 211 1047 83 21 139 812 26
internal_value=-7.00068e-05 0.00185711 -0.00217158 0.005431 0.00783998 -0.00304564 -0.00899608 -0.00201425 -0.00158734 -0.00726531 -0.000157579 0.00644065 0.00711799 -0.00736305
internal_weight=1111.77 579.716 532.056 54.6909 49.4841 477.365 70.2614 407.104 330.899 66.3393 264.56 248.817 237.294 11.5231
internal_count=4482 2334 2148 220 199 1928 284 1644 1336 268 1068 998 951 47
is_linear=0
shrinkage=0.02


Tree=14
num_leaves=13
num_cat=0
split_feature=6 6 28 32 29 70 28 3 33 38 63 45
split_gain=13.744 23.6692 12.2511 9.30985 10.8808 8.81231 6.747 7.20811 6.40135 7.26119 6.30534 5.43125
threshold=-0.41076298184164189 0.17193685268625361 -84.499999999999986 13.500000000000002 0.37057844361215153 0.27386363636363642 -105.49999999999999 -52.476857971428778 7.5000000000000009 1.0000000180025095e-35 0.789850837338122 -0.45000000000000001
decision_type=2 2 2 2 2 2 2 2 2 2 2 2
left_child=2 8 11 5 -5 -4 -3 -8 9 -2 -10 -1
right_child=1 6 3 4 -6 -7 7 -9 10 -11 -12 -13
leaf_value=0.0011946911493402154 -0.0021864178808722744 0.016172757184866757 0.0015853843574692974 -0.013161779919652856 0.00022013538811055882 -0.004380494815738635 -0.0079811279840040182 -0.0005509479313779152 0.024069458740815678 0.0069264328435316071 0.0039134152737543108 0.028667082177227771
leaf_weight=4.9904676526784897 42.034400552511215 8.1983101516962034 188.0539698600769 66.224038749933243 38.127431571483612 208.64360600709915 65.75873327255249 254.14348275959492 15.219589263200762 202.50963935256004 10.736454278230665 6.9955649226903898
leaf_count=20 169 33 759 268 154 843 266 1026 61 812 43 28
internal_value=-6.85913e-05 0.00198912 -0.00247136 -0.00295248 -0.00826726 -0.00155017 -0.00161942 -0.00208343 0.00636874 0.00535569 0.0158175 0.017416
internal_weight=1111.64 598.601 513.035 501.049 104.351 396.698 328.101 319.902 270.5 244.544 25.956 11.986
internal_count=4482 2410 2072 2024 422 1602 1325 1292 1085 981 104 48
is_linear=0
shrinkage=0.02


Tree=15
num_leaves=15
num_cat=0
split_feature=9 9 27 3 74 9 63 28 27 64 27 63 5 47
split_gain=9.75463 24.259 10.9961 8.99958 9.2738 9.24503 8.46602 8.01945 7.46138 9.01594 8.39536 6.19945 5.84444 7.3568
threshold=0.30063774778219249 -0.19936225221780757 4.5000000000000009 -194.65093989550084 2.8451446320807938 0.058748356818339099 44.994572408975166 -33.499999999999993 58.500000000000007 49.790153921273721 72.500000000000014 42.39978094684114 0.58401596113359566 0.55000000000000016
decision_type=2 2 2 2 2 2 2 2 2 2 2 2 2 2
left_child=1 6 12 5 -5 -3 11 -8 9 -4 -10 -1 -2 -14
right_child=2 3 8 4 -6 -7 7 -9 10 -11 -12 -13 13 -15
leaf_value=-0.0020255388865196957 -0.011420089656649687 -0.014638000097389761 -0.0060646815234109168 0.0074695654777636811 -0.012053684274825251 0.01275052960378501 0.022024550047705999 0.0023383105694272932 0.010388290646052368 -0.024783057891753314 -0.0035322487016468808 -0.020073257133679731 0.018943648739655913 -0.00043824640405823933
leaf_weight=453.32307970523834 5.6928811669349662 15.97670701146126 136.79726415872574 264.05685099959373 9.9792408347129804 6.9862702786922446 9.9547166377305967 47.969269141554832 22.254801645874977 11.098323583602903 76.91134412586689 7.6597665995359412 17.591310217976574 13.873056963086126
leaf_count=1832 23 64 553 1059 40 28 40 193 90 45 311 31 71 56
internal_value=7.05551e-05 0.00118299 -0.00311869 0.00574107 0.00675083 -0.00624278 -0.00142453 0.00577092 -0.00464701 -0.00749189 -0.000390818 -0.00233188 0.00700157 0.0103919
internal_weight=1100.12 815.906 284.219 296.999 274.036 22.963 518.907 57.924 247.062 147.896 99.1661 460.983 37.1572 31.4644
internal_count=4436 3287 1149 1191 1099 92 2096 233 999 598 401 1863 150 127
is_linear=0
shrinkage=0.02


Tree=16
num_leaves=15
num_cat=0
split_feature=6 6 6 14 6 26 63 63 26 22 22 16 32 72
split_gain=9.69626 21.7295 14.604 11.1715 10.5373 9.36227 8.72878 8.55762 9.62263 8.438 8.00167 5.91359 5.43124 5.41835
threshold=1.0878013588569393 -0.41076298184164189 0.17193685268625361 0.5590277777777779 0.6680009572256197 142.50000000000003 6.4519069866216805 44.994572408975166 99.500000000000014 0.70833333333333348 0.63333333333333341 2.5857142857142863 7.5000000000000009 0.28165064102564108
decision_type=2 2 2 2 2 2 2 2 2 2 2 2 2 2
left_child=1 7 3 -3 -4 9 -7 8 -1 10 -2 -8 -11 -9
right_child=5 2 4 -5 -6 6 11 13 -10 12 -12 -13 -14 -15
leaf_value=-0.0018494416312493192 -0.0042836002436645471 0.0048185968469303805 -0.013093037875417296 0.014585897807721491 0.0014978798033361844 0.026264978823478734 0.011980696376703516 -0.0001179806345540403 -0.011422705383264101 -0.019275816500984831 0.017047290962148184 -0.017204429838526557 -0.0052156087109258417 0.012361926324584421
leaf_weight=396.75943973660469 105.08202064037323 211.22641399502754 23.255294278264046 60.406461834907532 129.60823109745979 7.2013371884822872 5.702220290899275 31.086188852787018 46.958550170063972 25.190490648150444 7.4261219054460517 5.2113762050867081 20.028530165553093 24.863134056329727
leaf_count=1604 425 847 94 242 523 29 23 125 190 102 30 21 81 100
internal_value=6.90042e-05 0.000889078 0.00421655 0.00699892 -0.000722423 -0.00423338 0.00932778 -0.00193608 -0.00286718 -0.00580214 -0.00285288 -0.00189444 -0.0130955 0.00542224
internal_weight=1100.01 924.164 424.496 271.633 152.864 175.842 18.1149 499.667 443.718 157.727 112.508 10.9136 45.219 55.9493
internal_count=4436 3725 1706 1089 617 711 73 2019 1794 638 455 44 183 225
is_linear=0
shrinkage=0.02


Tree=17
num_leaves=15
num_cat=0
split_feature=6 6 6 14 6 26 22 30 64 22 6 44 70 41
split_gain=9.31621 20.8685 14.0214 10.7211 10.1347 8.99671 8.12657 11.7298 8.05644 7.68141 7.67033 7.8716 7.31905 5.4743
threshold=1.0878013588569393 -0.41076298184164189 0.17193685268625361 0.5590277777777779 0.6680009572256197 142.50000000000003 0.70833333333333348 0.10990338164251208 -29.437538618510867 0.63333333333333341 -0.68774326441732259 0.77500000000000013 0.46547619047619054 2.7750000000000004
decision_type=2 2 2 2 2 2 2 2 2 2 2 2 2 2
left_child=1 10 3 -3 -4 6 9 -8 -7 -2 11 -1 -12 -10
right_child=5 2 4 -5 -6 8 7 -9 13 -11 12 -13 -14 -15
leaf_value=-0.0079264244889038875 -0.0041999002511762459 0.0047213534194890565 -0.012849593715791601 0.014288174090285844 0.0014677489111657139 -0.012288370618738121 0.015878579380564549 -0.016442196733360438 0.027666545849327945 0.016684374116123998 -0.0050800797034005482 0.00040590058444403408 -0.023408635238793697 0.0011301678490955162
leaf_weight=51.981319546699524 105.03515087068081 211.26704396307468 23.224172130227089 60.433647617697716 129.62540449202061 4.962754130363467 4.9435323774814597 40.209215059876442 7.9513183981180173 7.4379538148641577 88.189245417714119 349.74654081463814 9.6374289244413358 5.2124704122543335
leaf_count=210 425 847 94 242 523 20 20 163 32 30 357 1413 39 21
internal_value=6.75882e-05 0.000871322 0.00413176 0.00685743 -0.000708088 -0.00415084 -0.00569012 -0.0128542 0.0091374 -0.00279633 -0.00189786 -0.000671471 -0.006918 0.0173221
internal_weight=1099.86 924.105 424.55 271.701 152.85 175.752 157.626 45.1527 18.1265 112.473 499.555 401.728 97.8267 13.1638
internal_count=4436 3725 1706 1089 617 711 638 183 73 455 2019 1623 396 53
is_linear=0
shrinkage=0.02


Tree=18
num_leaves=13
num_cat=0
split_feature=64 74 33 20 12 24 28 15 29 26 4 64
split_gain=8.08853 15.7852 14.156 10.8521 9.13394 7.71555 7.54178 5.81799 5.77516 11.6831 11.4443 5.16053
threshold=-35.426929151307256 2.7982961108971893 -15.499999999999998 3.5000000000000004 0.38750000000000007 -0.70833333333333315 -95.499999999999986 0.48684210526315791 0.40462814339218839 118.50000000000001 0.75902347910887358 12.039437637480889
decision_type=2 2 2 2 2 2 2 2 2 2 2 2
left_child=1 2 -1 -4 5 -3 11 -6 9 -8 -10 -2
right_child=6 4 3 -5 7 -7 8 -9 10 -11 -12 -13
leaf_value=-0.0219560700432198 0.0018638336156187019 0.025613819249232547 0.011912410032032597 -0.01189569355868394 -0.0058461381708503355 0.00031676034492853801 -0.0019664604519456907 -0.026588337157093515 0.0032148479252380071 -0.029417729857659704 -0.0047946585604946327 0.024067805505514302
leaf_weight=5.6875810176134101 8.9588658511638659 5.9591949582099941 100.98604683578014 8.1652532219886762 41.377068102359772 24.057257518172264 528.08258441090584 6.1959847807884207 257.5443577170372 6.1820409893989554 98.534614101052284 7.9713375419378272
leaf_count=23 36 24 407 33 167 97 2131 25 1038 25 398 32
internal_value=6.62064e-05 0.00379038 0.0084983 0.010113 -0.00316683 0.00544059 -0.000722901 -0.00861871 -0.000976014 -0.00229142 0.000994916 0.0124569
internal_weight=1099.7 192.428 114.839 109.151 77.5895 30.0165 907.274 47.5731 890.344 534.265 356.079 16.9302
internal_count=4436 776 463 440 313 121 3660 192 3592 2156 1436 68
is_linear=0
shrinkage=0.02


Tree=19
num_leaves=13
num_cat=0
split_feature=9 9 3 12 74 26 2 72 28 68 20 22
split_gain=8.58336 21.2674 8.55661 9.04551 8.76581 8.32634 10.4583 8.81974 6.07239 7.47098 7.88916 6.34374
threshold=0.30063774778219249 -0.19936225221780757 -194.65093989550084 0.29285714285714287 2.8451446320807938 100.50000000000001 1617.1750923065231 0.29217479674796754 -105.49999999999999 0.53137254901960795 1.0000000180025095e-35 0.70833333333333348
decision_type=2 2 2 2 2 2 2 2 2 2 2 2
left_child=1 5 3 -3 -4 6 -1 -7 -2 11 -11 -10
right_child=8 2 4 -5 -6 7 -8 -9 9 10 -12 -13
leaf_value=-0.0013024302601518912 0.015042834681486079 -0.019646181743470589 0.0070561293628410753 0.0053722046055722237 -0.011927970854319148 -0.014512001240338657 0.010660827162315076 0.0036922113487267262 0.00036291505463514944 -0.0048166586404895188 -0.023044700302720086 -0.0065687653327164541
leaf_weight=437.01599861681461 7.209645301103591 10.732301861047747 264.23633866012096 12.232020944356917 9.9749165922403318 35.317251473665237 31.216247841715813 15.0595815628767 154.30894050002098 27.841492682695389 14.528125792741774 79.990342661738396
leaf_count=1766 29 43 1059 49 40 143 126 61 624 113 59 324
internal_value=6.47513e-05 0.00110799 0.00537365 -0.00631119 0.00635781 -0.00133497 -0.000500619 -0.00905371 -0.00292904 -0.00340625 -0.01113 -0.0020011
internal_weight=1099.66 815.785 297.176 22.9643 274.211 518.609 468.232 50.3768 283.879 276.669 42.3696 234.299
internal_count=4436 3287 1191 92 1099 2096 1892 204 1149 1120 172 948
is_linear=0
shrinkage=0.02


Tree=20
num_leaves=13
num_cat=0
split_feature=28 16 28 16 65 63 74 41 32 71 74 15
split_gain=6.94544 11.7159 7.89645 13.3497 7.64341 6.91423 6.88462 6.70227 5.7948 5.63877 9.71266 8.49169
threshold=-33.499999999999993 0.95000000000000007 -40.499999999999993 1.5579842804139818 -1.0000000180025095e-35 -25.150255594772599 2.7926557345469436 0.77500000000000013 131.00000000000003 0.3465463108320252 2.6550956709482616 0.52786377708978338
decision_type=2 2 2 2 2 2 2 2 2 2 2 2
left_child=1 5 4 -4 -3 7 -7 -1 9 11 -11 -2
right_child=8 2 3 -5 -6 6 -8 -9 -10 10 -12 -13
leaf_value=-0.0093406266877146295 -0.00076370344868288177 0.0041765664619401862 0.00030211636377981633 0.031494380494355559 -0.0067870568410033864 0 0.026779928015541323 0.016254586608150701 0.020428519840232261 -0.013963994937342395 0.0044179428401623835 -0.010528042898243186
leaf_weight=7.9478220641613033 731.16864986717701 50.13374525308609 15.606362923979761 8.4225715696811658 51.337479710578918 4.9460346549749401 17.379062488675117 8.188555568456648 5.2011845856904975 12.386368155479429 142.79669843614101 37.38118451833725
leaf_count=32 2950 202 63 34 207 20 70 33 21 50 576 151
internal_value=0.000251536 0.00404579 0.00107367 0.0113622 -0.00136165 0.01369 0.0208851 0.00360643 -0.000417456 -0.000538113 0.00293625 -0.00124124
internal_weight=1092.9 163.962 125.5 24.0289 101.471 38.4615 22.3251 16.1364 928.934 923.733 155.183 768.55
internal_count=4409 661 506 97 409 155 90 65 3748 3727 626 3101
is_linear=0
shrinkage=0.02


Tree=21
num_leaves=15
num_cat=0
split_feature=9 6 72 47 73 15 63 72 17 15 32 73 1 8
split_gain=15.7065 21.5344 11.1836 12.4527 10.7716 15.417 9.73245 7.43218 6.88233 8.37343 8.29914 7.76518 8.0177 7.16337
threshold=0.34399393415598345 -0.41076298184164189 0.39504283965728276 1.0000000180025095e-35 0.20204081632653065 0.060661764705882359 45.498842134645436 0.18469785575048733 0.89444444444444449 0.12916666666666668 6.5000000000000009 0.54195804195804198 1402.7584331357195 0.53093112244897978
decision_type=2 2 2 2 2 2 2 2 2 2 2 2 2 2
left_child=1 4 7 -4 5 -1 -6 -3 9 13 -11 12 -10 -2
right_child=8 2 3 -5 6 -7 -8 -9 11 10 -12 -13 -14 -15
leaf_value=-0.016764718843961742 -0.0083101636910461359 0.0087074039368451404 0.00061309528043046251 0.022004821693723517 -0.0041135524081439287 0.0057178242976678971 0.0066465163576421987 0.0018007852784225746 0.0070616102209401224 0.023948716038974718 0.001142861786964798 0.016555571886321022 -0.0076091936642663721 0.015087563043719519
leaf_weight=13.363142982125281 30.88696976006031 92.062758669257164 16.924528494477272 30.935617834329605 310.4106113165617 128.65061256289482 37.55282536149025 194.3328223079443 16.073326945304871 10.61403299868107 16.058960199356079 5.9489369839429846 182.90541897714138 6.179666429758071
leaf_count=54 125 369 68 124 1256 520 151 779 65 43 65 24 741 25
internal_value=0.000246614 0.00161637 0.00553004 0.0144781 -0.00105203 0.00358493 -0.00294786 0.00402669 -0.00395092 0.00177465 0.0103109 -0.00573664 -0.00641612 -0.00435234
internal_weight=1092.9 824.233 334.256 47.8601 489.977 142.014 347.963 286.396 268.667 63.7396 26.673 204.928 198.979 37.0666
internal_count=4409 3321 1340 192 1981 574 1407 1148 1088 258 108 830 806 150
is_linear=0
shrinkage=0.02


Tree=22
num_leaves=15
num_cat=0
split_feature=9 6 72 47 31 6 6 72 64 20 72 18 27 16
split_gain=15.0868 20.6802 10.7348 11.9463 9.4473 10.7403 9.45822 7.13491 7.03253 6.24506 12.9085 9.52223 5.47755 5.01232
threshold=0.34399393415598345 -0.41076298184164189 0.39504283965728276 1.0000000180025095e-35 14.500000000000002 -0.9125797194703188 -0.68774326441732259 0.18469785575048733 47.142443042704379 1.0000000180025095e-35 0.26876172607879928 1.4365079365079367 61.500000000000007 2.1055555555555561
decision_type=2 2 2 2 2 2 2 2 2 2 2 2 2 2
left_child=1 4 7 -4 6 -6 -1 -3 9 10 -2 -11 13 -10
right_child=8 2 3 -5 5 -7 -8 -9 12 11 -12 -13 -14 -15
leaf_value=0.0015421296536394216 -0.0045738502777746097 0.0085313104594074117 0.0006008881272484976 0.021551864354433931 -0.023436037451719349 -0.003719105393405068 -0.0058252924995709342 0.0017646740612996771 -0.030418497052431343 -0.0037631361266368801 0.0094120438981641439 -0.019986550339920951 -0.00055552805684303322 -0.0070855461807522125
leaf_weight=339.83937466144562 71.421865984797478 92.08557802438736 16.925002470612526 30.955960065126419 14.334707528352736 48.156325682997704 87.576624944806099 194.34526044130325 9.3091217577457446 115.27227061986923 41.724393248558044 16.521642804145813 7.9023283123970023 6.3897376209497443
leaf_count=1373 289 369 68 124 58 195 355 779 38 467 169 67 32 26
internal_value=0.000241914 0.00158418 0.00541889 0.0141836 -0.00103116 -0.00828813 2.9212e-05 0.00394581 -0.00387315 -0.00286014 0.000578586 -0.00581809 -0.0142879 -0.0210898
internal_weight=1092.76 824.219 334.312 47.881 489.907 62.491 427.416 286.431 268.541 244.94 113.146 131.794 23.6012 15.6989
internal_count=4409 3321 1340 192 1981 253 1728 1148 1088 992 458 534 96 64
is_linear=0
shrinkage=0.02


Tree=23
num_leaves=15
num_cat=0
split_feature=9 6 72 47 31 6 6 72 64 20 72 10 27 45
split_gain=14.4986 19.8619 10.3071 11.4654 9.08525 10.3584 9.08856 6.85004 6.78024 6.00443 12.3911 10.1702 5.28986 3.24534
threshold=0.34399393415598345 -0.41076298184164189 0.39504283965728276 1.0000000180025095e-35 14.500000000000002 -0.9125797194703188 -0.68774326441732259 0.18469785575048733 47.142443042704379 1.0000000180025095e-35 0.26876172607879928 0.45000000000000007 61.500000000000007 -0.22500000000000006
decision_type=2 2 2 2 2 2 2 2 2 2 2 2 2 2
left_child=1 4 7 -4 6 -6 -1 -3 9 10 -2 -11 13 -10
right_child=8 2 3 -5 5 -7 -8 -9 12 11 -12 -13 -14 -15
leaf_value=0.0015110682380705775 -0.0044846831405897384 0.0083591293619011148 0.00058892529435159997 0.021113491116308895 -0.023030244509450154 -0.0036463570934070102 -0.005712729474042783 0.0017292920077695696 -0.033866475284977507 -0.018464394375234724 0.0092149097077333462 -0.0032704423274652868 -0.00054458888323803928 -0.013999253248671033
leaf_weight=339.89010745286942 71.387418285012245 92.104567885398865 16.925463944673538 30.968650102615356 14.297671809792517 48.136942312121391 87.518739730119705 194.35714416205883 5.1209570318460473 20.941820353269577 41.766369923949242 110.76453384757042 7.9018542170524588 10.530791744589806
leaf_count=1373 289 369 68 124 58 195 355 779 21 85 169 449 32 43
internal_value=0.000236889 0.00155253 0.00531017 0.0138974 -0.00101086 -0.00813103 2.85517e-05 0.00386661 -0.00379832 -0.00280415 0.000566837 -0.0057061 -0.0140358 -0.0207367
internal_weight=1092.61 824.199 334.356 47.8941 489.843 62.4346 427.409 286.462 268.414 244.86 113.154 131.706 23.5536 15.6517
internal_count=4409 3321 1340 192 1981 253 1728 1148 1088 992 458 534 96 64
is_linear=0
shrinkage=0.02


Tree=24
num_leaves=13
num_cat=0
split_feature=9 6 73 71 63 73 73 32 32 21 3 48
split_gain=13.934 19.0766 10.2989 16.4335 9.35356 6.07452 6.97644 6.04338 10.0298 8.42281 5.62476 4.64732
threshold=0.34399393415598345 -0.41076298184164189 0.20204081632653065 0.059714795008912663 45.498842134645436 0.54195804195804198 0.41522988505747133 6.5000000000000009 5.5000000000000009 2.5000000000000004 132.26804146525743 0.22500000000000003
decision_type=2 2 2 2 2 2 2 2 2 2 2 2
left_child=1 2 3 -1 -4 6 11 8 -3 -9 -8 -2
right_child=5 7 4 -5 -6 -7 10 9 -10 -11 -12 -13
leaf_value=-0.010973045391758886 0.0010292218431195519 0.0064200050493466989 -0.0039896593039134808 0.0067269207029406284 0.0065581316829056878 0.013952862390604044 -0.005962517188133982 0.0081506486238181429 -0.0052950866960563047 -0.0097286931144025673 -0.03010316614603795 -0.005106681905139133
leaf_weight=25.454732567071915 68.080790519714355 71.154508218169212 310.18094684183598 116.57795418798923 37.561634421348572 7.4360497295856467 8.6430633366107923 202.84488995373249 49.404527500271797 10.984554514288901 7.1676104068756095 176.95322516560555
leaf_count=103 276 285 1256 471 151 30 35 813 198 44 29 718
internal_value=0.000231956 0.00152155 -0.000990977 0.00354225 -0.0028459 -0.00372508 -0.00423802 0.00520382 0.00161052 0.00722338 -0.0170897 -0.00339807
internal_weight=1092.44 824.164 489.775 142.033 347.743 268.281 260.845 334.388 120.559 213.829 15.8107 245.034
internal_count=4409 3321 1981 574 1407 1088 1058 1340 483 857 64 994
is_linear=0
shrinkage=0.02


end of trees

feature_importances:
handicap_normalized=36
handicap_deviation=27
home_elo_velocity=23
points_diff=16
home_points=14
away_season_wr=14
home_draw_rate=14
away_rest_days=11
away_elo_velocity=11
away_draw_rate=10
away_points=8
home_season_wr=8
league_avg_goals=8
home_elo=7
rest_diff=7
home_net_trend=7
elo_diff=6
home_score_avg=6
home_streak=6
handi_team_past_accuracy=5
h2h_home_wr=5
home_scored_trend=5
home_wr_20=4
away_wr_20=4
away_score_avg=4
h2h_score_diff=4
away_scored_trend=4
home_recent_cover=4
away_clean_sheet_rate=4
elo_expected=3
elo_surprise=3
home_wr_10=3
away_concede_avg=3
home_rest_days=3
form_diff=3
away_recent_cover=3
home_clean_sheet_rate=3
is_home_favorite=2
home_wr_5=2
home_concede_avg=2
home_recent_form=2
away_conceded_trend=2
home_win_streak=2
away_elo=1
handicap_direction=1
away_streak=1
away_recent_form=1
away_win_streak=1
away_away_win_rate=1

parameters:
[boosting: gbdt]
[objective: binary]
[metric: binary_logloss]
[tree_learner: serial]
[device_type: cpu]
[data_sample_strategy: bagging]
[data: ]
[valid: ]
[num_iterations: 3000]
[learning_rate: 0.02]
[num_leaves: 31]
[num_threads: 0]
[seed: 0]
[deterministic: 0]
[force_col_wise: 0]
[force_row_wise: 0]
[histogram_pool_size: -1]
[max_depth: 4]
[min_data_in_leaf: 20]
[min_sum_hessian_in_leaf: 0.001]
[bagging_fraction: 0.7]
[pos_bagging_fraction: 1]
[neg_bagging_fraction: 1]
[bagging_freq: 5]
[bagging_seed: 3]
[bagging_by_query: 0]
[feature_fraction: 0.7]
[feature_fraction_bynode: 1]
[feature_fraction_seed: 2]
[extra_trees: 0]
[extra_seed: 6]
[early_stopping_round: 0]
[early_stopping_min_delta: 0]
[first_metric_only: 0]
[max_delta_step: 0]
[lambda_l1: 0.05]
[lambda_l2: 0.1]
[linear_lambda: 0]
[min_gain_to_split: 0]
[drop_rate: 0.1]
[max_drop: 50]
[skip_drop: 0.5]
[xgboost_dart_mode: 0]
[uniform_drop: 0]
[drop_seed: 4]
[top_rate: 0.2]
[other_rate: 0.1]
[min_data_per_group: 100]
[max_cat_threshold: 32]
[cat_l2: 10]
[cat_smooth: 10]
[max_cat_to_onehot: 4]
[top_k: 20]
[monotone_constraints: ]
[monotone_constraints_method: basic]
[monotone_penalty: 0]
[feature_contri: ]
[forcedsplits_filename: ]
[refit_decay_rate: 0.9]
[cegb_tradeoff: 1]
[cegb_penalty_split: 0]
[cegb_penalty_feature_lazy: ]
[cegb_penalty_feature_coupled: ]
[path_smooth: 0]
[interaction_constraints: ]
[verbosity: -1]
[saved_feature_importance_type: 0]
[use_quantized_grad: 0]
[num_grad_quant_bins: 4]
[quant_train_renew_leaf: 0]
[stochastic_rounding: 1]
[linear_tree: 0]
[max_bin: 255]
[max_bin_by_feature: ]
[min_data_in_bin: 3]
[bin_construct_sample_cnt: 200000]
[data_random_seed: 1]
[is_enable_sparse: 1]
[enable_bundle: 1]
[use_missing: 1]
[zero_as_missing: 0]
[feature_pre_filter: 1]
[pre_partition: 0]
[two_round: 0]
[header: 0]
[label_column: ]
[weight_column: ]
[group_column: ]
[ignore_column: ]
[categorical_feature: ]
[forcedbins_filename: ]
[precise_float_parser: 0]
[parser_config_file: ]
[objective_seed: 5]
[num_class: 1]
[is_unbalance: 0]
[scale_pos_weight: 1]
[sigmoid: 1]
[boost_from_average: 1]
[reg_sqrt: 0]
[alpha: 0.9]
[fair_c: 1]
[poisson_max_delta_step: 0.7]
[tweedie_variance_power: 1.5]
[lambdarank_truncation_level: 30]
[lambdarank_norm: 1]
[label_gain: ]
[lambdarank_position_bias_regularization: 0]
[eval_at: ]
[multi_error_top_k: 1]
[auc_mu_weights: ]
[num_machines: 1]
[local_listen_port: 12400]
[time_out: 120]
[machine_list_filename: ]
[machines: ]
[gpu_platform_id: -1]
[gpu_device_id: -1]
[gpu_use_dp: 0]
[num_gpu: 1]

end of parameters

pandas_categorical:[]
